
#include <eml_net.h>
static const float mynet_layer_0_biases[128] = { -0.111370f, 0.091445f, -0.052534f, 0.074408f, 0.039021f, -0.052809f, 0.030787f, 0.018954f, -0.044157f, -0.010505f, 0.007141f, 0.040868f, -0.028577f, -0.075971f, -0.016261f, -0.022490f, 0.014042f, -0.131158f, -0.123002f, 0.036543f, 0.068590f, -0.061458f, -0.043879f, 0.030844f, 0.055697f, 0.030506f, 0.045265f, 0.044219f, 0.035724f, -0.032286f, 0.009130f, 0.072329f, 0.006447f, -0.052304f, -0.081706f, -0.030663f, -0.011052f, -0.003735f, 0.058202f, -0.108776f, -0.100541f, -0.013981f, -0.130168f, 0.029970f, 0.021337f, 0.002509f, -0.039284f, 0.073706f, -0.028064f, 0.033162f, 0.059634f, -0.048821f, -0.017589f, -0.014305f, -0.100785f, 0.040195f, 0.026183f, 0.053590f, 0.030523f, -0.101634f, -0.167237f, -0.060753f, 0.071338f, -0.036873f, 0.053328f, 0.010582f, 0.035161f, 0.063748f, -0.033771f, -0.070139f, -0.031736f, 0.042614f, 0.037858f, 0.041347f, -0.031329f, -0.057082f, 0.019006f, 0.033151f, -0.043398f, 0.050276f, 0.000603f, 0.052871f, 0.084367f, -0.037506f, -0.049664f, 0.015101f, -0.116847f, 0.060786f, 0.081493f, 0.003644f, 0.009703f, 0.022528f, -0.100149f, -0.005069f, 0.024368f, -0.071923f, 0.050978f, 0.008889f, -0.001047f, -0.017163f, 0.118597f, -0.038765f, -0.102405f, -0.012801f, -0.021885f, 0.043118f, 0.014854f, 0.020447f, -0.157781f, -0.084178f, 0.019487f, 0.072429f, -0.010474f, -0.041769f, 0.061164f, 0.015478f, -0.078661f, 0.033061f, 0.092678f, -0.009093f, 0.020766f, -0.018698f, -0.031983f, 0.003486f, -0.135829f, 0.010994f, -0.103936f, -0.116470f };
static const float mynet_layer_0_weights[108160] = { -0.085649f, 0.062221f, 0.002500f, 0.013107f, -0.096421f, -0.115313f, -0.107158f, 0.024285f, 0.008938f, 0.022689f, -0.056337f, 0.131618f, 0.063611f, -0.051899f, -0.003122f, -0.099213f, -0.052246f, 0.019582f, -0.038041f, -0.057957f, 0.062594f, -0.120853f, -0.015704f, -0.078493f, 0.104296f, 0.073364f, -0.006836f, 0.002154f, 0.112882f, -0.042939f, -0.021853f, -0.060751f, -0.007094f, 0.028029f, 0.023516f, 0.016898f, -0.003197f, -0.100950f, -0.032926f, -0.067866f, -0.085254f, 0.028389f, -0.086107f, 0.110572f, -0.045941f, -0.027903f, -0.020388f, -0.020039f, -0.000752f, 0.035275f, 0.089341f, -0.018113f, 0.049221f, 0.061944f, 0.037703f, 0.029809f, -0.106263f, 0.034531f, -0.074709f, -0.056432f, -0.111771f, -0.048198f, 0.013727f, 0.022346f, 0.013614f, 0.004001f, -0.100114f, 0.106137f, -0.006613f, 0.137866f, 0.003436f, -0.014246f, -0.096241f, 0.038198f, -0.010921f, 0.024337f, 0.103632f, 0.026885f, -0.033295f, 0.018328f, -0.008033f, -0.024670f, -0.050364f, -0.031815f, -0.026804f, 0.027284f, -0.012422f, 0.105502f, 0.053293f, -0.019841f, -0.138982f, -0.025135f, 0.056722f, 0.032516f, 0.028420f, 0.022380f, -0.005020f, -0.000967f, -0.053793f, -0.071591f, -0.084837f, 0.085656f, -0.088656f, -0.035906f, 0.103675f, -0.035604f, -0.004599f, 0.092769f, -0.049056f, -0.097254f, -0.060233f, -0.033017f, 0.032027f, 0.022036f, 0.032836f, 0.082647f, 0.035952f, -0.055069f, -0.003316f, 0.020349f, 0.032728f, 0.060246f, -0.068511f, -0.052505f, -0.113486f, -0.031213f, 0.031920f, 0.068940f, -0.135935f, 0.014824f, -0.034314f, -0.036765f, -0.081880f, -0.053635f, 0.062776f, -0.020147f, -0.025200f, -0.001929f, -0.028625f, 0.085918f, 0.092757f, -0.030930f, 0.008391f, -0.061677f, -0.013997f, -0.044668f, -0.000348f, 0.005211f, -0.075057f, -0.052321f, 0.058867f, -0.049975f, 0.007882f, 0.036156f, 0.088139f, -0.035444f, 0.117851f, 0.050819f, -0.057268f, 0.050559f, 0.029671f, 0.007831f, -0.003613f, 0.024481f, -0.035871f, 0.007659f, -0.025221f, -0.102257f, -0.076106f, 0.060871f, 0.015140f, -0.026376f, -0.001045f, -0.047715f, 0.071969f, -0.040604f, 0.026825f, 0.002114f, 0.060204f, -0.084007f, -0.035283f, -0.063554f, 0.082094f, 0.038427f, -0.080302f, 0.067327f, 0.090110f, -0.019389f, -0.051235f, -0.051372f, -0.066741f, 0.097970f, 0.113312f, 0.031347f, -0.052044f, -0.008610f, 0.015319f, 0.093659f, 0.041980f, -0.016718f, 0.089095f, -0.105681f, -0.079808f, 0.023753f, 0.025566f, 0.019778f, -0.058220f, 0.050940f, -0.133650f, -0.068449f, -0.025348f, 0.042695f, 0.003897f, 0.016441f, 0.003207f, -0.018580f, 0.017031f, 0.031817f, -0.028155f, -0.003491f, 0.020917f, -0.006702f, -0.067073f, 0.025852f, -0.042371f, -0.017934f, 0.093600f, -0.045914f, 0.062065f, 0.078531f, -0.022018f, -0.026447f, 0.027268f, -0.004773f, -0.036945f, 0.058840f, -0.007102f, -0.078017f, 0.025500f, -0.091649f, 0.066181f, 0.065183f, 0.035867f, -0.035460f, -0.073846f, 0.039377f, -0.048628f, 0.066304f, 0.039948f, 0.049252f, -0.034913f, -0.015273f, 0.036168f, -0.031056f, -0.054522f, -0.008681f, -0.007647f, 0.040535f, -0.005284f, -0.032801f, -0.018517f, 0.050694f, -0.051086f, 0.009010f, 0.026517f, 0.019027f, 0.011875f, 0.017517f, -0.004658f, -0.041332f, 0.046095f, 0.012413f, 0.073530f, 0.076484f, -0.024057f, 0.037018f, 0.021692f, 0.024423f, 0.026935f, 0.034161f, 0.097138f, 0.009003f, -0.012816f, -0.091906f, 0.085765f, -0.060843f, -0.022358f, 0.024374f, 0.012000f, 0.007237f, -0.099100f, -0.050204f, 0.071416f, -0.052741f, -0.047780f, -0.044608f, 0.017557f, -0.002326f, -0.002184f, -0.026812f, -0.073327f, 0.003116f, 0.048593f, 0.040257f, 0.030480f, 0.061359f, 0.009902f, -0.063030f, 0.041727f, -0.046733f, 0.004319f, -0.034550f, -0.127905f, 0.087616f, 0.091752f, 0.008544f, -0.033220f, -0.043649f, -0.056958f, -0.016126f, 0.058519f, 0.046457f, 0.011586f, -0.034971f, 0.035806f, 0.063077f, 0.008367f, -0.056676f, 0.068869f, -0.092874f, -0.047053f, -0.017796f, -0.070511f, 0.023485f, -0.047560f, -0.061561f, 0.003677f, 0.006032f, -0.055904f, -0.048114f, -0.022440f, 0.040646f, -0.047404f, 0.000691f, 0.037786f, -0.005439f, -0.003912f, -0.110310f, -0.054074f, -0.024982f, -0.000846f, 0.092691f, -0.004953f, -0.020925f, -0.041354f, -0.016128f, -0.064452f, 0.072690f, 0.006763f, -0.023928f, 0.009009f, 0.017224f, -0.006081f, 0.028624f, 0.103758f, -0.018032f, 0.068194f, -0.003746f, -0.046240f, -0.076623f, -0.084430f, -0.091791f, -0.047246f, -0.006024f, -0.107386f, -0.030849f, 0.005317f, -0.070221f, 0.036374f, -0.058007f, -0.054336f, 0.011038f, 0.023881f, 0.030141f, -0.013040f, 0.041506f, -0.059722f, -0.007499f, 0.015224f, 0.006341f, 0.061825f, -0.006182f, -0.048590f, 0.029677f, -0.036933f, 0.053198f, 0.076402f, -0.032936f, 0.044045f, -0.015871f, -0.058572f, 0.069394f, -0.041482f, 0.090231f, -0.018067f, 0.060891f, -0.016656f, -0.080861f, 0.100751f, -0.043738f, -0.020135f, 0.023237f, 0.134975f, 0.029846f, 0.009404f, 0.021544f, 0.016769f, -0.028061f, -0.010653f, 0.078779f, 0.052759f, 0.025454f, -0.064892f, -0.042603f, -0.091052f, 0.048050f, -0.034773f, 0.079929f, -0.014957f, -0.058056f, -0.019950f, 0.057265f, 0.014910f, -0.058625f, -0.064007f, -0.013410f, -0.073218f, 0.042882f, 0.040325f, -0.040324f, -0.111345f, 0.087002f, 0.005125f, -0.027979f, 0.015010f, 0.040606f, 0.076455f, 0.073387f, 0.025006f, -0.041720f, 0.024082f, 0.013625f, -0.028531f, 0.089169f, -0.079744f, -0.051612f, 0.014538f, -0.052795f, -0.100616f, -0.101232f, -0.051927f, 0.090298f, 0.034223f, 0.040016f, 0.011515f, -0.038285f, -0.089231f, 0.058961f, -0.029827f, 0.096102f, -0.056712f, 0.086218f, -0.017028f, 0.057888f, -0.017850f, 0.031533f, -0.077989f, -0.035010f, 0.070199f, 0.025001f, -0.023538f, 0.061129f, 0.012796f, -0.014274f, 0.032414f, 0.117512f, -0.106787f, -0.071480f, 0.109806f, 0.057866f, -0.003521f, 0.042710f, 0.001149f, -0.061172f, -0.016091f, -0.082048f, 0.000381f, -0.090818f, 0.054049f, 0.049905f, 0.030661f, -0.003893f, -0.078552f, 0.057771f, -0.022418f, -0.052179f, 0.059537f, 0.033287f, 0.050251f, -0.005045f, 0.021160f, -0.034900f, 0.030123f, 0.068086f, -0.104877f, -0.048454f, -0.029800f, 0.027603f, 0.039710f, -0.068179f, -0.004993f, -0.037836f, 0.060923f, 0.047481f, 0.072247f, -0.023869f, 0.015164f, -0.090981f, -0.064011f, 0.076120f, 0.010282f, 0.123777f, 0.053229f, -0.001238f, 0.058548f, 0.065981f, 0.094053f, -0.010208f, 0.011373f, -0.078096f, 0.141979f, 0.028557f, -0.041236f, 0.039472f, 0.055826f, -0.042791f, -0.105875f, 0.028630f, 0.054358f, 0.006153f, 0.008581f, 0.015289f, -0.022123f, 0.036654f, 0.036872f, -0.003245f, -0.059017f, -0.090793f, 0.082512f, 0.043124f, 0.022770f, -0.028948f, -0.065453f, -0.130942f, -0.031102f, 0.021111f, 0.003452f, 0.022231f, -0.007360f, -0.009226f, 0.035773f, 0.026876f, -0.049846f, -0.007087f, 0.085835f, 0.100277f, -0.003010f, 0.081477f, -0.011954f, -0.025797f, -0.021785f, 0.094077f, -0.004569f, -0.053792f, 0.091592f, -0.096188f, -0.088170f, -0.118142f, -0.039094f, 0.014235f, -0.047974f, 0.060251f, -0.113568f, -0.056954f, -0.004998f, 0.003997f, 0.035094f, -0.027918f, -0.026200f, -0.060978f, -0.003354f, -0.018224f, -0.078580f, -0.101670f, -0.064424f, -0.032091f, -0.061771f, 0.023279f, -0.019261f, 0.057412f, -0.026216f, 0.001241f, 0.045151f, -0.025668f, 0.008168f, 0.024220f, -0.049719f, -0.022757f, 0.030885f, 0.053838f, 0.014381f, -0.040267f, -0.002615f, -0.045763f, 0.001129f, -0.031251f, -0.019640f, 0.014341f, -0.062134f, -0.045236f, -0.019947f, 0.065145f, -0.067190f, -0.001847f, -0.048696f, -0.007174f, 0.019941f, -0.044797f, -0.045355f, -0.052417f, -0.101335f, -0.015951f, -0.081529f, -0.011194f, -0.066229f, 0.033806f, -0.029417f, 0.012083f, 0.026545f, -0.024967f, -0.069173f, 0.007031f, 0.041811f, 0.043977f, 0.022057f, -0.092070f, -0.019743f, 0.000098f, -0.024961f, 0.051091f, -0.050203f, 0.033823f, 0.037247f, -0.043364f, -0.014943f, -0.033145f, -0.019541f, -0.070688f, 0.033773f, -0.044542f, -0.032817f, 0.071340f, -0.017308f, -0.014649f, -0.071037f, 0.058131f, 0.007199f, -0.041194f, 0.066585f, 0.020574f, 0.023570f, -0.010791f, -0.058579f, 0.030907f, 0.035403f, -0.037403f, 0.052413f, -0.023172f, 0.025272f, -0.025278f, -0.039021f, -0.081417f, -0.008020f, -0.033012f, -0.032773f, 0.061756f, -0.095179f, 0.029218f, -0.023534f, -0.003782f, -0.039120f, -0.082034f, -0.002440f, -0.027419f, -0.008630f, 0.089250f, -0.026558f, 0.046936f, -0.052687f, 0.050903f, 0.054860f, 0.000681f, 0.070569f, -0.074932f, -0.041244f, -0.004094f, 0.050371f, 0.145779f, -0.064854f, 0.060764f, -0.008534f, -0.083246f, -0.118267f, 0.049908f, 0.026052f, 0.079115f, -0.013604f, 0.060310f, -0.004147f, -0.040380f, -0.059172f, 0.028299f, -0.018497f, -0.011713f, -0.048942f, 0.098346f, -0.053812f, 0.058910f, 0.044709f, -0.061399f, 0.010826f, 0.002991f, -0.015373f, -0.052241f, -0.030459f, 0.067099f, -0.018116f, 0.029972f, 0.121640f, 0.018828f, -0.030940f, 0.016515f, 0.005541f, -0.043692f, -0.050187f, 0.011543f, -0.002110f, 0.009698f, 0.012429f, 0.068653f, -0.135104f, -0.040497f, -0.028324f, 0.046951f, -0.040588f, -0.008170f, 0.022109f, 0.022677f, -0.054823f, 0.056798f, -0.082812f, 0.070130f, -0.044844f, -0.033312f, -0.004408f, -0.054621f, -0.053291f, 0.006584f, 0.015056f, 0.021470f, 0.065923f, 0.019893f, -0.005595f, -0.061997f, -0.030888f, 0.067862f, -0.040226f, 0.009043f, -0.039177f, 0.032689f, -0.046616f, 0.003550f, 0.048721f, 0.058260f, -0.064585f, 0.034981f, 0.139209f, -0.003519f, 0.034245f, 0.078467f, 0.076999f, -0.080835f, -0.028148f, 0.003530f, 0.044430f, 0.014898f, 0.067209f, 0.028276f, -0.045128f, -0.021072f, 0.057905f, 0.042546f, -0.067461f, 0.027200f, 0.091324f, 0.008860f, 0.008737f, -0.025766f, -0.092133f, -0.100645f, 0.034392f, -0.085219f, 0.010464f, 0.049956f, -0.045498f, 0.073020f, -0.005393f, -0.029603f, -0.022959f, -0.026777f, -0.033432f, 0.006724f, -0.010574f, -0.033468f, 0.000269f, 0.002162f, 0.079049f, 0.003454f, 0.015058f, 0.035286f, -0.013622f, -0.031530f, -0.067990f, -0.001637f, -0.045600f, 0.058466f, -0.076355f, 0.090556f, -0.064552f, -0.002113f, -0.110354f, 0.045723f, -0.020336f, 0.074678f, -0.013859f, -0.022111f, -0.034184f, 0.002634f, 0.031672f, -0.073234f, 0.003028f, -0.023448f, -0.046019f, 0.023575f, -0.069582f, 0.004251f, -0.006399f, -0.081934f, 0.074685f, 0.100610f, -0.048452f, -0.091257f, 0.037353f, -0.002424f, -0.076955f, -0.012939f, 0.069192f, 0.018429f, -0.042697f, -0.095051f, -0.057335f, 0.016907f, -0.068253f, -0.089689f, 0.025775f, -0.026122f, -0.032492f, -0.001471f, -0.130939f, -0.066462f, 0.032047f, 0.064540f, 0.063964f, -0.033427f, 0.013113f, -0.059442f, -0.063447f, 0.065522f, -0.080817f, -0.038285f, -0.046074f, -0.088128f, -0.085686f, 0.021693f, -0.011147f, 0.050353f, 0.027823f, -0.037531f, -0.014081f, -0.013940f, 0.055371f, -0.076568f, 0.037520f, -0.002691f, -0.035714f, 0.001322f, -0.077998f, 0.040156f, 0.053141f, -0.058782f, 0.066404f, 0.019269f, 0.084140f, 0.004449f, 0.061732f, -0.092474f, -0.020903f, 0.027391f, 0.065362f, -0.058411f, -0.073409f, 0.047460f, 0.141945f, 0.000277f, -0.033967f, -0.042358f, -0.116904f, 0.079953f, -0.078525f, 0.018000f, -0.055123f, -0.025303f, 0.045070f, 0.055387f, -0.048511f, -0.095936f, -0.071172f, -0.006931f, 0.045821f, -0.002932f, 0.051509f, 0.077137f, -0.099589f, 0.066543f, 0.013616f, -0.025437f, -0.032664f, -0.065893f, -0.051404f, 0.042995f, -0.015389f, 0.038653f, -0.037674f, 0.012713f, -0.021669f, -0.007195f, 0.054408f, -0.030218f, 0.083096f, -0.062782f, 0.010155f, -0.001232f, 0.045517f, 0.027310f, -0.097770f, -0.011981f, -0.053168f, -0.080173f, -0.042264f, 0.008562f, -0.023865f, 0.057220f, -0.029943f, -0.061846f, 0.056980f, -0.003393f, 0.074998f, -0.011688f, -0.076624f, 0.025511f, 0.019099f, 0.061653f, -0.093943f, 0.015813f, 0.002786f, -0.110041f, 0.071866f, -0.022982f, 0.030629f, -0.057039f, -0.028027f, 0.030012f, 0.055282f, 0.087608f, 0.085707f, 0.038469f, 0.056352f, -0.021616f, -0.064690f, -0.025258f, -0.068881f, 0.053978f, 0.038562f, -0.045516f, -0.024193f, 0.107287f, -0.105332f, -0.003335f, 0.048335f, -0.058009f, 0.040148f, -0.042778f, 0.056187f, 0.037496f, 0.042285f, -0.011636f, 0.041476f, 0.067956f, -0.046030f, 0.010105f, -0.078484f, 0.039021f, -0.015402f, -0.040550f, -0.083712f, 0.017366f, -0.015400f, 0.023672f, -0.022001f, -0.058819f, 0.012012f, 0.049863f, -0.062500f, 0.063506f, 0.025639f, 0.002815f, -0.035567f, -0.078422f, 0.068671f, -0.056725f, 0.094112f, -0.054384f, 0.112782f, 0.022790f, 0.078394f, 0.007420f, 0.079303f, -0.033678f, -0.014863f, 0.038082f, 0.113848f, 0.081174f, 0.040402f, 0.001399f, -0.059910f, 0.057369f, -0.054815f, -0.028594f, -0.061162f, -0.070481f, -0.019779f, -0.032057f, -0.073524f, -0.092226f, 0.061928f, -0.067830f, -0.021504f, 0.009093f, -0.009781f, 0.111168f, 0.004192f, -0.063741f, 0.013649f, 0.065926f, 0.052328f, 0.013945f, 0.035013f, -0.031394f, 0.110464f, 0.002204f, 0.068129f, 0.044848f, 0.031643f, 0.016131f, -0.034906f, -0.051528f, 0.049633f, -0.113530f, 0.029032f, -0.111983f, -0.051439f, 0.135209f, 0.022986f, 0.086997f, 0.028171f, -0.057619f, -0.045509f, 0.022625f, 0.046323f, -0.053520f, 0.108252f, -0.051776f, -0.016519f, -0.004845f, 0.073183f, 0.006636f, -0.077988f, 0.013555f, -0.063649f, -0.026482f, 0.000348f, 0.084232f, 0.073395f, 0.014001f, 0.033155f, 0.049346f, -0.083230f, -0.066183f, 0.014590f, -0.018720f, 0.045238f, 0.048056f, -0.020127f, -0.009223f, 0.053811f, -0.132123f, 0.027206f, -0.050126f, -0.042648f, -0.012675f, 0.020735f, -0.007558f, -0.019884f, 0.038779f, -0.092780f, 0.049509f, 0.030176f, 0.022088f, 0.065179f, 0.050208f, 0.025620f, 0.009875f, -0.007897f, 0.000502f, 0.004580f, 0.044481f, -0.075000f, 0.010416f, 0.028311f, -0.043109f, 0.073269f, -0.051007f, -0.045533f, 0.028869f, -0.038806f, 0.041790f, 0.079776f, -0.023340f, -0.068281f, -0.026998f, -0.041447f, 0.132141f, -0.017870f, -0.049973f, 0.013934f, -0.009444f, 0.052737f, -0.042284f, 0.054533f, -0.030900f, 0.103822f, -0.048012f, 0.020616f, 0.106111f, -0.015924f, 0.040209f, 0.023301f, -0.075321f, 0.022594f, 0.020158f, -0.071664f, 0.003916f, -0.067219f, 0.043466f, -0.063312f, 0.082568f, 0.052062f, 0.041625f, 0.047133f, -0.046383f, 0.016736f, -0.065801f, -0.092319f, -0.069878f, -0.009085f, 0.042356f, 0.064984f, 0.029337f, -0.068037f, 0.093854f, 0.003682f, 0.005824f, -0.094285f, 0.042930f, 0.057647f, -0.014139f, -0.041401f, 0.049528f, 0.015329f, -0.021237f, 0.095500f, -0.026015f, -0.012354f, 0.058715f, 0.048018f, -0.057759f, -0.017500f, -0.110678f, 0.075795f, 0.057853f, 0.005101f, -0.001489f, -0.075672f, -0.080409f, -0.004387f, -0.035091f, 0.078513f, -0.007017f, 0.137556f, -0.051139f, 0.078450f, 0.041240f, 0.082659f, 0.043879f, 0.029334f, -0.006367f, -0.091391f, -0.040553f, 0.005548f, 0.036130f, 0.056772f, -0.027653f, -0.031957f, -0.023209f, 0.029681f, -0.058321f, -0.015595f, -0.005983f, -0.074831f, 0.042279f, 0.004261f, 0.066455f, 0.006355f, -0.049341f, -0.100493f, -0.118793f, -0.055657f, -0.044607f, -0.011477f, -0.016117f, 0.005435f, 0.083214f, 0.009735f, -0.080744f, -0.020127f, -0.054048f, -0.038117f, 0.063143f, -0.060381f, -0.061662f, -0.018068f, -0.014044f, -0.001396f, -0.057229f, -0.051372f, -0.065099f, -0.079151f, 0.013947f, -0.052186f, -0.041809f, -0.044638f, -0.072046f, 0.019510f, 0.026544f, 0.065541f, -0.063919f, -0.052828f, -0.047929f, -0.033292f, 0.104321f, -0.100719f, 0.063025f, -0.069155f, 0.006961f, 0.029533f, 0.075257f, 0.038784f, 0.009121f, 0.009514f, 0.004336f, -0.061839f, 0.089476f, 0.044567f, 0.028515f, -0.008191f, 0.007846f, 0.053741f, 0.022058f, -0.060127f, -0.065180f, -0.076670f, -0.022038f, 0.060710f, -0.016404f, 0.057851f, -0.050591f, -0.029551f, 0.046700f, -0.006084f, 0.018583f, -0.008056f, -0.012288f, -0.048341f, 0.066100f, 0.112015f, 0.043954f, -0.072588f, 0.044030f, -0.062568f, -0.039566f, -0.056608f, 0.008771f, 0.061103f, 0.061851f, 0.061348f, 0.015775f, -0.019788f, -0.013729f, 0.108111f, -0.050158f, 0.047416f, -0.016052f, 0.072308f, -0.053577f, 0.002146f, -0.024418f, 0.064762f, 0.058656f, -0.095874f, 0.051201f, 0.015491f, -0.064299f, 0.002049f, 0.014566f, 0.063053f, -0.056484f, 0.119345f, 0.045370f, -0.014045f, -0.050395f, 0.123197f, -0.053020f, 0.058099f, -0.038025f, -0.059347f, 0.090131f, -0.072277f, 0.002195f, 0.004108f, -0.010345f, -0.024271f, 0.009872f, 0.066353f, -0.078154f, 0.052796f, -0.048016f, 0.035084f, -0.030561f, 0.118415f, 0.016913f, 0.009333f, -0.101226f, -0.076304f, -0.065164f, -0.057442f, 0.003933f, -0.031605f, -0.026623f, -0.019876f, 0.051625f, -0.093710f, -0.057937f, -0.088082f, 0.036000f, 0.019884f, -0.012570f, 0.028171f, -0.026287f, -0.030566f, 0.014025f, -0.037138f, -0.045707f, -0.056545f, -0.132616f, -0.024142f, 0.117040f, -0.055045f, -0.032226f, -0.051626f, 0.043820f, -0.014311f, -0.011244f, -0.039543f, -0.055903f, 0.061238f, 0.078642f, -0.103339f, 0.115578f, -0.015866f, 0.061919f, -0.027552f, 0.004456f, -0.013022f, 0.042463f, -0.041157f, -0.073807f, 0.006703f, -0.009859f, -0.058126f, 0.054241f, 0.095329f, -0.084957f, 0.034528f, -0.019585f, 0.091934f, -0.047844f, 0.036113f, 0.048949f, 0.042113f, 0.049264f, 0.006724f, 0.040630f, 0.052701f, -0.002992f, -0.068803f, 0.069239f, 0.008107f, 0.028231f, -0.065563f, -0.019097f, -0.020478f, 0.023875f, -0.031741f, 0.038788f, 0.043023f, -0.079822f, 0.043975f, 0.004879f, 0.036444f, 0.080704f, 0.024393f, 0.065659f, 0.089702f, 0.016190f, -0.021735f, 0.011388f, 0.077802f, 0.039460f, 0.024226f, -0.032746f, 0.130069f, -0.126073f, 0.007177f, -0.151655f, -0.025033f, 0.039496f, -0.084137f, 0.078019f, -0.061805f, -0.023875f, -0.048666f, -0.025380f, -0.003422f, -0.072303f, 0.090952f, 0.005187f, 0.032053f, -0.025245f, 0.039364f, 0.035907f, 0.019006f, -0.051622f, -0.089622f, 0.010064f, -0.079361f, -0.021278f, 0.044335f, -0.018035f, 0.035760f, 0.081282f, 0.050446f, -0.001687f, 0.100849f, -0.083198f, -0.056437f, -0.063660f, 0.053297f, 0.092224f, -0.007622f, 0.036172f, -0.095254f, 0.005832f, -0.069984f, -0.099492f, -0.027350f, -0.036364f, -0.056809f, -0.026837f, 0.019644f, -0.014980f, -0.062563f, 0.011583f, 0.024918f, -0.053259f, -0.036269f, -0.132339f, -0.067670f, -0.001051f, -0.036037f, -0.004290f, 0.018668f, -0.126791f, -0.020946f, 0.019389f, 0.089403f, 0.022318f, -0.006841f, -0.027482f, -0.051539f, 0.020873f, 0.076780f, 0.000826f, 0.043662f, 0.067778f, -0.057352f, 0.009047f, -0.015101f, -0.020057f, 0.017213f, 0.054760f, -0.032010f, -0.020832f, 0.036900f, -0.022695f, 0.082690f, -0.051911f, -0.001286f, -0.025321f, 0.045485f, -0.044830f, 0.022881f, -0.065696f, 0.074871f, 0.049302f, -0.026440f, -0.035917f, -0.095641f, 0.033973f, 0.023313f, 0.027878f, -0.060695f, -0.027729f, 0.009983f, -0.002624f, 0.067147f, -0.067522f, 0.012389f, -0.019550f, -0.016215f, 0.041209f, 0.020546f, 0.071525f, -0.071323f, -0.079419f, 0.002153f, 0.012727f, -0.064521f, 0.001965f, -0.033285f, 0.096792f, -0.008542f, -0.015507f, -0.029303f, -0.051761f, -0.026269f, -0.004609f, -0.069697f, 0.024113f, 0.054090f, -0.060413f, 0.057697f, -0.041703f, -0.007714f, 0.027254f, -0.091629f, 0.076331f, 0.013772f, -0.007305f, 0.010042f, 0.016524f, 0.049545f, -0.071012f, 0.090934f, 0.045497f, -0.044694f, 0.005154f, 0.015328f, -0.009616f, -0.049071f, -0.055204f, -0.000982f, 0.014102f, -0.054158f, 0.039459f, 0.094092f, -0.063739f, -0.001794f, -0.007296f, 0.083767f, 0.033349f, 0.037668f, 0.040015f, -0.010228f, 0.022279f, -0.042481f, 0.079346f, -0.028839f, 0.027362f, 0.020784f, -0.013026f, -0.119786f, -0.069006f, -0.061693f, -0.021908f, -0.067746f, 0.062393f, -0.017034f, -0.050797f, -0.068896f, -0.018127f, 0.025730f, -0.013294f, 0.039651f, -0.068792f, 0.035613f, 0.021549f, -0.021677f, 0.051259f, -0.067555f, -0.026071f, -0.046550f, 0.089817f, 0.087101f, 0.100170f, -0.007022f, -0.064719f, -0.050671f, -0.021230f, -0.040175f, 0.009189f, -0.043148f, 0.083389f, 0.005100f, 0.076298f, -0.061909f, 0.040911f, 0.033574f, -0.007698f, 0.002434f, 0.067288f, -0.059605f, -0.002508f, 0.017052f, -0.079139f, -0.048564f, -0.014344f, -0.044769f, -0.079468f, 0.096535f, -0.014651f, 0.109668f, -0.014264f, -0.017040f, 0.039600f, -0.035152f, -0.040404f, 0.031013f, -0.017171f, -0.017105f, 0.012458f, -0.068850f, -0.082001f, 0.045646f, -0.031247f, -0.066734f, 0.083069f, -0.059482f, 0.034264f, 0.040237f, -0.035242f, -0.052502f, -0.091394f, -0.069801f, -0.057519f, 0.017270f, 0.004643f, 0.026141f, 0.087767f, 0.081147f, 0.016908f, -0.015125f, -0.036728f, 0.046653f, -0.028787f, -0.049115f, 0.041803f, 0.084065f, -0.104727f, 0.007930f, -0.060497f, 0.031588f, 0.073804f, -0.032118f, -0.021499f, -0.069397f, -0.030242f, -0.063821f, -0.067256f, 0.095033f, -0.053127f, 0.103190f, -0.054886f, -0.076237f, -0.050234f, 0.135142f, 0.036500f, 0.071672f, -0.054505f, -0.094727f, 0.024538f, -0.100052f, 0.046312f, -0.048565f, -0.018814f, -0.032932f, 0.038893f, 0.053174f, -0.040237f, 0.020370f, -0.015172f, -0.028946f, 0.055027f, 0.062049f, 0.134565f, 0.062822f, -0.033671f, 0.007908f, -0.063485f, -0.082872f, 0.027956f, -0.088482f, 0.062149f, -0.001779f, 0.019075f, 0.017376f, 0.027257f, -0.036822f, 0.014076f, -0.074981f, -0.020250f, -0.076168f, -0.027785f, -0.026417f, -0.013003f, -0.033705f, -0.079117f, 0.028064f, -0.137166f, -0.083631f, -0.015190f, 0.090209f, 0.078094f, -0.071589f, -0.091516f, 0.021990f, 0.038480f, 0.010160f, -0.036299f, -0.064904f, -0.021186f, 0.020238f, 0.084838f, -0.077191f, -0.083350f, -0.089898f, 0.085507f, -0.049461f, 0.064050f, -0.027670f, -0.025224f, -0.024800f, -0.089837f, -0.009115f, 0.087378f, 0.018763f, -0.000375f, -0.021671f, 0.019850f, 0.062080f, -0.033132f, 0.091835f, 0.055951f, 0.007738f, 0.066698f, 0.050763f, 0.062347f, -0.082569f, -0.014014f, 0.065772f, -0.054832f, -0.002549f, -0.032523f, -0.016874f, 0.018356f, 0.055769f, -0.058825f, -0.055097f, -0.056852f, 0.035072f, -0.025038f, -0.052241f, 0.040976f, 0.059291f, 0.112102f, 0.077644f, -0.026236f, 0.063200f, 0.008131f, 0.086418f, -0.022485f, 0.091809f, 0.017872f, -0.063429f, -0.021199f, 0.163352f, -0.030181f, -0.049695f, -0.113426f, -0.093335f, 0.056830f, -0.034725f, -0.009908f, -0.055974f, 0.027828f, 0.073604f, 0.004048f, 0.061219f, 0.001058f, 0.041027f, -0.022887f, 0.012236f, 0.037650f, 0.100842f, 0.008553f, -0.063241f, -0.043154f, -0.122945f, 0.003184f, -0.067077f, 0.071721f, -0.031201f, -0.044946f, 0.047740f, 0.020901f, 0.021114f, -0.021654f, 0.047295f, -0.090058f, -0.044555f, 0.051041f, 0.019880f, 0.005186f, 0.060651f, -0.045412f, 0.021889f, -0.082330f, 0.032805f, -0.026616f, -0.032945f, -0.062974f, -0.030698f, 0.036547f, 0.061894f, -0.037856f, -0.067650f, 0.004505f, 0.073125f, -0.010294f, -0.033093f, -0.062556f, 0.006478f, -0.127616f, 0.052292f, -0.029925f, 0.036789f, -0.127764f, -0.022315f, 0.055752f, 0.027700f, -0.036118f, -0.044947f, -0.062327f, 0.056811f, 0.002734f, 0.006357f, 0.042367f, -0.044701f, 0.072203f, 0.008146f, -0.000813f, -0.086473f, -0.024703f, 0.021979f, 0.045916f, 0.010956f, 0.021987f, -0.043027f, -0.041239f, -0.014242f, -0.036393f, -0.088591f, -0.006077f, -0.000585f, 0.031707f, 0.128837f, 0.035926f, 0.021287f, -0.029295f, 0.056317f, 0.089958f, -0.041767f, 0.018371f, 0.070427f, 0.027732f, -0.006048f, 0.039962f, -0.059532f, -0.027026f, 0.016433f, -0.093974f, -0.081245f, 0.077942f, -0.049245f, -0.021180f, -0.031943f, 0.041354f, -0.045151f, -0.079361f, 0.039120f, 0.032403f, -0.052610f, 0.083038f, 0.009540f, 0.007596f, -0.030190f, -0.045359f, 0.063528f, -0.065949f, 0.027615f, 0.030075f, 0.006118f, -0.094271f, 0.126881f, -0.139644f, 0.070574f, -0.003613f, 0.023916f, -0.059281f, -0.132520f, -0.013728f, -0.069075f, -0.043168f, 0.081286f, -0.029493f, 0.015234f, 0.046653f, 0.061466f, -0.000797f, -0.067751f, -0.036171f, 0.001049f, -0.094546f, 0.047520f, -0.084638f, -0.038489f, 0.022005f, -0.110757f, 0.062157f, -0.037002f, 0.000378f, 0.079255f, 0.082394f, 0.079003f, -0.111963f, 0.014015f, -0.084643f, -0.018428f, 0.082487f, -0.029209f, 0.109211f, -0.032686f, 0.038732f, -0.011810f, 0.020560f, -0.032690f, -0.015503f, -0.059772f, -0.069380f, -0.035214f, -0.077363f, 0.046548f, -0.018672f, -0.064640f, -0.103646f, 0.088981f, 0.029452f, -0.080625f, -0.009356f, -0.003185f, -0.120371f, 0.028410f, -0.008126f, -0.065843f, -0.004072f, 0.035085f, 0.078118f, 0.004593f, 0.008014f, -0.018421f, -0.065426f, -0.017782f, -0.013115f, 0.024761f, -0.013246f, -0.085168f, 0.059546f, -0.052198f, 0.006249f, -0.061459f, -0.019359f, 0.017212f, 0.009498f, -0.074178f, 0.077688f, 0.016633f, 0.059383f, -0.010754f, -0.023796f, 0.036499f, 0.064152f, -0.095661f, -0.071256f, 0.028403f, 0.033180f, 0.012046f, -0.015303f, -0.025454f, 0.058642f, 0.076241f, 0.017139f, 0.064504f, 0.121478f, -0.073804f, 0.033271f, -0.042962f, 0.028632f, 0.045106f, 0.020456f, 0.049026f, 0.028258f, 0.044298f, -0.010133f, -0.047752f, -0.017455f, 0.032040f, -0.090609f, 0.039566f, 0.047735f, -0.024558f, 0.094407f, -0.043082f, -0.031942f, -0.031892f, 0.078885f, 0.036685f, -0.111271f, 0.026096f, 0.018790f, -0.105024f, 0.017103f, 0.138035f, -0.059192f, 0.121486f, -0.026248f, 0.027055f, 0.026600f, -0.043362f, -0.031257f, 0.042290f, -0.000943f, -0.040080f, -0.048023f, 0.058214f, 0.029840f, 0.098711f, 0.031988f, -0.064671f, 0.012130f, 0.022890f, 0.009588f, 0.039152f, 0.000567f, -0.013531f, -0.005071f, -0.088138f, 0.049457f, 0.028715f, -0.043853f, 0.028494f, 0.128128f, -0.021239f, -0.070090f, 0.054563f, 0.020343f, -0.101423f, -0.026660f, -0.032125f, 0.039661f, -0.008870f, 0.077920f, 0.009442f, -0.023055f, -0.070357f, 0.067111f, 0.002569f, 0.046937f, 0.036538f, -0.088968f, 0.035183f, -0.046093f, -0.030802f, -0.112920f, -0.026206f, 0.072599f, -0.054096f, 0.006337f, -0.026045f, -0.041217f, 0.059434f, -0.014717f, -0.032554f, -0.104438f, -0.077539f, 0.028031f, 0.037761f, 0.085210f, 0.045151f, -0.044826f, 0.086618f, 0.012885f, -0.041674f, 0.061786f, 0.020684f, 0.018904f, -0.070778f, 0.014682f, -0.010136f, 0.066592f, -0.003734f, -0.022226f, 0.042647f, -0.033832f, -0.060679f, -0.056688f, 0.073761f, 0.049356f, -0.070492f, 0.072980f, -0.063592f, 0.038436f, 0.069866f, 0.017482f, -0.063774f, 0.045613f, 0.064116f, 0.002957f, 0.078679f, 0.004798f, 0.083864f, -0.009486f, -0.014582f, 0.041953f, -0.070044f, -0.063432f, -0.044797f, -0.006132f, -0.009965f, 0.067190f, -0.043675f, -0.046466f, 0.043932f, -0.119780f, 0.045870f, 0.003374f, 0.019899f, 0.000988f, 0.071037f, -0.005070f, -0.084261f, -0.029049f, 0.053233f, -0.051856f, 0.023167f, 0.014092f, 0.112831f, 0.008440f, -0.108638f, 0.029421f, 0.099285f, -0.090979f, -0.004862f, 0.045578f, -0.019589f, 0.057795f, -0.000433f, 0.029488f, -0.010205f, 0.005928f, -0.017518f, 0.009136f, 0.093007f, 0.040557f, 0.100757f, -0.029402f, 0.017947f, -0.009941f, 0.084822f, -0.026350f, -0.058741f, 0.013969f, -0.124059f, 0.003478f, -0.074785f, -0.001448f, 0.100540f, 0.003717f, 0.071085f, 0.080985f, 0.019504f, -0.063698f, -0.019618f, -0.046593f, -0.021353f, -0.059347f, -0.039148f, -0.003378f, 0.062359f, 0.020208f, -0.008103f, -0.075543f, -0.036664f, -0.003366f, -0.027579f, -0.031779f, -0.054879f, -0.107210f, -0.016572f, -0.068843f, -0.118195f, -0.070080f, 0.053285f, 0.041121f, -0.015154f, -0.051438f, 0.063378f, -0.085339f, -0.001938f, -0.013392f, -0.051336f, -0.085741f, -0.016867f, 0.101179f, 0.026156f, 0.042454f, 0.062577f, -0.139371f, 0.003347f, -0.017084f, -0.022871f, 0.002692f, 0.059684f, 0.030838f, 0.005790f, -0.018687f, 0.067223f, 0.097033f, 0.044246f, -0.068254f, -0.016452f, -0.045046f, -0.092145f, -0.055100f, 0.065833f, 0.007593f, -0.107146f, 0.007413f, -0.027297f, -0.039399f, -0.007317f, -0.038221f, 0.029034f, -0.069328f, -0.035785f, 0.012699f, 0.090566f, 0.048755f, 0.050661f, 0.011985f, -0.038106f, -0.027515f, 0.013470f, 0.052962f, 0.032207f, 0.054213f, 0.061384f, 0.007355f, 0.051406f, -0.083066f, 0.020493f, -0.102001f, -0.068883f, -0.034760f, -0.022931f, -0.012460f, 0.015156f, -0.025581f, -0.088198f, 0.008489f, -0.038164f, 0.046223f, 0.025945f, -0.009934f, 0.106428f, -0.000517f, -0.029208f, -0.027343f, 0.023334f, 0.018021f, 0.047147f, 0.052283f, -0.007738f, 0.076655f, 0.006025f, 0.000812f, -0.029738f, 0.051467f, -0.006717f, 0.019608f, 0.085315f, 0.037764f, 0.006734f, -0.067899f, 0.001527f, -0.086677f, 0.103232f, -0.082477f, -0.076983f, -0.047479f, -0.041234f, 0.050201f, -0.078027f, -0.088619f, -0.004580f, -0.018945f, 0.069234f, 0.096729f, 0.000275f, -0.030451f, 0.094382f, -0.038024f, 0.013378f, -0.048309f, -0.007001f, -0.066659f, -0.010034f, 0.134802f, -0.023962f, -0.094175f, -0.128630f, 0.037697f, -0.025795f, -0.108131f, 0.060960f, -0.042389f, 0.029072f, 0.058613f, -0.108609f, 0.016726f, -0.024667f, 0.089642f, 0.006206f, 0.028565f, 0.075917f, -0.116592f, 0.105764f, -0.047139f, -0.035285f, -0.084648f, 0.010180f, -0.036402f, 0.057738f, 0.028486f, 0.047024f, -0.040808f, 0.015261f, -0.034537f, -0.057581f, -0.059112f, -0.078263f, -0.016510f, -0.050616f, 0.065753f, 0.046148f, 0.025219f, -0.000614f, -0.058455f, -0.039415f, 0.042304f, -0.070442f, -0.033851f, 0.139823f, 0.040557f, -0.034538f, 0.028030f, 0.009496f, -0.063721f, 0.028068f, -0.096960f, 0.019423f, 0.014933f, -0.026133f, 0.106862f, 0.084600f, 0.049832f, 0.006276f, 0.104881f, -0.104045f, 0.062335f, -0.075308f, 0.036137f, -0.034406f, 0.045189f, 0.106265f, 0.001684f, 0.009208f, 0.047909f, 0.001935f, -0.002163f, 0.036289f, -0.007128f, -0.035266f, -0.037005f, 0.042644f, 0.028706f, -0.013113f, 0.004664f, 0.004533f, 0.085312f, 0.072690f, -0.053432f, 0.116646f, 0.042658f, -0.035183f, 0.093684f, -0.012081f, -0.083466f, 0.109984f, -0.010450f, -0.008910f, 0.114468f, -0.109386f, 0.083142f, -0.002320f, 0.044063f, 0.030936f, 0.067422f, -0.006725f, 0.011726f, 0.048869f, 0.009571f, 0.049481f, -0.081537f, -0.003002f, -0.070560f, 0.002683f, -0.001252f, -0.085202f, 0.092309f, -0.126901f, 0.063560f, 0.001575f, 0.042877f, 0.001175f, 0.017507f, 0.061626f, 0.058167f, 0.061769f, -0.058232f, 0.051997f, 0.035220f, 0.019118f, 0.039377f, 0.037335f, 0.064309f, -0.073073f, -0.041041f, -0.126260f, 0.043026f, 0.041700f, -0.111675f, -0.001820f, -0.084987f, 0.107752f, 0.091645f, -0.092135f, 0.017605f, 0.019747f, 0.007918f, -0.071572f, -0.008067f, 0.047008f, -0.074530f, -0.049463f, -0.080629f, -0.029323f, -0.084964f, -0.034402f, -0.018429f, 0.067075f, 0.081205f, 0.006986f, -0.030045f, 0.009932f, -0.009772f, -0.073299f, 0.002392f, 0.045589f, 0.022055f, -0.044543f, 0.025674f, -0.006813f, 0.100677f, -0.002843f, -0.022067f, -0.018137f, 0.040217f, -0.126832f, 0.007279f, 0.047494f, 0.017556f, 0.004471f, 0.050405f, 0.009338f, -0.037152f, -0.028755f, 0.036715f, -0.006868f, -0.003671f, -0.022454f, -0.007500f, 0.069145f, -0.044559f, 0.047923f, 0.007421f, -0.110704f, -0.012101f, -0.051618f, -0.059050f, -0.001524f, -0.019255f, 0.082163f, -0.017983f, -0.024885f, 0.020206f, -0.014316f, -0.126217f, -0.020342f, -0.013813f, 0.052507f, -0.025359f, 0.047191f, 0.087496f, -0.020367f, 0.089198f, -0.032939f, 0.096640f, -0.047263f, -0.009809f, 0.048213f, 0.001787f, -0.027707f, 0.034923f, -0.035002f, -0.076170f, 0.080917f, 0.039661f, 0.005117f, 0.093482f, 0.023312f, 0.046291f, -0.018061f, -0.033239f, 0.041810f, 0.034471f, -0.006969f, -0.004753f, 0.083730f, -0.023941f, 0.008279f, -0.023600f, -0.027299f, -0.078082f, -0.068683f, -0.010534f, -0.001469f, 0.008580f, 0.021081f, 0.038510f, -0.026819f, 0.042596f, 0.033102f, 0.135439f, -0.039083f, 0.032884f, 0.033898f, -0.043120f, -0.027227f, 0.010303f, 0.020977f, -0.044328f, 0.015893f, 0.057851f, -0.001608f, -0.058104f, 0.009426f, 0.011912f, 0.037903f, -0.110277f, -0.026354f, -0.019221f, 0.007821f, 0.090997f, -0.095978f, -0.051010f, 0.007940f, -0.034873f, -0.083071f, 0.008093f, 0.007522f, -0.117569f, 0.022690f, 0.001006f, -0.090926f, -0.040510f, 0.070700f, 0.042106f, 0.042028f, -0.014431f, 0.045368f, -0.043663f, 0.037319f, 0.061842f, -0.103831f, -0.062952f, 0.035162f, 0.056181f, -0.063545f, -0.029173f, -0.004522f, 0.020429f, 0.018693f, -0.000257f, -0.073356f, -0.007022f, -0.119750f, -0.046546f, 0.102409f, 0.044430f, -0.004669f, -0.063002f, 0.054335f, -0.016101f, 0.046170f, 0.009437f, 0.015077f, -0.045191f, -0.042367f, 0.007777f, 0.019725f, 0.015645f, 0.045556f, 0.002377f, -0.108752f, 0.056704f, 0.087517f, 0.014203f, 0.040247f, 0.062728f, 0.090526f, 0.017344f, -0.021420f, -0.046711f, -0.023147f, -0.112664f, 0.018524f, 0.053113f, 0.035936f, -0.037124f, 0.060413f, 0.027971f, -0.039897f, 0.047027f, -0.047485f, 0.002627f, 0.105063f, -0.097901f, 0.041024f, 0.057523f, -0.003892f, -0.054868f, -0.019197f, -0.085127f, 0.079184f, 0.015702f, -0.109029f, 0.118399f, -0.033894f, -0.040856f, 0.030934f, 0.044453f, -0.081894f, -0.021483f, 0.093525f, 0.003419f, 0.023972f, -0.027994f, -0.043449f, -0.082694f, -0.018329f, -0.080473f, -0.118437f, 0.098107f, 0.020745f, 0.069523f, 0.043494f, -0.059237f, 0.095065f, -0.024299f, 0.089603f, 0.138929f, 0.026719f, 0.061011f, 0.021643f, -0.061308f, 0.005468f, -0.006356f, -0.084066f, -0.002053f, 0.079695f, 0.036505f, 0.020341f, 0.080555f, 0.016701f, 0.090794f, 0.069366f, 0.028825f, 0.091352f, -0.068308f, 0.033668f, 0.050650f, -0.070287f, -0.031370f, 0.067465f, -0.014024f, -0.029618f, 0.067348f, 0.007345f, -0.187710f, -0.059638f, -0.026463f, 0.028155f, -0.065601f, 0.017961f, 0.007479f, -0.004966f, 0.077948f, 0.050343f, -0.141820f, 0.021346f, -0.076867f, -0.094874f, 0.010048f, -0.066325f, -0.010706f, -0.007322f, 0.071583f, 0.133034f, -0.030303f, 0.034654f, -0.030383f, -0.094378f, 0.066014f, 0.007189f, 0.025904f, 0.086222f, -0.047287f, -0.019131f, -0.044860f, 0.005899f, -0.086386f, -0.003310f, -0.009635f, -0.032142f, 0.023647f, -0.036737f, 0.060390f, 0.018195f, -0.035527f, -0.067388f, -0.034045f, 0.008110f, -0.073102f, 0.092525f, -0.014461f, -0.019302f, 0.063021f, 0.008580f, 0.113433f, -0.041718f, -0.025805f, 0.079581f, 0.016359f, 0.041139f, -0.011462f, 0.068010f, 0.006069f, 0.028933f, -0.028075f, -0.017714f, -0.009253f, -0.028105f, 0.084129f, 0.013191f, -0.119363f, -0.025842f, 0.063071f, -0.013240f, -0.016926f, 0.073991f, 0.033749f, 0.025671f, 0.062173f, -0.023980f, 0.073079f, -0.084805f, 0.046235f, 0.016405f, -0.047964f, -0.008542f, -0.055189f, -0.011756f, 0.079258f, -0.063776f, -0.033448f, 0.022407f, -0.108367f, 0.046815f, -0.076844f, -0.090905f, 0.008528f, -0.080954f, -0.033053f, 0.015342f, 0.060443f, -0.032645f, 0.040061f, 0.035827f, 0.116766f, -0.052978f, -0.054695f, -0.014154f, -0.004430f, 0.079478f, -0.058267f, -0.025899f, 0.071138f, 0.062703f, 0.151691f, 0.008691f, -0.000348f, -0.016410f, 0.039513f, -0.006403f, -0.034414f, 0.069787f, -0.062511f, 0.066089f, 0.030474f, 0.029041f, -0.133996f, 0.020996f, 0.043468f, -0.084902f, 0.034703f, 0.029010f, -0.187768f, 0.002709f, 0.006027f, -0.081265f, 0.029363f, 0.044000f, 0.079532f, 0.060679f, 0.040238f, 0.074976f, -0.051846f, 0.059028f, 0.019280f, -0.120484f, 0.029389f, -0.085949f, -0.004728f, -0.017389f, 0.089147f, 0.130514f, 0.068146f, 0.002856f, -0.027804f, -0.009588f, 0.006225f, -0.067670f, -0.093272f, 0.098085f, 0.017506f, -0.082932f, -0.076939f, 0.046790f, -0.139263f, 0.023428f, 0.114862f, -0.010618f, -0.062512f, 0.038062f, 0.121210f, 0.069766f, 0.102402f, -0.072677f, 0.009016f, -0.017933f, 0.026678f, -0.021174f, 0.022298f, 0.018299f, 0.014109f, -0.034893f, 0.133624f, -0.063641f, -0.050566f, -0.012349f, -0.006442f, 0.045007f, 0.053174f, -0.002151f, 0.006983f, 0.014177f, 0.067606f, 0.022297f, -0.051319f, 0.019083f, -0.030264f, 0.051832f, -0.075734f, -0.005399f, -0.009561f, -0.006936f, -0.040766f, 0.049374f, -0.006886f, -0.013559f, 0.091972f, -0.103779f, 0.022234f, -0.027391f, -0.035793f, -0.049088f, -0.015099f, 0.065837f, 0.028356f, 0.077156f, 0.055779f, -0.068275f, -0.034671f, 0.056645f, -0.077605f, -0.049694f, -0.088979f, -0.058294f, 0.100462f, -0.091951f, 0.039135f, -0.054239f, 0.092808f, -0.070592f, 0.019703f, 0.020920f, 0.109677f, -0.057698f, -0.033405f, 0.000684f, -0.067615f, 0.010731f, -0.008722f, -0.056222f, -0.020445f, 0.025201f, 0.136530f, -0.038100f, -0.051705f, -0.097431f, 0.065141f, 0.025326f, -0.114807f, 0.058414f, -0.015121f, 0.059414f, 0.009853f, -0.094872f, 0.000050f, -0.005454f, 0.036606f, -0.029907f, 0.006770f, -0.061292f, -0.142154f, 0.029088f, 0.056615f, 0.009067f, -0.097172f, -0.019435f, 0.130364f, 0.080509f, 0.101007f, -0.023266f, -0.090752f, 0.063966f, -0.009703f, -0.094951f, -0.081592f, -0.023697f, -0.031810f, -0.013579f, 0.091947f, 0.040662f, 0.091366f, -0.081096f, -0.000393f, -0.006435f, -0.059588f, -0.124131f, -0.050558f, -0.012203f, 0.018721f, 0.014903f, -0.009777f, -0.031892f, -0.061574f, 0.033775f, -0.015047f, 0.002557f, -0.000944f, 0.030367f, 0.031433f, 0.069633f, -0.035935f, -0.056641f, 0.055339f, -0.001204f, -0.092692f, 0.011867f, -0.066704f, -0.033819f, -0.029467f, -0.040890f, 0.045321f, 0.024664f, -0.003228f, 0.041122f, -0.095712f, 0.099262f, 0.055946f, 0.080699f, 0.034674f, 0.091896f, 0.044800f, -0.076874f, 0.040992f, 0.050620f, 0.066011f, 0.045106f, -0.098016f, -0.002690f, 0.087643f, -0.014108f, -0.020003f, -0.040118f, 0.013889f, 0.099608f, 0.085223f, -0.027584f, 0.040200f, -0.029036f, -0.066693f, 0.028637f, -0.004089f, 0.007316f, 0.003264f, 0.098226f, -0.028277f, 0.015036f, -0.053656f, 0.007717f, -0.076004f, -0.049239f, -0.041321f, -0.133680f, 0.031600f, 0.024451f, -0.010311f, 0.019413f, 0.002592f, -0.007171f, 0.003495f, -0.072565f, 0.024968f, -0.109694f, -0.063529f, 0.048636f, 0.036863f, 0.135357f, 0.016199f, -0.094006f, -0.023359f, -0.014519f, 0.017835f, -0.036502f, 0.050376f, -0.039720f, -0.005988f, 0.085282f, -0.012464f, 0.022648f, 0.033971f, 0.113515f, 0.030965f, -0.022515f, -0.074692f, 0.088022f, 0.057221f, -0.113907f, -0.026165f, -0.040422f, -0.086830f, -0.023984f, 0.033440f, -0.034053f, 0.019635f, 0.109739f, 0.091001f, 0.052311f, 0.070493f, -0.024187f, -0.088076f, 0.000537f, -0.015597f, -0.114307f, -0.061946f, -0.070006f, -0.048551f, 0.050799f, 0.055791f, 0.027581f, 0.012356f, -0.096452f, -0.080838f, -0.138076f, 0.046872f, -0.101879f, -0.063860f, -0.014700f, -0.054262f, -0.031320f, 0.026066f, -0.039523f, -0.097890f, 0.006257f, 0.029992f, -0.050527f, 0.066566f, 0.043053f, 0.077783f, 0.020201f, 0.015945f, -0.036433f, 0.058828f, 0.000599f, -0.055729f, 0.053250f, -0.022855f, 0.049853f, 0.023168f, 0.037989f, -0.001021f, 0.014320f, -0.082756f, -0.005299f, -0.065135f, 0.060248f, -0.037514f, 0.031311f, 0.056679f, -0.002170f, 0.091002f, -0.057164f, -0.034833f, 0.065016f, -0.032550f, 0.034783f, -0.023366f, 0.040516f, 0.054651f, -0.053996f, -0.082181f, 0.017331f, 0.022114f, 0.099400f, 0.135346f, -0.039439f, 0.051701f, -0.076295f, -0.015576f, 0.001552f, -0.042237f, 0.100743f, 0.015308f, 0.023394f, -0.023376f, -0.060818f, 0.012655f, 0.094029f, -0.032769f, -0.078142f, 0.017134f, -0.118479f, 0.047460f, 0.004449f, -0.006276f, -0.006269f, -0.058591f, -0.069546f, 0.085030f, -0.047656f, 0.133554f, -0.037070f, -0.022873f, -0.004725f, -0.046127f, 0.089224f, -0.072890f, -0.060595f, 0.010643f, 0.056440f, 0.078415f, 0.026943f, -0.021067f, -0.049796f, 0.039603f, 0.041910f, -0.137062f, 0.091533f, 0.021890f, 0.062036f, 0.007076f, 0.051351f, -0.054254f, 0.074407f, 0.031394f, 0.017403f, -0.019632f, -0.109189f, -0.040425f, 0.011692f, 0.013948f, -0.093459f, -0.088893f, 0.125842f, 0.050384f, 0.113895f, 0.075981f, 0.053945f, -0.085720f, 0.101158f, -0.041720f, -0.030081f, -0.094095f, -0.042555f, 0.079966f, -0.023681f, -0.022679f, -0.014665f, 0.012639f, -0.080617f, -0.020542f, -0.019954f, -0.010509f, -0.112586f, -0.085792f, 0.075232f, -0.004730f, 0.025930f, 0.045342f, 0.027453f, -0.085069f, 0.038863f, 0.027505f, 0.053897f, 0.026366f, -0.013952f, 0.021277f, -0.016525f, 0.059296f, -0.088668f, 0.045373f, -0.040254f, -0.001791f, 0.108353f, 0.037187f, 0.032999f, -0.038207f, -0.019997f, 0.067633f, -0.010307f, -0.022784f, -0.066280f, -0.061205f, -0.031686f, 0.094556f, -0.001090f, -0.017569f, -0.025450f, 0.114976f, -0.045996f, 0.103174f, 0.065191f, 0.023614f, 0.098018f, 0.068304f, 0.074614f, 0.076838f, -0.058827f, 0.022763f, -0.099646f, -0.035508f, 0.096904f, 0.069117f, -0.050521f, 0.100304f, 0.001270f, 0.030531f, -0.049148f, -0.064755f, 0.046103f, -0.090662f, -0.036034f, 0.013673f, -0.004382f, -0.028836f, 0.001395f, 0.064391f, -0.090587f, -0.122950f, -0.048104f, 0.079546f, -0.015707f, -0.016983f, 0.009916f, 0.038215f, -0.063044f, 0.062328f, 0.015333f, 0.079558f, -0.028772f, 0.069429f, 0.067705f, -0.005324f, 0.144602f, -0.030153f, -0.071244f, 0.000541f, 0.077895f, 0.120267f, -0.012944f, 0.068313f, -0.022534f, 0.083111f, 0.129575f, -0.018210f, 0.097840f, 0.045709f, 0.084941f, -0.001793f, 0.018103f, -0.015733f, 0.052032f, -0.041963f, 0.051962f, -0.081013f, -0.054504f, 0.005006f, 0.013795f, 0.003592f, -0.065769f, -0.065250f, 0.063334f, 0.002350f, -0.000285f, 0.067164f, 0.034163f, -0.074268f, 0.088164f, -0.103970f, -0.113139f, -0.025047f, -0.021448f, 0.069013f, 0.077095f, 0.069086f, 0.090027f, 0.060484f, -0.049643f, -0.019340f, -0.135694f, -0.011970f, -0.084518f, 0.060860f, 0.048687f, 0.024410f, -0.047354f, -0.052132f, -0.099814f, -0.086231f, -0.068546f, 0.075194f, 0.039897f, 0.066011f, 0.025441f, 0.016062f, 0.063978f, 0.069705f, -0.091446f, 0.073151f, -0.014231f, 0.021066f, 0.128906f, -0.056466f, 0.049397f, 0.008768f, 0.107488f, 0.044650f, 0.071228f, -0.058939f, -0.051332f, -0.089163f, 0.117307f, 0.098398f, 0.066341f, 0.026619f, -0.013603f, 0.074992f, -0.072250f, 0.005066f, -0.039542f, 0.043490f, 0.000454f, -0.070505f, -0.013741f, -0.034088f, 0.048575f, 0.074993f, 0.026840f, 0.032342f, -0.023506f, 0.131958f, -0.116746f, 0.040621f, -0.088175f, -0.121244f, -0.019535f, -0.018901f, 0.074337f, -0.098095f, -0.037101f, 0.059455f, -0.087647f, -0.069049f, 0.078952f, -0.010764f, -0.108010f, -0.051575f, -0.092689f, 0.086108f, -0.018401f, -0.017554f, -0.021264f, 0.035742f, -0.107813f, 0.067633f, -0.057594f, 0.054785f, -0.103842f, 0.001999f, 0.004741f, 0.062116f, 0.019009f, -0.034548f, -0.038921f, 0.004244f, 0.022307f, 0.073173f, 0.053472f, 0.129949f, -0.012156f, 0.000513f, 0.131257f, 0.019515f, 0.126735f, -0.005107f, 0.040088f, 0.061840f, 0.049326f, -0.015307f, 0.012162f, 0.037998f, -0.049044f, 0.021764f, -0.074845f, -0.028718f, -0.014332f, 0.017583f, -0.069846f, -0.055610f, 0.105604f, -0.063891f, 0.045617f, 0.022290f, 0.045634f, -0.054029f, -0.024129f, -0.058590f, -0.032461f, -0.023648f, -0.077709f, 0.029505f, -0.006648f, -0.029389f, -0.022529f, -0.006352f, -0.004852f, -0.024986f, -0.037056f, 0.014851f, -0.021658f, -0.052532f, 0.016675f, 0.047688f, -0.032616f, -0.046700f, -0.026881f, 0.003751f, 0.032568f, -0.012991f, -0.013442f, -0.022609f, -0.045616f, 0.095742f, -0.046584f, -0.027877f, -0.127001f, 0.068694f, 0.056354f, -0.007328f, 0.100665f, -0.041759f, -0.018431f, -0.040780f, -0.005502f, 0.053487f, 0.105423f, -0.057256f, -0.082715f, -0.051711f, 0.002358f, 0.103954f, 0.027363f, -0.031441f, 0.098722f, 0.048789f, -0.024669f, 0.016022f, 0.011134f, 0.096332f, 0.068064f, -0.040089f, 0.088975f, -0.044283f, -0.108172f, 0.004043f, -0.065934f, 0.061405f, 0.016271f, 0.147260f, -0.101685f, 0.083849f, -0.125423f, -0.149889f, 0.025988f, 0.000988f, 0.096083f, -0.096778f, -0.095335f, -0.001838f, -0.094790f, -0.112521f, 0.049927f, -0.025970f, -0.044256f, -0.085358f, -0.093561f, 0.061669f, -0.039784f, 0.020172f, 0.004674f, -0.045693f, -0.014158f, 0.008338f, 0.002631f, 0.064131f, 0.030825f, 0.002654f, -0.037020f, -0.068171f, 0.125666f, -0.037737f, -0.009294f, -0.080781f, -0.007706f, -0.012181f, 0.106747f, 0.116468f, 0.069254f, -0.049118f, 0.087488f, -0.013297f, 0.051057f, 0.065001f, 0.179319f, 0.106519f, 0.050748f, -0.034633f, -0.025218f, 0.053128f, -0.079820f, 0.000942f, -0.016741f, 0.040789f, 0.059933f, -0.063074f, -0.017402f, -0.069173f, 0.052887f, -0.053270f, -0.006471f, 0.029722f, 0.122619f, -0.103340f, -0.026318f, 0.007525f, -0.070943f, -0.087170f, -0.054850f, 0.029372f, 0.007269f, 0.073641f, -0.000152f, 0.053000f, -0.078894f, 0.016348f, -0.057863f, -0.002721f, 0.010209f, 0.022784f, 0.095315f, 0.040387f, 0.044512f, -0.059634f, -0.137647f, -0.075258f, 0.020733f, -0.001061f, -0.061437f, 0.087233f, 0.054334f, 0.079011f, -0.046584f, 0.034243f, -0.079883f, -0.033292f, -0.045470f, -0.047356f, 0.052860f, 0.050745f, -0.065863f, 0.016905f, 0.055442f, 0.030622f, 0.026629f, -0.016347f, -0.033470f, -0.021793f, -0.038210f, -0.008875f, 0.068719f, 0.036503f, 0.037477f, 0.136402f, -0.008388f, 0.082935f, 0.048446f, 0.025646f, 0.050819f, 0.012706f, 0.025319f, -0.036169f, -0.112317f, 0.095549f, 0.002913f, 0.014129f, 0.002201f, 0.063343f, -0.157935f, 0.164847f, -0.105490f, -0.144529f, 0.046562f, 0.044000f, -0.011345f, -0.020316f, -0.037433f, -0.058322f, -0.095129f, -0.042287f, -0.006887f, 0.092497f, -0.013927f, 0.022149f, -0.069013f, 0.144626f, -0.080599f, 0.015202f, -0.102577f, -0.072952f, -0.020394f, 0.026895f, -0.050852f, 0.074672f, -0.071388f, 0.030603f, 0.006844f, 0.034927f, 0.125738f, -0.060180f, -0.067246f, -0.068429f, 0.067333f, 0.024333f, 0.002587f, 0.053343f, -0.000885f, -0.036062f, 0.119589f, -0.050971f, 0.047718f, 0.059902f, 0.162035f, 0.030114f, 0.002120f, -0.023990f, 0.075134f, -0.056349f, 0.061499f, -0.007766f, -0.048235f, -0.038996f, -0.041849f, -0.044161f, -0.040423f, 0.036855f, 0.125437f, -0.024843f, 0.038672f, -0.078225f, 0.033718f, -0.129498f, -0.000413f, 0.005749f, 0.016169f, -0.084415f, -0.018009f, 0.005470f, 0.037226f, 0.065058f, 0.042205f, 0.084405f, -0.061902f, -0.003380f, -0.144464f, -0.054632f, -0.042726f, 0.063417f, 0.048180f, -0.043756f, 0.003224f, -0.048408f, -0.133688f, 0.023580f, -0.087842f, 0.003124f, -0.100789f, 0.082004f, -0.009211f, -0.032099f, -0.018421f, 0.040963f, 0.026123f, -0.027634f, 0.054984f, 0.048757f, 0.145647f, 0.032245f, 0.009048f, -0.017185f, 0.089579f, 0.062760f, 0.033529f, 0.017101f, -0.018241f, 0.031133f, -0.045592f, 0.089282f, 0.069618f, 0.033046f, 0.041446f, 0.053909f, 0.037186f, -0.026828f, 0.046076f, 0.022396f, 0.008623f, -0.086149f, 0.048705f, -0.044663f, -0.096415f, 0.006324f, -0.108418f, 0.156553f, 0.053404f, 0.058655f, -0.069456f, 0.052298f, -0.021451f, -0.044857f, 0.131841f, -0.014273f, 0.074269f, -0.074594f, 0.016996f, -0.067970f, -0.027566f, -0.021886f, 0.085751f, -0.011977f, 0.003671f, -0.087057f, -0.008489f, 0.027808f, -0.084860f, 0.051090f, -0.037470f, -0.043511f, -0.095102f, 0.023069f, 0.026087f, 0.107831f, -0.081265f, 0.016266f, -0.054011f, -0.080129f, 0.084908f, -0.044003f, -0.094443f, -0.094219f, -0.040330f, 0.080842f, 0.101308f, 0.070701f, -0.026429f, 0.013270f, 0.152535f, -0.022040f, 0.002522f, -0.045440f, 0.135726f, 0.037944f, -0.038569f, 0.020791f, -0.050607f, 0.065079f, -0.056648f, -0.094262f, -0.020698f, 0.016546f, 0.015867f, -0.019781f, -0.023194f, 0.046347f, 0.022257f, 0.014281f, -0.034939f, -0.022916f, -0.048461f, -0.112777f, 0.041977f, 0.010177f, -0.049480f, -0.080085f, 0.035171f, 0.050185f, -0.005953f, 0.030671f, -0.012994f, 0.121477f, -0.096218f, -0.024704f, -0.052861f, -0.090015f, -0.049408f, 0.036132f, 0.001902f, 0.038482f, 0.039764f, -0.054711f, -0.076206f, 0.018365f, 0.007145f, -0.027644f, -0.102864f, 0.034729f, -0.040329f, 0.003679f, 0.019951f, -0.035336f, -0.125694f, 0.018695f, 0.049570f, -0.062863f, 0.099871f, -0.016934f, 0.069791f, 0.047279f, 0.018363f, 0.023784f, -0.008095f, -0.008554f, -0.030902f, 0.014864f, 0.050000f, 0.084007f, 0.033420f, -0.063280f, 0.090851f, 0.028188f, 0.018108f, -0.028769f, -0.038361f, 0.102624f, -0.040362f, 0.007182f, 0.094931f, 0.042701f, -0.012273f, 0.041254f, 0.019408f, 0.068701f, -0.025963f, 0.092824f, -0.122117f, 0.058508f, -0.049509f, -0.070313f, 0.095082f, -0.042590f, 0.102662f, -0.010031f, -0.017598f, 0.021256f, 0.011874f, -0.098417f, 0.122037f, -0.014937f, 0.010256f, 0.015289f, -0.055537f, 0.008659f, -0.006028f, -0.010772f, 0.011668f, -0.040264f, -0.089933f, 0.114848f, 0.025402f, 0.114318f, -0.052598f, 0.028451f, 0.007338f, 0.013022f, 0.094312f, -0.014452f, -0.052276f, -0.081551f, 0.075861f, -0.019251f, 0.058586f, 0.077136f, 0.070927f, -0.016587f, 0.046359f, -0.075788f, 0.011925f, 0.047786f, 0.158984f, -0.015614f, 0.074033f, -0.009774f, 0.012355f, 0.050212f, -0.058655f, -0.047328f, -0.111296f, -0.010004f, -0.079235f, -0.072566f, 0.029543f, -0.004387f, 0.073400f, -0.099066f, -0.042085f, -0.013803f, 0.095263f, -0.158847f, 0.049575f, -0.020167f, 0.019644f, -0.039759f, -0.090513f, -0.082172f, 0.064416f, 0.028281f, 0.069415f, 0.047534f, -0.066923f, 0.023965f, -0.084425f, -0.021476f, 0.003603f, 0.081737f, 0.077398f, 0.090893f, 0.084736f, 0.049773f, -0.112708f, -0.091654f, -0.042599f, -0.037414f, -0.030286f, 0.107057f, 0.005536f, -0.067135f, 0.029190f, 0.008125f, -0.031720f, 0.045717f, 0.011424f, -0.071923f, 0.013055f, 0.052135f, 0.079705f, -0.011229f, -0.004948f, 0.028998f, 0.048547f, 0.065827f, -0.101967f, -0.109345f, 0.053336f, -0.001613f, 0.012120f, -0.060933f, 0.059464f, 0.093307f, 0.075169f, -0.002265f, 0.037753f, -0.045473f, 0.004095f, -0.084026f, 0.032777f, -0.021272f, -0.069128f, -0.035674f, -0.063722f, 0.058760f, -0.071363f, 0.154266f, -0.098522f, 0.071039f, 0.029591f, -0.001838f, 0.051763f, 0.069802f, 0.026472f, -0.062467f, -0.080565f, 0.025308f, 0.000171f, -0.035033f, 0.006350f, 0.091677f, -0.094942f, -0.052123f, 0.015792f, 0.077424f, 0.010208f, 0.064756f, -0.035101f, 0.036225f, -0.008120f, -0.007130f, -0.064651f, 0.042394f, -0.031284f, 0.012251f, 0.062607f, -0.057722f, 0.026953f, 0.064161f, -0.102023f, -0.069287f, 0.041072f, 0.026198f, -0.030482f, 0.049118f, 0.004489f, -0.038081f, 0.073482f, -0.020713f, 0.068333f, 0.081675f, 0.035975f, 0.040858f, 0.071305f, 0.009104f, -0.010783f, -0.031357f, 0.044862f, -0.007201f, -0.027750f, 0.118507f, -0.044410f, 0.018287f, 0.026147f, -0.039750f, 0.096906f, -0.036098f, -0.035936f, -0.010018f, -0.023041f, -0.131643f, -0.084645f, 0.006032f, 0.059381f, -0.036348f, 0.013744f, -0.028181f, 0.079406f, 0.023031f, 0.003070f, 0.099604f, -0.047424f, -0.059844f, -0.048058f, 0.037924f, -0.010911f, -0.035340f, -0.023030f, 0.075484f, 0.004495f, 0.004521f, -0.016954f, 0.001710f, -0.025694f, -0.031686f, -0.107737f, 0.156776f, -0.056839f, -0.056492f, 0.021143f, 0.025426f, -0.034509f, -0.048053f, 0.084482f, 0.049488f, 0.073738f, 0.058218f, -0.021479f, -0.053753f, 0.091183f, 0.028436f, 0.011531f, -0.005272f, -0.103746f, -0.059884f, -0.038438f, 0.056420f, -0.000496f, -0.024541f, 0.037480f, 0.054484f, 0.042971f, -0.006362f, -0.006941f, 0.051013f, -0.019795f, -0.132157f, 0.001459f, 0.074121f, -0.037736f, -0.011622f, -0.096197f, 0.075496f, -0.050314f, 0.080792f, -0.142527f, 0.106376f, 0.016549f, -0.063808f, 0.077189f, -0.025761f, 0.069325f, -0.008042f, -0.014852f, 0.033076f, -0.065018f, 0.068852f, -0.005180f, 0.147240f, 0.042854f, -0.114549f, 0.012443f, -0.003043f, -0.048787f, 0.008703f, -0.018076f, 0.049622f, 0.011033f, 0.026026f, 0.022910f, 0.157814f, -0.084528f, 0.068463f, -0.041421f, 0.010828f, 0.058172f, -0.048436f, -0.042572f, -0.043284f, -0.004275f, -0.044374f, 0.040129f, 0.168392f, 0.054945f, -0.084234f, 0.015778f, -0.037174f, 0.098627f, 0.108796f, 0.131463f, 0.007008f, 0.100016f, 0.085880f, 0.065770f, -0.052561f, 0.054120f, -0.028286f, -0.024799f, 0.188320f, 0.009270f, 0.002916f, 0.013624f, 0.038870f, 0.073627f, -0.048877f, -0.102706f, -0.094635f, 0.048149f, -0.095124f, -0.051424f, 0.033088f, -0.041793f, -0.002490f, -0.034833f, -0.066064f, 0.012714f, 0.021426f, -0.037469f, 0.031735f, 0.023860f, -0.008347f, -0.080280f, 0.054247f, -0.048593f, 0.031645f, -0.065317f, -0.017667f, 0.052721f, -0.008775f, -0.076257f, 0.034020f, 0.061308f, -0.063825f, -0.109078f, 0.023393f, -0.107154f, -0.036539f, 0.015993f, -0.004083f, 0.023455f, 0.056493f, -0.015587f, -0.076753f, 0.019948f, -0.051339f, -0.022755f, -0.046725f, 0.022525f, 0.001649f, 0.088672f, 0.034750f, 0.032827f, -0.102177f, 0.000051f, 0.018473f, -0.003353f, -0.029050f, 0.055063f, 0.054782f, -0.042161f, -0.004840f, -0.007584f, -0.082614f, -0.049566f, -0.140620f, -0.076162f, 0.072141f, 0.010496f, 0.046861f, -0.054900f, 0.108270f, -0.072499f, 0.004374f, -0.121991f, 0.088453f, 0.013457f, -0.086393f, 0.004878f, 0.089788f, -0.014583f, -0.053256f, -0.081938f, 0.040089f, 0.030632f, -0.052779f, 0.100138f, 0.123341f, -0.072534f, -0.102301f, -0.040031f, 0.118671f, -0.071124f, 0.061082f, -0.039903f, 0.022421f, -0.012164f, 0.034374f, 0.047008f, 0.134338f, 0.027493f, -0.062633f, 0.041742f, -0.112874f, 0.069487f, 0.016736f, -0.054257f, -0.066357f, 0.083012f, -0.033143f, 0.072205f, 0.110411f, 0.013443f, -0.092815f, 0.088928f, 0.081445f, 0.113860f, 0.137619f, 0.069390f, 0.001105f, 0.078085f, 0.084089f, 0.008573f, -0.072201f, 0.014327f, -0.045318f, -0.085376f, 0.142430f, 0.033369f, 0.020615f, 0.016078f, 0.049962f, -0.008415f, -0.010521f, 0.008186f, -0.098718f, -0.041885f, -0.057535f, -0.016092f, 0.020077f, 0.063539f, 0.032695f, 0.017543f, -0.079974f, 0.006093f, 0.021690f, 0.029290f, 0.071508f, -0.015077f, -0.063524f, -0.050906f, -0.031629f, 0.064889f, -0.045174f, -0.004996f, 0.126483f, -0.015124f, -0.013006f, -0.173552f, 0.066860f, -0.015583f, -0.027702f, -0.040848f, 0.158162f, -0.108720f, -0.120289f, 0.034788f, 0.049273f, 0.034849f, 0.028864f, 0.043799f, 0.000710f, 0.120732f, 0.091285f, 0.020177f, -0.096188f, 0.034608f, -0.041409f, -0.021501f, -0.024135f, -0.027632f, -0.041082f, 0.013908f, 0.017411f, -0.001288f, -0.023028f, -0.004382f, 0.037853f, -0.057349f, -0.034276f, -0.040355f, 0.035033f, -0.086139f, -0.069528f, -0.000882f, 0.031313f, 0.060336f, -0.052187f, -0.058819f, 0.150966f, -0.036982f, 0.045736f, -0.025698f, 0.064949f, 0.075623f, -0.010130f, 0.068242f, -0.000782f, 0.092235f, -0.078061f, -0.079619f, 0.033003f, -0.073345f, -0.065482f, 0.002473f, 0.121805f, -0.023930f, -0.066326f, -0.055107f, 0.076672f, 0.013621f, 0.002305f, 0.010157f, -0.052150f, 0.086629f, 0.051013f, 0.070718f, 0.047537f, 0.018248f, 0.070788f, 0.045421f, -0.012781f, 0.054078f, -0.049260f, -0.001553f, -0.045533f, 0.024233f, -0.053157f, 0.039296f, 0.093862f, 0.034680f, -0.016477f, 0.047082f, -0.024464f, 0.035630f, 0.032020f, 0.041739f, 0.052312f, 0.107679f, 0.088236f, 0.065527f, 0.011389f, 0.057016f, -0.095413f, 0.031401f, 0.107658f, 0.005866f, -0.038966f, 0.032243f, -0.031127f, 0.038015f, -0.032737f, 0.024147f, -0.051043f, -0.040365f, -0.040035f, 0.031899f, 0.004533f, -0.039179f, 0.048135f, 0.062826f, 0.009503f, 0.015743f, 0.009461f, 0.057627f, 0.102854f, -0.059783f, -0.015664f, -0.025513f, 0.046595f, -0.024854f, 0.077463f, -0.074096f, 0.097021f, 0.067896f, 0.050641f, -0.033807f, 0.028933f, 0.015866f, -0.060014f, -0.015601f, 0.173953f, -0.046046f, -0.073006f, 0.012617f, -0.004631f, -0.089124f, 0.032358f, -0.001657f, 0.081331f, 0.038687f, 0.006951f, 0.086457f, -0.061015f, 0.040711f, 0.027137f, 0.017966f, 0.017226f, -0.056623f, 0.013287f, 0.107793f, 0.023192f, -0.011132f, 0.100859f, 0.096417f, 0.069033f, -0.034497f, 0.043031f, -0.014856f, -0.052666f, -0.024697f, -0.034488f, -0.102873f, 0.060437f, 0.023457f, 0.033825f, -0.035139f, 0.055575f, 0.038545f, -0.015976f, -0.029407f, 0.018552f, -0.030418f, -0.144902f, 0.076336f, 0.140233f, -0.006605f, -0.004410f, -0.038311f, -0.053782f, -0.031518f, 0.033532f, 0.091916f, 0.087045f, -0.053000f, 0.001728f, -0.042854f, -0.025477f, -0.027593f, 0.029324f, 0.000029f, 0.000270f, 0.052607f, 0.002787f, 0.052857f, 0.117122f, -0.022983f, 0.053108f, 0.003616f, -0.043490f, 0.073426f, -0.046478f, -0.024310f, 0.019090f, -0.007556f, 0.040820f, 0.015919f, 0.040611f, 0.007702f, -0.057552f, -0.026322f, -0.068980f, 0.089140f, 0.106427f, 0.102686f, -0.039279f, 0.021969f, 0.019503f, 0.058018f, 0.000100f, 0.009417f, -0.103618f, -0.011013f, 0.115315f, 0.005134f, 0.055694f, 0.058313f, -0.032737f, 0.004290f, 0.068727f, -0.046745f, -0.157839f, -0.050949f, -0.127467f, -0.038642f, 0.032718f, -0.000679f, 0.004913f, 0.047909f, -0.011070f, 0.105043f, 0.039115f, -0.027295f, 0.101581f, 0.006168f, 0.066890f, -0.056025f, 0.086184f, 0.079007f, -0.010498f, -0.013904f, 0.122677f, 0.080493f, -0.046540f, -0.068753f, 0.017185f, -0.086359f, -0.019416f, -0.067321f, 0.164638f, -0.079801f, -0.010371f, -0.106642f, 0.009594f, -0.062726f, -0.055940f, -0.060902f, -0.031838f, 0.061568f, 0.024988f, 0.014578f, -0.104629f, 0.130087f, 0.073978f, 0.030425f, -0.021720f, -0.110445f, 0.035815f, -0.016184f, -0.019213f, 0.001034f, 0.015878f, 0.013257f, 0.075388f, -0.058388f, 0.025145f, -0.097014f, -0.078737f, 0.052794f, -0.141373f, 0.006552f, -0.008606f, -0.064850f, 0.097928f, -0.036314f, 0.169306f, -0.075038f, 0.077533f, -0.116739f, 0.042753f, 0.054361f, -0.004803f, 0.139477f, 0.089686f, 0.052588f, -0.039260f, -0.039293f, -0.067336f, -0.044955f, -0.056198f, 0.102803f, 0.022843f, 0.026106f, -0.106286f, -0.021866f, 0.029061f, -0.020854f, 0.053886f, 0.072020f, -0.040216f, -0.009940f, 0.001046f, -0.003332f, 0.083607f, -0.086988f, 0.036049f, 0.101995f, 0.003725f, 0.033032f, -0.070951f, -0.095019f, -0.050723f, 0.058925f, -0.092615f, 0.069155f, 0.029076f, 0.100574f, -0.050216f, 0.055407f, -0.000624f, 0.048157f, 0.021713f, 0.014746f, 0.059732f, 0.122117f, 0.154954f, 0.030969f, 0.011406f, -0.045523f, -0.070144f, -0.041801f, 0.143064f, 0.021056f, -0.010612f, 0.053553f, 0.072192f, 0.049875f, -0.066710f, -0.055578f, -0.129981f, -0.037441f, -0.018305f, -0.011044f, 0.033009f, -0.001365f, 0.057501f, -0.020088f, -0.018751f, 0.104756f, -0.066522f, -0.016126f, 0.095251f, -0.007727f, 0.032150f, -0.125501f, 0.046869f, 0.018551f, -0.043684f, 0.036223f, 0.002327f, 0.039060f, -0.046696f, -0.142859f, 0.015867f, -0.067051f, 0.042768f, -0.100578f, 0.112445f, -0.089961f, -0.093193f, 0.021494f, -0.015738f, 0.041955f, -0.054950f, 0.042031f, 0.012782f, 0.106507f, 0.068058f, 0.026193f, -0.132752f, 0.014143f, 0.080136f, 0.010315f, -0.013331f, -0.017273f, -0.037325f, 0.117496f, 0.053963f, 0.041364f, 0.091471f, 0.000017f, -0.023396f, -0.007378f, -0.035380f, 0.000112f, 0.034526f, -0.023714f, -0.132047f, 0.015906f, -0.015897f, -0.004833f, 0.007837f, 0.043825f, 0.123617f, 0.003605f, 0.071322f, -0.050550f, 0.036272f, 0.063542f, -0.078333f, 0.131816f, 0.105590f, -0.002012f, 0.030153f, 0.037464f, 0.031107f, -0.020155f, -0.084724f, 0.070126f, 0.075249f, -0.008086f, 0.002524f, -0.009112f, 0.036623f, -0.102634f, 0.042605f, 0.060794f, -0.030755f, -0.058189f, 0.094307f, 0.016862f, 0.063590f, 0.047579f, 0.091355f, 0.108358f, -0.069977f, 0.033676f, 0.052969f, -0.044040f, 0.000044f, -0.036928f, -0.055561f, -0.010736f, 0.041448f, -0.048479f, -0.104291f, 0.087236f, -0.013372f, 0.055358f, 0.112929f, 0.076854f, -0.071400f, 0.102309f, 0.098856f, 0.035212f, 0.006145f, 0.097897f, -0.002454f, -0.016408f, 0.136774f, -0.034075f, 0.092697f, -0.003847f, -0.023749f, 0.104000f, -0.014005f, -0.043061f, -0.091891f, 0.031945f, -0.045428f, 0.042535f, -0.035634f, 0.046550f, 0.062487f, -0.005572f, -0.016493f, 0.006965f, 0.030807f, 0.042292f, 0.033868f, -0.027213f, -0.030839f, -0.107581f, 0.002608f, 0.058443f, 0.083078f, 0.051136f, 0.039761f, 0.119060f, 0.031956f, 0.014896f, 0.062168f, -0.041840f, -0.079284f, 0.010683f, 0.046197f, -0.064709f, -0.048057f, -0.025994f, 0.042706f, -0.079102f, -0.030957f, 0.008761f, 0.065587f, 0.074559f, 0.117074f, 0.055803f, -0.063236f, -0.004426f, 0.047286f, 0.069768f, 0.018970f, -0.047967f, 0.009154f, 0.022688f, 0.024281f, -0.006800f, 0.109636f, 0.015684f, -0.057484f, -0.009047f, 0.033324f, -0.048911f, -0.059347f, 0.007042f, -0.137783f, -0.003608f, 0.057666f, -0.015236f, -0.001156f, 0.019383f, 0.012679f, -0.058997f, -0.013507f, 0.046088f, -0.015482f, 0.041934f, -0.013071f, 0.072666f, -0.017810f, 0.050345f, -0.019174f, 0.013348f, -0.049778f, 0.007265f, -0.007822f, 0.010596f, -0.027282f, 0.032576f, -0.042597f, -0.037041f, 0.008770f, -0.017837f, -0.065110f, 0.041095f, -0.040936f, -0.090399f, -0.007019f, 0.050445f, 0.036626f, -0.092447f, 0.030725f, 0.096391f, -0.095596f, 0.016635f, -0.042387f, -0.043509f, -0.020487f, 0.007403f, -0.098234f, 0.022809f, 0.018321f, 0.014123f, -0.097848f, 0.052657f, 0.093128f, 0.093791f, 0.126518f, 0.061826f, 0.018389f, 0.041974f, 0.097932f, -0.022072f, -0.033646f, 0.057509f, -0.018240f, -0.013865f, 0.180496f, -0.029703f, 0.040262f, 0.117632f, -0.003009f, 0.038010f, -0.058859f, -0.057304f, -0.037873f, -0.012980f, 0.012415f, -0.073628f, -0.020039f, 0.081445f, -0.004530f, 0.071436f, -0.062066f, 0.077332f, 0.054714f, 0.033285f, -0.053613f, 0.047073f, 0.033795f, -0.033262f, 0.094697f, 0.084774f, 0.102887f, 0.062810f, -0.018348f, 0.015425f, -0.061831f, 0.010921f, 0.109392f, 0.008041f, -0.058111f, -0.068144f, 0.118497f, -0.025320f, -0.110371f, -0.014941f, -0.045990f, -0.064404f, -0.043243f, -0.050908f, 0.070228f, -0.012281f, 0.006763f, -0.025769f, -0.018794f, 0.015648f, 0.014117f, -0.009350f, -0.072744f, -0.041300f, 0.047009f, 0.088192f, -0.058246f, 0.053770f, 0.142826f, 0.020074f, 0.055216f, -0.071807f, 0.074857f, 0.009823f, 0.044123f, 0.032250f, -0.137498f, 0.004036f, -0.020602f, -0.059217f, 0.046823f, 0.020204f, 0.137643f, -0.088376f, 0.066377f, 0.042846f, -0.018645f, 0.019824f, -0.067460f, 0.022463f, 0.089705f, 0.001346f, 0.003010f, 0.047636f, -0.012913f, 0.044689f, 0.007042f, 0.098318f, -0.048416f, 0.043245f, -0.055635f, -0.016333f, 0.046756f, -0.064520f, 0.027668f, 0.025380f, 0.036394f, -0.046212f, -0.018311f, -0.001175f, 0.088533f, -0.076030f, 0.022323f, 0.021423f, -0.128644f, 0.026529f, 0.104599f, -0.078286f, -0.003229f, 0.029633f, -0.066984f, 0.090040f, 0.071325f, 0.048068f, -0.097717f, 0.037387f, 0.062290f, -0.055324f, 0.046986f, 0.106490f, -0.021119f, 0.065561f, 0.162196f, 0.006801f, -0.018003f, 0.051719f, 0.052965f, 0.000874f, 0.086891f, 0.027043f, 0.111104f, 0.062816f, -0.091652f, 0.062120f, -0.031726f, -0.092154f, -0.062257f, -0.026239f, 0.088337f, -0.070769f, 0.064752f, 0.028987f, -0.039799f, 0.091202f, -0.006634f, 0.012531f, -0.017043f, 0.085502f, -0.037769f, -0.022756f, -0.060455f, -0.040583f, 0.086522f, 0.067975f, -0.019646f, -0.013856f, 0.029574f, 0.096284f, -0.025023f, 0.048173f, 0.092379f, -0.060904f, 0.028841f, -0.030322f, 0.113186f, 0.064375f, -0.119239f, -0.105600f, 0.052840f, -0.063435f, -0.091869f, -0.069691f, -0.063603f, 0.066681f, 0.002926f, 0.018156f, -0.036080f, 0.016555f, -0.067493f, 0.088108f, -0.071039f, 0.009350f, 0.087305f, 0.023004f, -0.003269f, 0.043837f, 0.085911f, 0.088731f, 0.060152f, -0.027510f, 0.030518f, 0.026862f, 0.049538f, 0.006084f, -0.128519f, -0.092187f, 0.072617f, -0.100697f, 0.021796f, -0.052820f, 0.029912f, -0.048968f, 0.096855f, -0.049497f, 0.055980f, -0.022924f, -0.077566f, 0.035822f, 0.055335f, -0.065252f, -0.069705f, -0.063482f, -0.025155f, 0.106485f, 0.121671f, 0.033196f, 0.014576f, 0.041210f, -0.061866f, 0.079875f, 0.047581f, -0.102590f, -0.049579f, 0.077467f, -0.001104f, -0.090200f, 0.021718f, 0.021470f, 0.109459f, 0.034607f, 0.119968f, 0.006461f, -0.037201f, -0.007093f, 0.045850f, -0.081666f, 0.029370f, 0.048478f, -0.068896f, 0.074500f, 0.020549f, 0.045780f, -0.005397f, 0.020294f, 0.116741f, 0.024767f, 0.029499f, 0.069050f, -0.069661f, 0.067260f, 0.081041f, -0.064154f, 0.001179f, 0.025345f, 0.058343f, 0.020433f, 0.056404f, 0.078928f, 0.018084f, -0.005243f, -0.017610f, -0.040054f, -0.108264f, -0.003493f, -0.066087f, -0.021727f, 0.111325f, -0.016999f, 0.079373f, -0.043396f, 0.039625f, 0.078338f, 0.007931f, 0.055127f, -0.035490f, -0.032562f, -0.029473f, 0.018921f, 0.041972f, -0.016104f, 0.129151f, 0.142636f, 0.002009f, 0.011917f, 0.118281f, 0.108674f, -0.027003f, -0.024456f, 0.100483f, -0.006850f, -0.055751f, 0.020134f, -0.004660f, -0.077910f, -0.059192f, -0.054761f, 0.018976f, -0.040819f, -0.070242f, -0.036520f, -0.030485f, 0.095732f, 0.038715f, 0.019172f, -0.034226f, 0.100234f, -0.050377f, 0.051841f, 0.031141f, -0.010953f, -0.016528f, 0.042877f, -0.054358f, 0.050565f, 0.136832f, -0.014510f, 0.043938f, -0.083254f, 0.057713f, -0.038889f, -0.051845f, -0.040882f, -0.055643f, -0.123661f, -0.033682f, -0.086902f, 0.031148f, -0.007871f, 0.001655f, -0.067544f, -0.024880f, -0.012002f, 0.040582f, 0.087546f, -0.064181f, 0.004670f, 0.036002f, 0.039519f, 0.012012f, 0.034939f, -0.026109f, -0.021145f, 0.048045f, 0.014852f, -0.000153f, 0.014153f, 0.083597f, 0.078293f, -0.034134f, 0.001028f, -0.034626f, -0.064966f, 0.023937f, -0.098826f, 0.030627f, -0.001640f, 0.098131f, 0.025494f, 0.013578f, 0.064297f, -0.068144f, -0.027335f, 0.106867f, 0.004507f, 0.027605f, -0.055562f, -0.070294f, 0.075421f, 0.104319f, -0.007038f, -0.009913f, 0.030536f, 0.024024f, -0.006218f, 0.021591f, 0.034338f, 0.036403f, 0.096178f, 0.124147f, -0.063269f, -0.105831f, -0.014672f, 0.025459f, -0.008954f, 0.041066f, 0.034276f, 0.027314f, -0.009542f, -0.011721f, -0.066355f, 0.021767f, 0.033235f, -0.039089f, -0.071856f, 0.085438f, 0.014351f, 0.078751f, -0.036906f, 0.041022f, 0.089528f, -0.007772f, 0.038093f, -0.041476f, 0.019355f, -0.112189f, 0.084159f, -0.086232f, 0.015305f, 0.024861f, 0.097620f, 0.003077f, 0.066156f, 0.098832f, -0.021688f, -0.073098f, -0.050449f, 0.143370f, -0.029083f, -0.013145f, -0.063901f, 0.054356f, 0.035790f, 0.009603f, -0.001213f, -0.019927f, -0.099150f, -0.126280f, -0.044588f, -0.059648f, -0.027490f, 0.034296f, 0.092856f, -0.038465f, 0.071043f, 0.018077f, -0.033884f, 0.033717f, -0.071769f, 0.074013f, -0.015351f, 0.072064f, 0.012263f, 0.067543f, 0.095146f, -0.080499f, 0.010541f, 0.024728f, 0.010809f, 0.055001f, 0.082824f, -0.178822f, -0.019290f, 0.036047f, -0.040215f, -0.031249f, 0.022929f, 0.124220f, 0.030639f, -0.002994f, -0.023721f, 0.022975f, 0.138724f, -0.003261f, 0.009368f, -0.037233f, -0.041566f, -0.067762f, 0.037921f, 0.048843f, 0.020118f, 0.075061f, -0.037531f, 0.032033f, -0.063948f, 0.038637f, -0.024322f, 0.013680f, -0.010830f, 0.025209f, -0.020462f, -0.054071f, -0.082576f, 0.064006f, -0.035462f, 0.107464f, 0.044966f, 0.085796f, 0.005554f, -0.036642f, -0.081023f, 0.107953f, 0.018297f, -0.082950f, -0.050962f, -0.036353f, 0.128742f, 0.007579f, 0.033451f, -0.079371f, -0.052427f, 0.101169f, 0.051891f, 0.087342f, -0.037739f, 0.013179f, 0.059340f, 0.085866f, -0.060696f, -0.089416f, 0.066624f, 0.049074f, -0.028805f, 0.021645f, -0.021193f, -0.011126f, 0.022180f, 0.056983f, -0.083098f, -0.100707f, -0.028564f, -0.003148f, -0.038361f, 0.025836f, -0.018364f, 0.007760f, -0.055458f, 0.058729f, 0.055040f, -0.012368f, 0.050850f, -0.001116f, -0.017827f, -0.071517f, -0.013538f, -0.074909f, 0.057114f, 0.114228f, 0.162720f, 0.093574f, -0.018425f, 0.000501f, 0.048339f, 0.004544f, 0.024574f, 0.122384f, -0.007359f, 0.064242f, -0.069899f, 0.061836f, 0.039193f, -0.049753f, 0.012499f, 0.011988f, 0.048971f, -0.126250f, -0.007775f, -0.057730f, 0.025504f, 0.016273f, -0.006780f, -0.045176f, 0.074393f, -0.042794f, -0.033967f, 0.035124f, -0.030252f, 0.122469f, -0.050100f, 0.027096f, 0.006114f, 0.043141f, 0.050473f, -0.002989f, 0.011453f, -0.031942f, -0.052811f, -0.024624f, 0.082398f, -0.129606f, -0.099133f, -0.011342f, -0.045738f, -0.016694f, 0.080700f, 0.010593f, 0.044468f, -0.064567f, 0.080770f, 0.086974f, 0.051174f, 0.046100f, 0.012403f, 0.081112f, -0.019338f, -0.093606f, -0.063132f, -0.006104f, -0.020941f, 0.028286f, -0.024831f, -0.058995f, 0.001012f, -0.011186f, -0.053936f, -0.011183f, -0.078086f, -0.072896f, -0.032252f, 0.033213f, 0.012300f, 0.029302f, 0.038970f, 0.096113f, 0.030013f, 0.056828f, 0.035464f, -0.060141f, -0.100489f, 0.061914f, 0.021664f, -0.026653f, -0.000625f, -0.015155f, 0.005906f, 0.051682f, 0.041239f, 0.042853f, 0.075305f, 0.059821f, -0.034420f, 0.068869f, -0.032196f, 0.000203f, 0.114690f, 0.063857f, -0.047123f, -0.023369f, 0.017221f, 0.017188f, 0.037072f, 0.119195f, 0.087216f, 0.001915f, 0.048137f, 0.064050f, -0.057372f, -0.074055f, -0.079349f, 0.014609f, -0.011880f, 0.075082f, -0.083801f, 0.058027f, -0.032328f, 0.007425f, 0.037297f, -0.074151f, 0.068311f, -0.074770f, 0.042082f, -0.048419f, 0.044727f, -0.090216f, -0.048052f, 0.114765f, 0.054750f, 0.138059f, 0.090938f, 0.000150f, -0.038891f, 0.016798f, 0.070611f, 0.119481f, -0.003838f, 0.053327f, -0.070214f, 0.083927f, 0.056939f, -0.059755f, -0.039725f, -0.015532f, -0.025780f, -0.020164f, -0.005233f, -0.067426f, -0.034794f, 0.147363f, 0.062210f, -0.042381f, -0.046213f, 0.056807f, 0.039815f, -0.029439f, -0.078715f, -0.011956f, -0.053310f, 0.002900f, 0.093231f, 0.070835f, 0.092240f, -0.039383f, 0.006935f, 0.037440f, -0.102179f, -0.033878f, 0.037599f, -0.149781f, -0.089005f, 0.028157f, 0.001121f, -0.013121f, 0.059241f, 0.023212f, 0.039229f, 0.001213f, 0.137693f, 0.020312f, 0.114016f, -0.000696f, -0.003325f, -0.045411f, -0.120257f, -0.142107f, 0.014691f, -0.018091f, -0.010537f, 0.114226f, -0.022229f, -0.055488f, -0.086031f, 0.101686f, 0.067260f, 0.006374f, -0.049161f, 0.039636f, -0.028174f, -0.104898f, -0.106362f, 0.073355f, 0.002032f, 0.084296f, -0.061335f, -0.002773f, 0.049910f, -0.043766f, -0.016281f, 0.024112f, 0.012568f, -0.011858f, -0.101358f, -0.108590f, 0.068207f, 0.068901f, -0.016457f, -0.036020f, 0.030652f, 0.047948f, -0.016284f, 0.018515f, -0.014521f, -0.039556f, 0.006551f, 0.127641f, -0.066824f, -0.012512f, 0.031971f, 0.094995f, 0.039101f, 0.036776f, 0.060473f, 0.060842f, -0.038598f, -0.012025f, -0.016050f, -0.043724f, 0.029095f, -0.043918f, 0.026075f, 0.053727f, -0.028502f, 0.021832f, -0.015417f, 0.001610f, -0.053886f, -0.009184f, 0.010824f, -0.004241f, -0.019455f, -0.083105f, 0.013675f, 0.025473f, 0.054362f, 0.022647f, 0.096504f, 0.017643f, 0.094112f, 0.049680f, -0.038976f, 0.011195f, -0.056062f, 0.136702f, -0.026527f, 0.037859f, -0.057767f, 0.022406f, 0.031641f, 0.026169f, -0.008278f, 0.091068f, -0.038259f, -0.082032f, -0.032412f, 0.059003f, -0.040008f, 0.110065f, 0.057060f, -0.058265f, -0.035571f, -0.039538f, -0.014175f, -0.048160f, -0.075500f, 0.114140f, 0.088983f, -0.027757f, -0.009721f, -0.017105f, 0.069912f, 0.011845f, -0.070120f, -0.032965f, -0.006140f, 0.011009f, -0.046640f, -0.060846f, -0.089697f, 0.004101f, -0.029638f, 0.047880f, 0.002144f, 0.091268f, -0.001313f, 0.020148f, 0.092609f, 0.086280f, 0.141489f, -0.073714f, 0.061431f, 0.059894f, -0.016726f, -0.112853f, 0.019768f, 0.073637f, 0.008929f, 0.140558f, -0.073544f, -0.121169f, -0.016060f, 0.048081f, 0.020950f, -0.138887f, 0.032830f, -0.071801f, -0.029944f, -0.105885f, -0.039554f, 0.122673f, 0.024106f, 0.113551f, -0.055276f, 0.022810f, 0.022114f, -0.050110f, -0.118440f, 0.100281f, -0.029366f, 0.017716f, -0.049141f, -0.114532f, 0.076857f, -0.060311f, 0.030661f, 0.022954f, -0.094015f, 0.067260f, -0.008384f, -0.043428f, 0.042819f, -0.096971f, 0.044984f, 0.088681f, 0.015780f, -0.008085f, 0.026189f, 0.070027f, -0.055771f, 0.048901f, 0.034817f, -0.025238f, -0.048988f, 0.064493f, 0.047887f, -0.057235f, -0.087219f, -0.043571f, 0.032177f, -0.011262f, -0.016177f, -0.045050f, 0.058026f, 0.014720f, 0.061122f, -0.063324f, 0.038216f, -0.105062f, 0.042961f, 0.023435f, -0.014858f, 0.024236f, 0.050529f, -0.032139f, 0.091732f, 0.010821f, 0.075705f, 0.021810f, -0.073588f, -0.004707f, 0.056837f, 0.148359f, 0.029781f, 0.070028f, -0.009407f, -0.029692f, 0.048706f, -0.009298f, -0.027570f, 0.022456f, 0.067742f, -0.008771f, -0.024494f, -0.045478f, -0.007410f, 0.071899f, -0.003144f, 0.027823f, 0.007594f, -0.038455f, -0.050561f, -0.059104f, 0.072077f, 0.034990f, -0.031228f, 0.002125f, 0.006784f, -0.017358f, 0.026678f, -0.020140f, -0.031250f, -0.001667f, -0.049518f, 0.046474f, 0.001111f, -0.112624f, -0.074856f, 0.023212f, -0.020485f, -0.037380f, 0.045210f, -0.052418f, -0.000471f, 0.010859f, 0.070201f, 0.058271f, 0.014956f, 0.041066f, -0.093844f, 0.058745f, -0.084121f, -0.009974f, -0.039011f, 0.044459f, 0.016904f, 0.127362f, -0.068572f, -0.120026f, -0.015142f, -0.021658f, -0.047025f, -0.004095f, 0.013714f, -0.009317f, 0.084395f, -0.037098f, -0.074529f, 0.066117f, 0.023273f, 0.135841f, -0.009890f, 0.048521f, -0.034428f, -0.127917f, -0.114851f, 0.145675f, 0.017834f, 0.018246f, -0.026822f, -0.096466f, 0.021120f, -0.033208f, -0.050315f, 0.033951f, -0.058485f, -0.060830f, -0.099244f, -0.035733f, 0.007192f, -0.008870f, 0.018721f, 0.084125f, -0.052734f, -0.003735f, -0.022416f, 0.083023f, 0.038923f, -0.015041f, 0.026347f, 0.024445f, -0.000922f, 0.054512f, 0.007686f, 0.008529f, -0.097665f, -0.078687f, -0.059787f, -0.013861f, -0.014211f, 0.050215f, -0.008991f, 0.086190f, -0.029672f, -0.031477f, -0.015974f, -0.090530f, -0.025517f, -0.038721f, 0.020484f, 0.035280f, -0.009984f, -0.032250f, 0.034700f, 0.082911f, -0.004734f, 0.015850f, -0.025293f, -0.013907f, 0.022159f, 0.023923f, -0.026153f, -0.036517f, 0.013313f, -0.064310f, -0.038391f, 0.056757f, -0.075102f, 0.069366f, 0.061499f, -0.085925f, -0.062320f, -0.068285f, 0.035836f, 0.069216f, 0.076165f, 0.072314f, 0.040752f, -0.059969f, -0.019265f, 0.006136f, -0.009981f, -0.002678f, 0.033406f, 0.009937f, 0.084185f, 0.065940f, -0.018500f, 0.044972f, -0.084289f, 0.007144f, -0.036810f, -0.092903f, 0.024059f, -0.121463f, -0.025142f, -0.000490f, -0.021871f, 0.062475f, -0.048475f, -0.013748f, -0.007920f, -0.091060f, 0.140049f, 0.089577f, 0.001818f, 0.005149f, -0.094810f, 0.020441f, -0.076179f, 0.019935f, 0.016961f, -0.006685f, 0.042266f, 0.122739f, -0.019791f, -0.116276f, -0.030465f, 0.089967f, 0.025019f, -0.030688f, -0.000449f, 0.069282f, 0.082592f, -0.106562f, -0.031342f, 0.057890f, 0.028840f, 0.050221f, -0.036195f, 0.060875f, 0.049356f, -0.133672f, -0.032685f, 0.036955f, -0.028616f, -0.084627f, -0.023204f, -0.056595f, 0.091690f, 0.017390f, 0.016403f, -0.043549f, -0.130794f, 0.044611f, -0.100372f, 0.085548f, 0.054197f, -0.068609f, 0.061416f, -0.020785f, -0.073183f, 0.023205f, 0.019347f, 0.095784f, -0.061011f, 0.033583f, 0.012629f, 0.043436f, -0.051730f, -0.021314f, 0.031769f, -0.037509f, -0.001054f, -0.018834f, 0.019573f, 0.104629f, -0.078543f, 0.022893f, 0.087059f, 0.009914f, 0.090787f, 0.002679f, -0.024711f, -0.062464f, 0.062941f, -0.045237f, 0.090686f, 0.038959f, 0.036552f, -0.043563f, 0.130758f, 0.021904f, 0.123066f, -0.048225f, -0.050651f, 0.014833f, -0.024882f, 0.027980f, 0.004351f, -0.019304f, 0.020845f, -0.012090f, 0.004030f, -0.022754f, 0.036101f, 0.003450f, -0.022229f, 0.018024f, 0.051772f, -0.006266f, 0.025111f, -0.011386f, 0.067493f, 0.005947f, -0.008389f, -0.037066f, -0.032828f, -0.074712f, 0.091407f, 0.031139f, -0.007401f, -0.033101f, -0.050318f, 0.056360f, 0.019633f, -0.038064f, -0.071500f, 0.082065f, -0.054912f, -0.077103f, 0.007841f, -0.099447f, -0.054482f, 0.032060f, -0.048241f, 0.062041f, -0.026895f, -0.072634f, -0.048267f, 0.038488f, 0.109327f, 0.089677f, -0.024476f, 0.047856f, -0.099565f, 0.016187f, 0.028532f, 0.016845f, -0.045555f, 0.020829f, 0.075616f, 0.082709f, -0.083283f, -0.083867f, -0.063970f, 0.021400f, 0.004221f, -0.023076f, -0.038326f, -0.021522f, 0.038055f, 0.024279f, -0.017798f, -0.010437f, 0.065591f, 0.106968f, -0.036441f, -0.070879f, 0.056064f, -0.036998f, 0.019584f, 0.146613f, 0.004888f, 0.004418f, -0.091481f, -0.106943f, 0.045128f, 0.021552f, -0.021038f, 0.036850f, -0.090608f, -0.014455f, -0.096633f, -0.010805f, 0.042246f, -0.034969f, 0.034954f, -0.007228f, -0.048646f, -0.020771f, 0.025938f, 0.063743f, 0.024088f, 0.065150f, -0.045772f, 0.069201f, -0.095684f, 0.060979f, -0.042645f, -0.004866f, -0.049658f, 0.044662f, -0.092896f, 0.042102f, 0.024576f, -0.009192f, -0.012405f, -0.014689f, 0.015327f, 0.069452f, 0.080332f, -0.039314f, 0.063836f, -0.007477f, -0.026126f, -0.059311f, 0.050632f, -0.042872f, 0.157723f, 0.065278f, 0.042940f, -0.032426f, -0.014732f, 0.046012f, 0.044368f, 0.032817f, 0.066655f, 0.013949f, 0.031382f, -0.119837f, -0.023309f, -0.015036f, -0.021167f, -0.039033f, 0.037094f, -0.102871f, 0.033817f, -0.001099f, 0.065924f, 0.055117f, -0.006486f, 0.014692f, 0.030171f, 0.059013f, 0.026226f, -0.057391f, 0.077589f, -0.004514f, 0.022605f, -0.000725f, -0.056951f, -0.006588f, -0.009187f, 0.000584f, 0.028731f, 0.019334f, 0.069830f, -0.091746f, 0.016559f, -0.133185f, 0.036609f, 0.032711f, -0.039223f, 0.034176f, 0.024026f, 0.046190f, 0.005552f, 0.013773f, 0.087671f, 0.001949f, 0.045587f, -0.000563f, -0.017383f, 0.000144f, -0.017891f, -0.110408f, -0.076207f, 0.035024f, 0.071274f, 0.029677f, -0.047854f, -0.043273f, -0.003932f, -0.011822f, -0.010051f, -0.094402f, 0.060968f, -0.024007f, 0.024110f, -0.069039f, -0.085399f, 0.056885f, -0.041626f, -0.008545f, 0.002157f, -0.082376f, -0.039583f, -0.047171f, -0.009697f, 0.152746f, 0.043611f, 0.036715f, -0.097375f, -0.046640f, 0.103142f, 0.041904f, -0.044863f, -0.027504f, -0.009112f, -0.003835f, 0.025798f, -0.058229f, -0.045070f, -0.101929f, 0.001627f, -0.037761f, -0.093800f, 0.073807f, -0.030832f, 0.046500f, -0.030391f, 0.049645f, 0.009232f, 0.070076f, 0.023192f, -0.058995f, -0.070544f, -0.012525f, -0.031902f, 0.034189f, -0.030058f, 0.076185f, -0.072789f, 0.053635f, 0.101425f, -0.041165f, 0.039049f, -0.038453f, 0.032581f, -0.035689f, -0.071095f, -0.021443f, 0.008015f, -0.021687f, 0.071435f, -0.070049f, 0.115128f, 0.055624f, 0.057334f, -0.100717f, -0.003483f, 0.055691f, -0.034294f, 0.012387f, -0.034652f, 0.008150f, -0.016076f, -0.066934f, 0.058207f, -0.004889f, -0.003630f, 0.014416f, 0.024793f, -0.099890f, -0.053845f, 0.042388f, -0.066460f, 0.075929f, 0.096542f, -0.005875f, -0.035367f, -0.005335f, 0.102185f, 0.024255f, 0.064747f, -0.028408f, 0.024162f, 0.000327f, 0.012158f, -0.039056f, -0.011975f, 0.038733f, -0.037132f, 0.031154f, 0.013666f, 0.033513f, 0.053628f, -0.088064f, -0.079900f, -0.041354f, 0.017210f, -0.006435f, 0.000496f, -0.012369f, -0.047442f, -0.014773f, 0.087399f, 0.016788f, -0.021787f, 0.054263f, 0.027542f, -0.011384f, 0.037109f, 0.016650f, -0.071270f, -0.038825f, -0.051827f, 0.095018f, -0.069204f, -0.064664f, -0.016240f, 0.064566f, -0.047776f, -0.050397f, -0.043742f, 0.034823f, 0.079126f, -0.038240f, 0.006459f, 0.034417f, -0.000597f, 0.080663f, -0.012100f, -0.062340f, 0.048228f, -0.081683f, -0.011220f, 0.070469f, 0.060957f, 0.029441f, -0.090959f, -0.093198f, 0.080467f, 0.037571f, -0.044773f, 0.065495f, -0.080263f, -0.053040f, 0.003727f, 0.052695f, 0.002735f, 0.006693f, -0.090863f, 0.060960f, -0.041199f, -0.038987f, 0.010406f, -0.008417f, -0.040389f, -0.041803f, -0.065849f, -0.020233f, -0.029153f, 0.035151f, -0.036559f, 0.047241f, 0.011011f, 0.027456f, -0.045777f, 0.098882f, -0.064729f, -0.038596f, 0.005122f, 0.023216f, 0.001376f, -0.055244f, -0.045190f, 0.011621f, 0.004439f, -0.042649f, 0.044040f, -0.025046f, 0.071427f, -0.037153f, 0.108347f, -0.011527f, 0.099462f, -0.102170f, -0.061943f, -0.027211f, -0.004474f, -0.041851f, 0.023837f, -0.062328f, 0.078521f, -0.014701f, 0.041176f, 0.022413f, 0.060074f, 0.013814f, 0.058852f, -0.057886f, 0.038829f, 0.016114f, -0.020927f, 0.009445f, 0.031169f, 0.084980f, 0.051627f, 0.001424f, 0.066706f, 0.024297f, -0.039594f, -0.009236f, 0.039426f, 0.065864f, 0.056149f, 0.005582f, -0.031452f, -0.028629f, -0.061171f, 0.034497f, 0.076891f, -0.078332f, 0.056289f, -0.060349f, -0.012667f, -0.082354f, -0.056932f, -0.088179f, 0.062492f, 0.017188f, -0.045642f, -0.098970f, 0.137474f, 0.069537f, -0.019438f, 0.064773f, 0.039155f, -0.061252f, -0.061945f, 0.056230f, -0.073318f, -0.016747f, 0.032758f, 0.096687f, -0.026803f, 0.037331f, -0.009961f, -0.039002f, 0.079535f, -0.043974f, -0.068822f, 0.021121f, 0.022919f, -0.048740f, -0.116976f, 0.002934f, 0.048254f, 0.054391f, 0.074633f, -0.035645f, -0.010361f, -0.121067f, -0.072814f, 0.056687f, 0.043574f, 0.084184f, 0.034365f, -0.120247f, 0.074942f, -0.042142f, -0.115453f, 0.066555f, -0.024960f, -0.096558f, -0.056722f, -0.027038f, -0.001631f, -0.054894f, 0.032897f, -0.070791f, -0.030720f, 0.029025f, 0.033123f, -0.026656f, 0.025087f, 0.033080f, 0.049520f, 0.064752f, 0.014813f, 0.060354f, 0.027863f, -0.011707f, -0.064042f, -0.033058f, -0.018693f, 0.043614f, 0.059041f, -0.025955f, -0.046570f, -0.014546f, -0.044862f, -0.041975f, -0.042510f, -0.037471f, -0.007316f, 0.034991f, 0.045608f, -0.045325f, 0.028582f, -0.036392f, 0.106797f, -0.068096f, 0.003571f, 0.039319f, -0.048378f, -0.042766f, -0.045974f, 0.081506f, 0.012336f, 0.006534f, 0.034780f, -0.069063f, 0.095561f, 0.062669f, -0.009747f, 0.078917f, -0.017932f, -0.065007f, 0.039087f, -0.038863f, 0.078775f, -0.029994f, 0.019622f, 0.101366f, 0.068801f, -0.052198f, 0.008745f, -0.010854f, -0.031753f, 0.098709f, 0.068555f, -0.008185f, -0.048682f, -0.060038f, 0.075073f, -0.065648f, -0.034744f, 0.038789f, 0.048134f, -0.075037f, -0.027378f, 0.009922f, 0.028635f, 0.017185f, -0.088278f, -0.051033f, 0.022043f, -0.046636f, 0.025069f, -0.050053f, 0.010556f, 0.156703f, 0.088524f, 0.016955f, -0.006192f, -0.020907f, -0.048750f, -0.042352f, -0.004260f, 0.108084f, 0.018649f, -0.028832f, -0.003121f, -0.042775f, 0.002096f, 0.005508f, -0.021431f, -0.067994f, -0.005833f, -0.034142f, 0.114561f, -0.039147f, -0.055160f, 0.009695f, 0.070512f, 0.100107f, -0.038719f, -0.019082f, -0.031923f, -0.060230f, -0.035116f, 0.119486f, 0.059201f, -0.015631f, -0.038464f, -0.010415f, 0.040898f, -0.090592f, -0.093201f, -0.016202f, -0.079240f, -0.089626f, -0.111816f, 0.024550f, -0.080424f, -0.123060f, -0.062644f, 0.038133f, 0.042107f, 0.032515f, 0.011450f, 0.093948f, -0.063661f, -0.075182f, -0.049175f, -0.023458f, -0.064315f, 0.121280f, 0.003679f, 0.008540f, 0.020070f, -0.074379f, -0.050639f, 0.083051f, 0.008055f, -0.074932f, -0.001129f, -0.014721f, 0.041264f, 0.039326f, -0.032132f, -0.109003f, -0.007849f, -0.077283f, 0.056393f, -0.041255f, 0.018434f, 0.015509f, 0.065264f, -0.029634f, 0.111520f, 0.053301f, -0.021069f, -0.051384f, 0.007271f, 0.048837f, -0.085573f, -0.051829f, 0.092953f, -0.136712f, 0.066323f, -0.006360f, 0.032091f, -0.044813f, 0.075326f, -0.041548f, 0.032059f, 0.013825f, 0.030649f, 0.093789f, 0.030239f, -0.004789f, 0.093933f, 0.004957f, 0.001039f, -0.087046f, 0.055867f, 0.000800f, 0.029106f, 0.035300f, -0.047655f, 0.011972f, -0.056623f, -0.027111f, -0.019299f, 0.026761f, 0.079774f, 0.040351f, 0.039571f, -0.115656f, -0.078660f, -0.009371f, 0.037534f, 0.034534f, 0.036912f, -0.038257f, -0.055508f, -0.065534f, 0.011425f, 0.022574f, 0.083899f, 0.045010f, -0.056527f, -0.029795f, 0.027358f, -0.000558f, 0.014242f, 0.102455f, -0.015984f, 0.042430f, -0.105954f, -0.052514f, -0.003284f, 0.059858f, 0.009578f, -0.025305f, -0.044845f, -0.081178f, 0.043473f, -0.037201f, -0.075109f, 0.043331f, -0.046203f, -0.000246f, 0.010104f, 0.044805f, -0.006794f, -0.114723f, -0.047347f, 0.094051f, -0.000950f, 0.058827f, 0.000422f, -0.042629f, 0.007257f, -0.034689f, -0.144707f, 0.079204f, -0.055112f, -0.089703f, -0.016595f, -0.032499f, -0.026083f, -0.051946f, -0.043097f, 0.023339f, -0.065380f, 0.034244f, 0.020972f, 0.040390f, 0.022099f, -0.038104f, 0.003747f, -0.027149f, 0.014783f, 0.041581f, 0.013490f, -0.038079f, -0.083995f, -0.016902f, 0.039513f, 0.086400f, 0.036716f, -0.006548f, 0.020498f, -0.083000f, 0.060538f, -0.021275f, 0.058086f, 0.010309f, 0.068531f, -0.010190f, 0.024578f, 0.006306f, -0.012620f, 0.001606f, -0.003279f, -0.007989f, -0.006279f, -0.046039f, -0.067557f, 0.002089f, 0.008106f, -0.071133f, -0.022854f, -0.053131f, 0.053702f, -0.045193f, 0.043214f, 0.031648f, 0.014860f, 0.060505f, 0.022244f, -0.022326f, 0.045667f, -0.070425f, 0.020041f, 0.044231f, 0.008808f, -0.065281f, -0.045394f, 0.042394f, 0.069338f, -0.090242f, -0.016241f, 0.031956f, 0.057330f, -0.040742f, -0.047898f, 0.047946f, -0.073717f, -0.049386f, 0.028569f, 0.044470f, 0.005302f, -0.064636f, -0.073195f, -0.089358f, 0.037472f, -0.024210f, 0.015415f, 0.051148f, -0.027025f, -0.052755f, -0.058993f, 0.004067f, 0.107665f, 0.016356f, 0.041211f, 0.086797f, 0.050634f, -0.030288f, -0.035956f, 0.036639f, -0.012755f, 0.033671f, -0.066748f, -0.037425f, -0.070214f, 0.052967f, -0.077940f, -0.003987f, 0.062766f, -0.056179f, -0.042687f, 0.032779f, 0.145826f, 0.027599f, -0.000877f, -0.077024f, 0.050375f, -0.005596f, 0.053224f, -0.046417f, 0.104934f, -0.035609f, -0.001634f, 0.019487f, -0.018649f, 0.033882f, -0.029028f, -0.145465f, 0.046054f, 0.031081f, -0.117992f, 0.058407f, -0.023899f, -0.061460f, -0.058261f, -0.011542f, -0.002621f, -0.076262f, -0.034668f, 0.000035f, 0.006478f, -0.015030f, 0.049604f, -0.009155f, -0.061275f, -0.075276f, -0.020944f, 0.075853f, -0.062796f, 0.082632f, -0.088140f, 0.021094f, 0.032496f, 0.017818f, -0.059795f, 0.079556f, -0.060179f, -0.023660f, 0.053812f, -0.000957f, -0.022346f, 0.080659f, 0.018225f, -0.047001f, -0.005694f, 0.011268f, 0.020140f, -0.007159f, 0.029919f, -0.050619f, 0.101107f, 0.008683f, -0.012502f, 0.056621f, 0.013775f, 0.070850f, -0.032615f, -0.078432f, -0.037602f, -0.065496f, 0.125077f, -0.119595f, 0.004298f, -0.006308f, 0.016069f, 0.060872f, 0.033824f, -0.042479f, -0.009826f, -0.002692f, -0.055699f, 0.043203f, 0.055349f, 0.025608f, 0.075682f, 0.014905f, 0.106816f, -0.070054f, -0.041719f, -0.021596f, 0.060911f, 0.090990f, 0.048789f, -0.072275f, 0.043429f, -0.006467f, -0.098438f, 0.021764f, -0.020010f, 0.016714f, -0.028670f, -0.047565f, -0.005126f, 0.039471f, 0.014586f, -0.019060f, 0.038661f, 0.042037f, -0.126249f, -0.038274f, 0.035646f, 0.002582f, 0.025290f, 0.129661f, -0.072931f, 0.071696f, 0.017297f, 0.032200f, -0.025713f, 0.103942f, -0.053673f, -0.011588f, -0.112880f, -0.072137f, -0.016555f, -0.021361f, 0.001705f, -0.049988f, 0.011348f, -0.062699f, 0.137349f, -0.031273f, -0.072261f, -0.065351f, 0.004366f, 0.020239f, -0.039168f, 0.050479f, 0.058975f, -0.124801f, -0.053561f, 0.111455f, -0.040637f, -0.048203f, -0.026766f, -0.081644f, -0.019688f, -0.091578f, -0.130489f, 0.034866f, -0.047595f, -0.058199f, -0.038349f, -0.071893f, 0.019384f, 0.000273f, -0.036395f, -0.098382f, -0.076580f, 0.050625f, -0.072491f, 0.048980f, -0.091925f, -0.029287f, -0.028082f, 0.030351f, -0.097655f, 0.023188f, -0.057130f, 0.079040f, -0.103559f, 0.030721f, 0.011371f, 0.051064f, 0.024549f, -0.094733f, 0.083554f, -0.026959f, -0.012847f, -0.008040f, -0.053358f, 0.044811f, -0.068633f, 0.021760f, -0.007812f, 0.039145f, -0.013150f, -0.001966f, 0.049744f, 0.045768f, -0.023328f, -0.032771f, -0.095773f, 0.053653f, -0.047936f, -0.003048f, -0.064602f, 0.040458f, 0.105839f, -0.057419f, 0.016021f, -0.026783f, -0.043496f, -0.023078f, 0.077878f, -0.004036f, 0.097503f, -0.006094f, 0.035298f, 0.028105f, 0.042401f, -0.019364f, 0.002792f, -0.029331f, 0.057855f, 0.042268f, -0.010108f, -0.060455f, -0.003280f, 0.021737f, -0.028919f, 0.029748f, 0.058743f, 0.079513f, -0.069585f, 0.075774f, 0.052030f, 0.007141f, 0.008031f, 0.005874f, -0.003788f, -0.030265f, -0.034319f, -0.011395f, -0.051091f, 0.044739f, -0.033908f, -0.019517f, 0.015959f, 0.065086f, -0.055440f, 0.010182f, -0.010930f, 0.012321f, -0.021547f, -0.075127f, 0.006670f, -0.025419f, 0.049881f, 0.003297f, -0.015047f, -0.018373f, -0.106098f, 0.051426f, 0.011170f, -0.011045f, -0.020965f, -0.056964f, 0.130903f, 0.024439f, -0.063574f, -0.099824f, -0.039672f, 0.100012f, 0.030785f, -0.046921f, -0.030334f, -0.027365f, -0.024514f, 0.040543f, -0.034928f, -0.031921f, -0.028741f, 0.008829f, -0.058785f, -0.000935f, -0.086087f, 0.005807f, -0.049019f, -0.012046f, -0.049842f, -0.039363f, -0.080682f, -0.103392f, -0.124273f, 0.004123f, -0.058803f, 0.068670f, -0.040079f, -0.026312f, -0.038195f, -0.034934f, -0.080114f, -0.020779f, -0.005435f, 0.058225f, -0.060958f, 0.008334f, -0.054103f, -0.058921f, -0.090287f, 0.125861f, -0.055992f, -0.045895f, -0.026591f, -0.072885f, 0.040958f, -0.027893f, -0.034030f, -0.008165f, -0.036745f, 0.014675f, 0.032216f, -0.061590f, 0.052234f, -0.060277f, 0.037095f, -0.008740f, 0.015422f, 0.005792f, -0.020481f, 0.078912f, 0.017204f, -0.035938f, -0.073596f, -0.066000f, 0.057555f, -0.084177f, 0.083236f, -0.010521f, 0.004080f, -0.002215f, 0.071228f, 0.019402f, 0.041379f, -0.036390f, 0.055991f, -0.044166f, 0.104871f, 0.024911f, -0.022944f, -0.037037f, 0.067064f, -0.099722f, 0.074626f, 0.017709f, -0.036297f, -0.047035f, 0.013218f, -0.008464f, -0.035509f, 0.047687f, -0.028850f, 0.101850f, 0.041381f, 0.049265f, -0.053200f, -0.047945f, -0.019428f, 0.006804f, 0.029694f, -0.064770f, -0.075637f, 0.025951f, -0.095627f, -0.002922f, 0.079372f, 0.104956f, -0.064925f, 0.006276f, -0.019176f, 0.072652f, -0.037408f, -0.034438f, 0.020556f, 0.106728f, 0.023067f, 0.074406f, -0.131645f, -0.066405f, -0.040188f, 0.029231f, -0.022876f, -0.039274f, 0.006754f, -0.055625f, 0.068119f, -0.002699f, -0.023309f, -0.011867f, -0.012575f, 0.062804f, 0.003228f, -0.004332f, 0.055554f, -0.095211f, -0.083288f, 0.010973f, -0.041842f, 0.028346f, 0.007293f, -0.021787f, 0.041325f, -0.023819f, -0.059670f, 0.016066f, -0.056090f, -0.108605f, -0.049648f, 0.039530f, -0.102843f, -0.114809f, -0.038063f, -0.062903f, 0.046513f, 0.058811f, 0.032808f, -0.050925f, -0.003158f, -0.026131f, -0.020471f, -0.009770f, -0.050256f, 0.015385f, -0.027014f, 0.049958f, 0.032797f, 0.021338f, -0.065133f, 0.072309f, -0.011584f, 0.040634f, 0.055368f, -0.102854f, 0.065927f, -0.020242f, -0.007611f, -0.024304f, -0.055898f, 0.023602f, -0.072589f, -0.058706f, 0.036286f, 0.025231f, 0.086372f, 0.005909f, 0.080448f, -0.032556f, -0.145554f, -0.059958f, 0.045062f, 0.006032f, -0.059423f, -0.020715f, 0.078922f, -0.110291f, -0.038815f, 0.045360f, 0.042883f, 0.051769f, -0.069431f, 0.096787f, -0.029501f, -0.081012f, 0.080511f, -0.009788f, 0.091003f, -0.031904f, -0.002040f, 0.016948f, 0.021006f, -0.005007f, -0.034327f, 0.072203f, -0.035274f, -0.034821f, -0.005213f, -0.051316f, 0.024470f, 0.002715f, -0.041547f, 0.036577f, 0.011285f, 0.042705f, 0.054882f, -0.020144f, 0.060608f, 0.024767f, -0.051310f, 0.043633f, -0.019134f, -0.010364f, 0.009039f, -0.038678f, 0.110071f, 0.110081f, -0.023214f, 0.068835f, -0.061559f, 0.097489f, 0.009723f, -0.088715f, -0.006110f, 0.063531f, -0.090516f, -0.049703f, -0.059162f, -0.031928f, -0.076842f, -0.049186f, -0.060016f, 0.020896f, -0.025135f, -0.025995f, 0.024992f, 0.002596f, -0.094091f, -0.103786f, -0.051594f, 0.099421f, 0.030937f, 0.037439f, 0.084135f, -0.022918f, -0.028311f, 0.076050f, -0.065083f, 0.070542f, -0.002441f, -0.077263f, -0.014790f, -0.038842f, -0.002842f, 0.046065f, 0.065979f, -0.049288f, -0.028728f, -0.011668f, 0.018968f, -0.038536f, -0.069260f, -0.022832f, 0.040236f, 0.079988f, -0.082689f, -0.108191f, 0.027765f, -0.019026f, -0.029185f, -0.009390f, -0.064446f, 0.055436f, -0.000178f, -0.014953f, -0.039472f, 0.038798f, -0.060719f, 0.098922f, -0.039173f, -0.017540f, 0.069904f, -0.025106f, -0.002554f, 0.092615f, -0.030398f, -0.053056f, 0.068534f, 0.021542f, 0.008656f, -0.041975f, -0.047036f, -0.089067f, 0.032978f, 0.025049f, 0.075725f, 0.030264f, -0.131362f, -0.017633f, 0.014405f, -0.038864f, -0.122717f, 0.021947f, 0.031918f, 0.011566f, -0.018210f, 0.071577f, 0.026955f, 0.041793f, -0.074414f, 0.072806f, 0.057946f, -0.080213f, -0.049247f, 0.001968f, 0.112202f, 0.025566f, -0.006775f, -0.087701f, -0.036885f, 0.030335f, -0.042876f, 0.045844f, 0.048364f, -0.023712f, 0.038487f, -0.072603f, -0.045388f, -0.042159f, 0.050195f, 0.018684f, 0.039324f, 0.021667f, -0.075319f, 0.020560f, -0.023796f, 0.054545f, -0.050593f, 0.059952f, -0.079875f, -0.039717f, -0.082483f, 0.005062f, 0.023141f, 0.136772f, 0.041482f, 0.018950f, -0.022670f, -0.040325f, -0.024198f, 0.023078f, 0.048552f, 0.069829f, -0.072157f, 0.004535f, -0.107163f, 0.042267f, -0.072900f, 0.022759f, -0.022975f, -0.028171f, -0.062787f, -0.045186f, 0.020738f, 0.042270f, 0.034786f, -0.030440f, -0.002833f, -0.020817f, 0.041506f, -0.091043f, 0.116567f, -0.034056f, -0.042983f, 0.105353f, -0.057358f, 0.068452f, -0.039213f, -0.112805f, -0.012305f, 0.027051f, 0.012846f, -0.068273f, 0.063817f, -0.079257f, -0.075175f, -0.045615f, -0.099648f, -0.098792f, 0.011488f, -0.060056f, -0.062996f, -0.038900f, 0.016531f, 0.024307f, -0.067811f, -0.071599f, -0.093243f, -0.064592f, -0.072061f, -0.008654f, -0.103743f, 0.013519f, -0.035547f, 0.058152f, 0.068268f, 0.075699f, -0.047933f, -0.061287f, -0.004276f, -0.019601f, 0.008139f, 0.096756f, 0.052186f, -0.054328f, -0.016788f, -0.100895f, -0.003324f, -0.056104f, 0.004454f, 0.033770f, -0.030035f, 0.011574f, 0.112932f, 0.001070f, -0.062174f, 0.057532f, 0.045060f, -0.033706f, -0.151690f, -0.031246f, 0.131111f, -0.051022f, 0.024074f, -0.007396f, -0.016471f, -0.091897f, -0.039726f, 0.066468f, 0.068901f, -0.082364f, 0.024167f, -0.022428f, 0.030995f, -0.022173f, -0.058717f, -0.040891f, -0.035555f, -0.046150f, -0.056104f, 0.047867f, -0.068889f, 0.092342f, -0.043383f, -0.039118f, -0.105766f, -0.067962f, 0.059311f, -0.026634f, 0.151076f, 0.050284f, -0.029806f, 0.001729f, 0.029494f, 0.014638f, 0.018406f, -0.057584f, -0.066949f, -0.046468f, -0.016496f, 0.056041f, 0.009560f, 0.118534f, -0.059454f, 0.046216f, -0.074605f, -0.015926f, -0.058625f, -0.014108f, 0.055111f, 0.069350f, -0.054404f, 0.076682f, -0.022911f, 0.012814f, -0.120126f, 0.055501f, 0.006730f, -0.027733f, -0.043199f, 0.077431f, -0.018688f, 0.050048f, -0.064219f, -0.008370f, 0.007084f, 0.039551f, 0.021465f, -0.020921f, 0.047343f, -0.083246f, -0.067456f, 0.028302f, 0.034411f, -0.046212f, -0.089255f, -0.064546f, 0.023837f, 0.026459f, -0.098763f, -0.037843f, 0.030950f, -0.043091f, 0.015601f, 0.073789f, 0.014516f, -0.086409f, -0.023965f, 0.016846f, 0.014925f, 0.016743f, -0.049169f, -0.086359f, -0.020549f, -0.007671f, -0.080866f, -0.026491f, -0.029215f, 0.010519f, 0.013544f, -0.037982f, -0.001391f, -0.055706f, 0.030336f, 0.075742f, 0.049095f, -0.067908f, 0.058293f, -0.082811f, 0.034295f, -0.026753f, 0.053059f, -0.026669f, -0.011226f, 0.020622f, -0.022754f, -0.071857f, 0.074602f, -0.044678f, -0.071405f, -0.020859f, 0.104524f, -0.092877f, -0.065718f, -0.072673f, 0.019933f, 0.024959f, -0.022053f, -0.007254f, 0.042610f, -0.006662f, -0.016920f, -0.043599f, 0.067578f, 0.025879f, -0.002078f, 0.086246f, -0.011852f, -0.077473f, 0.060126f, -0.033923f, 0.037673f, 0.079419f, 0.030455f, -0.007166f, 0.068441f, 0.029972f, 0.058952f, -0.020925f, -0.065164f, -0.009876f, -0.057086f, -0.034593f, -0.112126f, 0.003085f, 0.036920f, -0.007467f, 0.121073f, 0.028979f, -0.083181f, 0.052046f, 0.048470f, 0.018434f, 0.052377f, -0.003831f, 0.030099f, -0.129194f, 0.034395f, -0.003123f, 0.035622f, 0.037422f, -0.006492f, 0.078352f, -0.041591f, 0.019526f, 0.006697f, 0.031645f, 0.012903f, 0.143966f, 0.004755f, 0.006357f, -0.075774f, 0.020171f, -0.022366f, -0.030850f, -0.022514f, 0.065482f, -0.018544f, 0.052459f, -0.006254f, -0.068739f, 0.030973f, -0.111494f, -0.001585f, 0.090705f, -0.052702f, 0.030860f, 0.100705f, -0.064317f, -0.040562f, 0.089534f, 0.026264f, -0.047329f, 0.019758f, -0.107717f, 0.059564f, -0.064863f, -0.093000f, -0.025670f, 0.045192f, 0.013530f, -0.010189f, 0.020290f, -0.052466f, -0.049139f, -0.057243f, -0.036943f, 0.028489f, 0.001298f, 0.040801f, -0.081210f, 0.006508f, -0.095224f, -0.080881f, -0.039300f, -0.013895f, -0.022978f, -0.070412f, -0.026002f, 0.051817f, 0.014966f, 0.066511f, 0.003866f, 0.010819f, -0.028212f, -0.013877f, -0.052268f, -0.007376f, -0.014922f, -0.064873f, -0.081070f, 0.020596f, -0.015673f, 0.073564f, -0.006082f, -0.009995f, 0.042048f, 0.051862f, -0.019126f, 0.099466f, 0.064531f, -0.030119f, 0.073613f, -0.031125f, -0.091991f, -0.108479f, -0.012013f, 0.123434f, 0.006599f, -0.037508f, -0.066375f, 0.037541f, -0.000549f, -0.053000f, 0.060547f, 0.065060f, -0.004980f, 0.028906f, -0.020631f, 0.127412f, 0.056739f, -0.020473f, -0.046039f, 0.045291f, -0.049054f, -0.027689f, 0.009312f, -0.061087f, 0.058860f, -0.053790f, 0.009087f, -0.117779f, -0.068110f, -0.030539f, 0.117643f, 0.102734f, -0.038679f, 0.007674f, 0.015410f, 0.144908f, 0.012354f, 0.025543f, -0.020567f, -0.044759f, 0.032227f, -0.020419f, -0.019114f, -0.031179f, 0.110787f, -0.008262f, 0.017246f, 0.038963f, -0.058927f, -0.016158f, 0.055627f, 0.001675f, 0.043704f, -0.030577f, 0.086646f, -0.079117f, 0.106814f, -0.053328f, -0.058664f, 0.048224f, 0.022180f, -0.036268f, 0.077129f, 0.112503f, -0.051423f, -0.001760f, -0.026861f, 0.037780f, 0.028070f, -0.077569f, -0.020306f, 0.022116f, -0.057061f, 0.060638f, 0.089609f, 0.010447f, -0.046139f, 0.003652f, -0.048776f, -0.042023f, 0.038216f, -0.117502f, -0.076232f, -0.094022f, -0.053271f, -0.106888f, 0.109057f, -0.038843f, -0.082441f, -0.081632f, 0.036588f, -0.024172f, -0.015031f, 0.043710f, -0.027389f, -0.070035f, -0.087602f, -0.032209f, -0.069649f, -0.017564f, -0.028900f, 0.024361f, -0.003809f, -0.047751f, -0.017175f, 0.037932f, 0.012907f, 0.000995f, -0.091199f, -0.054825f, -0.066009f, -0.016772f, -0.029103f, -0.026775f, 0.018781f, -0.066824f, 0.028394f, 0.000895f, 0.001325f, -0.016704f, -0.072309f, -0.035984f, 0.006612f, 0.084781f, -0.120295f, -0.072352f, 0.050191f, -0.022450f, -0.034562f, -0.062953f, -0.065328f, 0.066520f, -0.031835f, -0.038079f, 0.036562f, 0.015502f, 0.011859f, -0.059321f, 0.043563f, -0.003158f, 0.040313f, -0.004780f, -0.035098f, 0.073379f, 0.041460f, -0.049598f, -0.001839f, 0.016414f, -0.034703f, -0.026930f, 0.033698f, 0.075349f, 0.010569f, 0.065701f, 0.093487f, -0.086857f, 0.056951f, -0.037752f, 0.063426f, 0.011010f, 0.069945f, -0.016754f, -0.010749f, -0.014087f, -0.004980f, 0.064736f, -0.096851f, 0.078867f, -0.122112f, 0.013530f, 0.000803f, -0.006718f, 0.044280f, -0.076495f, -0.080883f, -0.059291f, 0.000343f, 0.004939f, 0.023650f, 0.016659f, 0.059616f, -0.082370f, -0.058478f, -0.028465f, 0.024663f, 0.033923f, -0.012660f, 0.002596f, 0.033188f, -0.126249f, -0.028328f, -0.030318f, -0.018067f, 0.116076f, 0.004149f, -0.090522f, 0.016389f, 0.034347f, -0.010869f, 0.066988f, -0.052162f, -0.057429f, 0.089301f, 0.056258f, -0.034558f, 0.020952f, -0.038226f, -0.057149f, -0.081438f, -0.113689f, 0.003906f, -0.033450f, -0.036407f, -0.060101f, -0.015866f, -0.081221f, 0.040583f, -0.103358f, -0.115076f, 0.068144f, 0.070296f, 0.063931f, -0.030899f, -0.144164f, 0.003830f, -0.069851f, -0.051657f, -0.108758f, 0.013500f, -0.104182f, 0.014159f, 0.007463f, 0.023441f, 0.073067f, 0.053886f, 0.030324f, -0.067469f, 0.082760f, -0.055103f, 0.021677f, -0.026273f, -0.028625f, 0.037060f, 0.068144f, -0.019935f, -0.076567f, -0.064252f, 0.127640f, 0.034730f, 0.045016f, -0.083320f, -0.009948f, 0.070170f, 0.058816f, -0.031445f, 0.074177f, -0.006232f, -0.111925f, -0.014598f, -0.024038f, -0.022523f, -0.149921f, -0.068327f, -0.026637f, -0.073172f, -0.083663f, -0.025062f, -0.038940f, -0.003865f, -0.023646f, -0.041144f, -0.028491f, -0.054891f, -0.062886f, -0.004699f, -0.008124f, -0.006122f, 0.017878f, 0.008793f, -0.025671f, -0.008339f, -0.018833f, -0.064846f, -0.029288f, -0.066468f, -0.075498f, 0.006115f, 0.009019f, -0.073510f, 0.023231f, 0.044647f, 0.058457f, 0.012075f, -0.003464f, -0.034499f, -0.006820f, 0.039734f, 0.049375f, 0.068610f, 0.050392f, -0.016894f, 0.105700f, 0.086243f, -0.040368f, 0.045160f, -0.068662f, -0.008417f, -0.035008f, 0.022829f, -0.138428f, 0.077249f, -0.051629f, -0.006414f, -0.026450f, 0.104561f, -0.015191f, 0.006199f, -0.074095f, -0.087655f, 0.001936f, -0.006567f, 0.061195f, -0.059784f, -0.024859f, -0.043611f, -0.031231f, -0.128180f, -0.005344f, -0.039840f, -0.079156f, 0.075752f, -0.073227f, -0.056219f, -0.064364f, 0.014443f, -0.063145f, 0.052885f, 0.118489f, -0.047923f, -0.028759f, -0.074977f, -0.024926f, -0.025599f, -0.001075f, -0.081295f, 0.051465f, -0.045161f, -0.051043f, 0.033264f, 0.003541f, 0.091955f, -0.112668f, 0.022998f, 0.008056f, -0.022829f, -0.002728f, 0.015114f, 0.015671f, -0.101342f, -0.029064f, 0.000458f, 0.096344f, -0.004467f, 0.045859f, 0.020054f, -0.003323f, -0.000673f, 0.020991f, -0.009791f, -0.055950f, -0.005408f, 0.017102f, -0.076902f, -0.098300f, -0.031089f, 0.018551f, -0.069622f, 0.071317f, 0.024105f, -0.106466f, 0.070712f, 0.010733f, 0.121584f, -0.049936f, -0.063508f, 0.010428f, 0.093921f, -0.000108f, 0.026467f, -0.085944f, -0.022098f, -0.067582f, -0.053150f, 0.012563f, -0.065121f, -0.007983f, 0.058162f, -0.049839f, 0.006810f, 0.060336f, 0.029111f, -0.080251f, -0.013940f, -0.056649f, -0.031870f, -0.008653f, 0.066254f, -0.000214f, 0.089902f, -0.097028f, -0.051745f, 0.029041f, -0.081516f, -0.130665f, -0.021941f, 0.107930f, -0.007645f, -0.074520f, 0.021347f, 0.056043f, 0.130276f, -0.065419f, 0.086939f, -0.049527f, 0.011459f, -0.046268f, 0.044104f, -0.046258f, -0.060795f, 0.003418f, 0.063743f, 0.002728f, 0.013329f, -0.037420f, -0.065917f, -0.010290f, 0.106581f, -0.042850f, 0.048269f, -0.050546f, 0.043036f, -0.046219f, 0.049774f, 0.035677f, 0.047768f, 0.109516f, 0.021423f, -0.071525f, 0.070638f, 0.039328f, -0.014935f, -0.034916f, -0.034288f, 0.068018f, -0.092551f, 0.051759f, 