
#include <eml_net.h>
static const float model_layer_0_biases[128] = { 0.015816f, 0.030322f, -0.011062f, 0.045607f, 0.057543f, 0.056732f, -0.102324f, 0.105615f, 0.028375f, 0.036220f, -0.054216f, 0.067343f, 0.122628f, 0.021735f, -0.046461f, -0.054428f, -0.090814f, -0.001494f, -0.088878f, 0.074243f, -0.035750f, -0.042405f, -0.063742f, -0.009181f, -0.013700f, 0.051477f, 0.028410f, -0.027255f, 0.022157f, -0.045001f, 0.086816f, 0.014789f, -0.046313f, 0.054794f, -0.043977f, 0.034178f, 0.008490f, -0.008110f, -0.039350f, -0.000487f, 0.032781f, -0.086527f, -0.057458f, -0.000769f, -0.069867f, 0.051102f, -0.025958f, -0.043231f, 0.036272f, -0.084979f, 0.034904f, 0.094857f, 0.045267f, 0.062692f, 0.045680f, -0.077504f, 0.076521f, -0.122387f, 0.062666f, 0.060200f, 0.019111f, 0.038253f, 0.095119f, -0.065686f, -0.092145f, 0.070834f, 0.053587f, -0.058685f, -0.095494f, -0.034783f, -0.019603f, 0.016343f, -0.010126f, -0.000182f, -0.028169f, 0.068168f, 0.018634f, -0.038708f, 0.014698f, 0.067355f, -0.013015f, 0.051902f, -0.069543f, -0.002491f, 0.041163f, -0.003635f, 0.085878f, -0.021244f, 0.072635f, -0.119655f, 0.014784f, 0.120442f, -0.063740f, -0.060945f, -0.038848f, -0.038474f, 0.045700f, -0.075028f, 0.018148f, 0.066930f, -0.125377f, 0.051041f, -0.072996f, 0.086390f, -0.042048f, 0.024308f, 0.134035f, -0.048494f, 0.125326f, 0.049509f, -0.055793f, -0.032166f, -0.007115f, 0.007786f, 0.030102f, 0.053785f, -0.057717f, -0.041689f, 0.016939f, -0.107156f, 0.032574f, 0.042798f, 0.009725f, -0.121825f, 0.000597f, -0.038947f, 0.026965f, 0.033568f };
static const float model_layer_0_weights[103168] = { 0.011741f, 0.140184f, 0.018640f, 0.039387f, -0.081408f, -0.063407f, -0.073502f, 0.031574f, -0.002756f, 0.020705f, -0.109977f, 0.022561f, 0.091288f, -0.047879f, -0.061416f, -0.051605f, 0.007476f, 0.014172f, -0.012295f, -0.023306f, 0.014233f, -0.067727f, -0.057849f, -0.019665f, -0.005525f, 0.093736f, 0.031435f, 0.042410f, -0.007324f, -0.038404f, 0.033886f, -0.026839f, -0.085659f, 0.059544f, 0.108579f, 0.072521f, -0.030376f, -0.092959f, 0.085649f, -0.030020f, -0.070261f, 0.015329f, -0.054213f, 0.041041f, -0.041251f, 0.000308f, 0.009541f, -0.014433f, 0.000388f, -0.066337f, 0.056761f, 0.043890f, 0.064973f, 0.073444f, -0.018696f, 0.044664f, -0.029999f, -0.099547f, -0.050144f, -0.061009f, -0.055944f, -0.056168f, 0.010794f, -0.061986f, 0.008888f, 0.005180f, -0.069374f, 0.090763f, -0.024502f, 0.096262f, 0.018695f, -0.036877f, -0.096719f, 0.075476f, 0.015334f, 0.061218f, 0.039949f, -0.089720f, -0.041713f, -0.061395f, 0.035440f, 0.048877f, -0.036562f, -0.067981f, -0.024459f, -0.023693f, 0.054728f, 0.032279f, 0.096202f, -0.032794f, -0.035968f, 0.059916f, 0.016190f, -0.017460f, 0.099844f, -0.005670f, -0.005499f, -0.036597f, -0.084229f, -0.062015f, -0.070014f, -0.009259f, -0.045885f, -0.030115f, 0.040583f, -0.111522f, 0.017170f, 0.037707f, 0.045128f, -0.036231f, -0.054183f, -0.075455f, 0.045196f, 0.114595f, -0.063412f, 0.087450f, 0.032176f, -0.009506f, 0.082554f, -0.045313f, 0.052026f, 0.019513f, 0.047315f, -0.043066f, -0.068710f, -0.031932f, 0.074002f, 0.039537f, -0.114723f, 0.018274f, -0.053348f, -0.030828f, -0.024320f, -0.053652f, 0.076229f, 0.011508f, 0.005372f, -0.027594f, -0.040831f, 0.061145f, 0.101902f, -0.103840f, 0.019855f, -0.000028f, -0.066750f, -0.068251f, 0.037101f, -0.007729f, -0.108030f, -0.059658f, 0.039424f, -0.064890f, -0.068965f, 0.027612f, 0.054531f, -0.076020f, -0.020023f, 0.003494f, -0.018658f, 0.065556f, -0.015833f, -0.007105f, -0.025132f, 0.073542f, -0.097953f, -0.001511f, 0.037057f, -0.038891f, -0.074772f, 0.005603f, -0.033254f, -0.071928f, -0.021208f, 0.017973f, 0.022645f, -0.071799f, 0.065037f, -0.017135f, 0.074063f, -0.130847f, 0.025621f, -0.038015f, 0.045807f, 0.047952f, -0.024239f, 0.017901f, 0.012684f, -0.011404f, -0.010800f, 0.003578f, -0.065291f, 0.029581f, 0.075998f, 0.013816f, -0.088703f, 0.001656f, 0.073424f, 0.101747f, 0.015405f, 0.070816f, -0.025568f, -0.037168f, -0.048602f, 0.080679f, -0.041004f, -0.034005f, -0.027159f, 0.073203f, -0.097543f, -0.038009f, -0.003755f, -0.041184f, 0.005881f, -0.063662f, 0.033574f, -0.058858f, 0.010185f, 0.014786f, 0.050981f, 0.094764f, 0.012802f, 0.012227f, -0.060377f, -0.051782f, -0.018143f, -0.008702f, 0.093088f, -0.027360f, 0.037072f, 0.031493f, 0.018327f, 0.013858f, -0.013714f, -0.031347f, -0.035221f, -0.001046f, 0.004940f, 0.002347f, -0.036633f, -0.107594f, 0.100626f, 0.115929f, -0.004404f, -0.088877f, -0.131096f, 0.129250f, 0.000507f, 0.094811f, 0.054071f, 0.006636f, 0.001775f, -0.057795f, 0.082509f, -0.042028f, -0.050468f, -0.048303f, 0.054191f, -0.002333f, 0.055378f, -0.050836f, 0.034083f, 0.046445f, -0.035406f, 0.019310f, 0.009364f, 0.017207f, 0.049263f, 0.040739f, -0.060508f, -0.071904f, 0.019200f, -0.030751f, 0.032659f, 0.098039f, -0.018315f, -0.010390f, 0.042839f, 0.030585f, 0.041674f, 0.058500f, 0.054604f, -0.050563f, 0.020419f, -0.129955f, -0.002755f, -0.050527f, -0.054628f, 0.087987f, -0.009334f, 0.001957f, -0.111505f, -0.048935f, 0.063861f, -0.019016f, -0.054661f, 0.017454f, 0.015251f, -0.053196f, 0.005368f, -0.128494f, -0.069903f, 0.021826f, 0.023813f, 0.013890f, 0.092015f, 0.046393f, -0.078935f, -0.067146f, 0.079177f, -0.024242f, -0.002974f, -0.109793f, 0.010698f, 0.045299f, 0.057181f, -0.053598f, 0.057309f, -0.032636f, -0.018671f, -0.060395f, -0.015092f, -0.013665f, 0.067449f, -0.050437f, 0.104126f, 0.035872f, -0.000269f, 0.031466f, -0.027418f, 0.001857f, -0.040534f, 0.038449f, -0.101884f, -0.080567f, -0.037156f, -0.114485f, 0.008607f, 0.014672f, -0.004256f, -0.043930f, 0.041130f, 0.041569f, -0.108826f, 0.028265f, -0.076025f, 0.027661f, 0.052526f, -0.085135f, -0.053909f, 0.003995f, -0.040818f, 0.077413f, 0.021097f, -0.042862f, 0.008394f, 0.028920f, -0.031787f, 0.011052f, 0.056935f, 0.037421f, 0.005111f, -0.025766f, -0.007085f, 0.025567f, 0.102973f, 0.054327f, 0.082919f, 0.034166f, -0.041153f, -0.041068f, -0.082032f, -0.131799f, -0.069908f, 0.060694f, -0.054043f, -0.019392f, 0.093145f, -0.063243f, 0.060612f, -0.087070f, 0.017033f, 0.042131f, -0.000022f, 0.103763f, 0.057607f, 0.061714f, -0.003101f, -0.086357f, 0.046750f, 0.045329f, 0.040540f, -0.004992f, -0.004671f, 0.024289f, -0.017245f, 0.042801f, 0.066189f, 0.023718f, 0.010404f, 0.042165f, -0.089014f, 0.033012f, 0.033047f, 0.026683f, -0.001082f, 0.065664f, -0.045351f, -0.103406f, 0.077773f, -0.045458f, -0.023046f, 0.039522f, 0.004464f, 0.012332f, 0.002534f, 0.001370f, 0.030249f, -0.014838f, 0.027444f, 0.003416f, 0.017204f, 0.020099f, -0.023171f, -0.027181f, -0.079605f, -0.033140f, 0.002627f, -0.014798f, -0.070190f, -0.060980f, -0.112165f, 0.065580f, 0.040529f, -0.040221f, -0.034589f, 0.033168f, -0.098791f, 0.059760f, 0.044863f, -0.138301f, -0.029685f, 0.045551f, -0.005043f, -0.010581f, 0.053392f, 0.050857f, 0.116642f, 0.010230f, -0.006883f, -0.085323f, 0.047843f, 0.042945f, -0.000710f, 0.054499f, -0.039866f, -0.013284f, -0.022957f, -0.019071f, -0.057665f, -0.047428f, -0.072321f, 0.026900f, 0.053618f, -0.026644f, 0.076528f, -0.046705f, 0.000420f, 0.046453f, -0.015547f, 0.080256f, -0.081726f, 0.092041f, -0.098835f, 0.078608f, -0.028518f, 0.052874f, -0.081970f, -0.002293f, 0.107990f, -0.002415f, 0.038649f, 0.025493f, -0.019620f, 0.083449f, -0.038441f, 0.112272f, -0.045381f, -0.015362f, 0.122188f, -0.039627f, 0.014414f, -0.011207f, -0.044707f, -0.027155f, -0.015358f, -0.026675f, 0.042312f, -0.037420f, 0.070376f, 0.021431f, 0.028595f, 0.028821f, -0.012467f, 0.048600f, 0.073198f, -0.061392f, 0.050261f, 0.024546f, 0.141976f, 0.073924f, -0.009467f, -0.008566f, 0.075097f, 0.022912f, -0.067083f, -0.111747f, 0.029819f, 0.042174f, 0.067295f, -0.104993f, 0.093449f, -0.005292f, 0.059034f, 0.020059f, 0.089073f, 0.010848f, -0.033974f, 0.051913f, -0.088637f, 0.092627f, 0.086920f, 0.185200f, 0.072220f, 0.029490f, 0.044581f, 0.075162f, 0.056118f, 0.011336f, -0.039567f, -0.073203f, 0.107052f, 0.046294f, -0.059048f, 0.028834f, 0.002307f, -0.038791f, -0.037318f, 0.042343f, 0.017962f, -0.013324f, -0.078617f, 0.008577f, 0.008924f, -0.040681f, 0.026400f, 0.015330f, -0.128275f, -0.069426f, 0.038145f, 0.038285f, 0.038633f, -0.007013f, -0.004091f, -0.076323f, -0.053985f, -0.035038f, -0.035921f, -0.021334f, 0.073215f, 0.030936f, 0.071905f, 0.082656f, 0.019774f, -0.020369f, 0.061434f, 0.086548f, -0.072544f, 0.022492f, 0.021896f, -0.059387f, -0.044087f, 0.115015f, 0.106109f, -0.044940f, 0.020545f, -0.017292f, -0.059837f, -0.119834f, -0.036884f, -0.034660f, -0.117673f, 0.029219f, -0.038561f, -0.059834f, 0.003583f, -0.030177f, 0.021895f, -0.022785f, -0.096471f, -0.047307f, -0.033649f, 0.048360f, -0.025206f, -0.015244f, 0.006922f, 0.002968f, -0.083206f, -0.032051f, -0.062012f, 0.056033f, -0.113105f, 0.055342f, -0.043550f, -0.048372f, 0.121567f, 0.087995f, -0.040104f, 0.040909f, 0.035281f, 0.019513f, -0.071488f, -0.104468f, -0.044600f, 0.027480f, 0.037410f, -0.038892f, 0.029148f, 0.054371f, -0.079196f, -0.045982f, 0.057230f, 0.050232f, 0.020701f, 0.027634f, -0.113012f, 0.027250f, 0.049334f, -0.012499f, -0.063136f, -0.040235f, -0.091908f, -0.005628f, -0.052561f, -0.084733f, -0.063244f, 0.056487f, -0.013514f, -0.016100f, 0.086196f, 0.050896f, -0.060020f, -0.052781f, 0.011840f, 0.053770f, -0.022494f, 0.025095f, -0.026728f, 0.004594f, 0.025126f, 0.081190f, -0.016210f, 0.048156f, 0.077927f, -0.049828f, -0.058154f, -0.037090f, -0.068078f, -0.014742f, -0.036041f, 0.018240f, -0.023652f, 0.047856f, -0.052765f, -0.015962f, -0.013287f, 0.065966f, -0.028225f, -0.036647f, 0.032654f, 0.007047f, 0.021259f, -0.096182f, -0.054962f, 0.031035f, 0.058972f, 0.063032f, -0.029818f, -0.046692f, 0.053767f, -0.042199f, 0.047863f, 0.043094f, -0.045832f, -0.071866f, -0.048705f, 0.017462f, 0.011027f, 0.043517f, 0.020491f, -0.002706f, 0.034116f, -0.065168f, -0.055364f, -0.069818f, -0.081785f, 0.027919f, 0.001653f, 0.036502f, -0.047662f, 0.017964f, 0.063119f, 0.002252f, 0.028143f, -0.012867f, -0.028606f, 0.110636f, 0.071246f, 0.063906f, -0.071713f, 0.035935f, 0.041980f, -0.005466f, -0.087592f, 0.045827f, 0.070167f, 0.098330f, -0.073360f, 0.078292f, -0.081528f, -0.045764f, -0.057670f, 0.081916f, 0.100126f, 0.015642f, -0.050917f, 0.047549f, -0.014368f, 0.024912f, -0.033388f, -0.032811f, -0.029268f, -0.020453f, 0.064814f, 0.027068f, -0.009321f, 0.106443f, -0.014964f, 0.007753f, 0.062089f, 0.002400f, -0.083182f, 0.110893f, 0.018155f, -0.025530f, 0.006278f, 0.043299f, 0.007328f, -0.051352f, 0.030811f, 0.084093f, -0.019315f, -0.006898f, -0.052984f, 0.039211f, -0.056694f, 0.071075f, 0.059098f, 0.041627f, -0.017369f, 0.065026f, -0.066168f, 0.078276f, -0.107325f, 0.039365f, 0.070226f, -0.054364f, -0.056741f, 0.047047f, 0.052997f, 0.009951f, -0.026012f, -0.037624f, -0.042679f, -0.007515f, -0.005514f, 0.074434f, -0.034194f, -0.069031f, 0.061456f, 0.095879f, -0.097020f, 0.083232f, -0.016797f, 0.025118f, -0.026974f, 0.090550f, 0.022104f, -0.026214f, 0.034667f, 0.027743f, 0.050554f, -0.041091f, -0.047216f, 0.029563f, 0.011195f, 0.043460f, 0.027818f, 0.015303f, -0.040064f, -0.037360f, 0.100976f, 0.013736f, -0.088078f, 0.073738f, 0.044504f, -0.024428f, 0.003617f, -0.035238f, -0.040066f, -0.054730f, 0.058133f, -0.094185f, 0.037674f, -0.014297f, 0.038198f, 0.116312f, -0.009622f, -0.012568f, 0.041454f, 0.062319f, -0.019891f, 0.023152f, -0.050212f, -0.065720f, 0.039253f, -0.023284f, 0.109493f, -0.026980f, 0.003633f, -0.021399f, -0.036371f, 0.029935f, -0.051862f, 0.065217f, -0.059895f, -0.045437f, -0.044930f, -0.007566f, -0.000618f, 0.008555f, -0.083128f, 0.048756f, -0.097412f, 0.070415f, -0.119731f, 0.026343f, -0.165059f, 0.031284f, 0.029461f, -0.075598f, 0.075841f, 0.039815f, -0.002900f, 0.037567f, -0.048185f, 0.001362f, 0.021708f, -0.064613f, 0.103280f, 0.091734f, -0.105759f, -0.050461f, 0.061363f, 0.002271f, -0.013268f, -0.034774f, -0.012019f, 0.051958f, -0.049815f, -0.034834f, -0.030358f, 0.021475f, -0.066603f, -0.031168f, -0.011939f, -0.048567f, 0.047397f, -0.003644f, -0.052430f, -0.038976f, 0.049122f, 0.025402f, 0.049669f, -0.021882f, 0.103932f, 0.018135f, -0.011744f, 0.068359f, -0.101578f, -0.013940f, -0.061156f, -0.049064f, -0.063862f, 0.016768f, -0.009646f, 0.100946f, 0.042476f, -0.026088f, -0.023140f, -0.032326f, -0.016999f, -0.012363f, 0.008524f, -0.023306f, 0.023543f, 0.013307f, 0.016487f, 0.094580f, -0.006349f, -0.029392f, 0.055194f, 0.002504f, 0.076540f, 0.044322f, -0.002872f, -0.115611f, 0.010950f, 0.010193f, -0.050649f, -0.038932f, -0.057044f, 0.045027f, 0.094929f, 0.030666f, -0.000930f, -0.029175f, -0.020032f, 0.071763f, -0.024493f, -0.088739f, -0.105128f, 0.055767f, 0.002370f, 0.039608f, -0.038168f, -0.102716f, -0.032100f, 0.056824f, 0.059703f, -0.080290f, 0.033641f, -0.004891f, -0.093387f, 0.069035f, -0.009079f, 0.002133f, 0.003155f, 0.002019f, -0.038065f, 0.058060f, -0.043803f, 0.024892f, -0.039833f, -0.061011f, -0.062192f, -0.038975f, 0.088213f, -0.032266f, 0.043067f, 0.016295f, 0.039941f, 0.008089f, -0.017199f, -0.034497f, -0.088155f, -0.071263f, 0.025705f, -0.070729f, 0.012075f, 0.050923f, -0.045713f, -0.028888f, -0.028867f, -0.057578f, 0.048005f, 0.029838f, 0.089159f, -0.011451f, -0.050957f, 0.064427f, 0.067561f, 0.060864f, -0.050604f, -0.008774f, -0.037718f, -0.050263f, 0.090173f, -0.016959f, 0.069774f, -0.047336f, -0.001484f, 0.066722f, 0.091577f, 0.019254f, 0.083036f, 0.059171f, 0.048322f, 0.010085f, -0.043837f, 0.003249f, -0.047414f, 0.039014f, 0.032064f, -0.041722f, -0.003359f, 0.063117f, -0.038955f, 0.004883f, 0.100147f, -0.078626f, -0.026392f, -0.078037f, 0.084599f, 0.106884f, 0.090098f, -0.008921f, 0.045838f, 0.053504f, -0.048621f, 0.083450f, -0.095067f, 0.019248f, -0.086474f, -0.058846f, -0.040340f, 0.026395f, 0.002822f, 0.050241f, -0.102174f, 0.003583f, 0.079488f, 0.024288f, 0.026364f, 0.090395f, 0.091827f, 0.033186f, -0.078285f, -0.046068f, 0.063665f, -0.119603f, 0.113388f, 0.018542f, 0.032765f, 0.019904f, 0.076080f, -0.012044f, 0.054810f, -0.040578f, -0.003915f, -0.038712f, 0.066329f, 0.076993f, -0.011673f, -0.033802f, -0.001874f, -0.028354f, -0.000615f, -0.072445f, -0.044418f, 0.024184f, -0.030069f, -0.126775f, -0.010173f, -0.089170f, 0.008325f, -0.050088f, -0.004228f, 0.003377f, -0.043527f, -0.018988f, 0.089774f, -0.092723f, 0.017466f, 0.098619f, 0.049165f, 0.008420f, 0.036319f, -0.010331f, 0.082196f, -0.082588f, 0.065271f, 0.080218f, 0.027669f, -0.086800f, -0.025932f, -0.023019f, -0.062348f, -0.032766f, 0.036331f, -0.049567f, -0.111086f, 0.110719f, 0.059050f, 0.066206f, 0.093691f, -0.119578f, 0.025319f, 0.060581f, 0.076947f, -0.107346f, 0.112652f, -0.053861f, -0.016161f, 0.059743f, -0.017670f, 0.023124f, -0.064122f, 0.089017f, -0.057539f, -0.110921f, 0.102812f, -0.051114f, 0.015182f, 0.059069f, 0.022746f, -0.074313f, 0.014494f, 0.019585f, -0.055438f, 0.021871f, 0.065151f, -0.014617f, -0.077779f, -0.020495f, 0.010977f, -0.016840f, 0.010446f, -0.006414f, -0.017877f, 0.043588f, 0.059181f, -0.031687f, -0.024431f, -0.047007f, -0.024311f, 0.097468f, 0.021236f, -0.017293f, 0.024308f, 0.042185f, 0.055742f, 0.078318f, -0.013125f, 0.044514f, 0.049757f, 0.070966f, -0.009513f, 0.034508f, 0.023784f, -0.096650f, -0.018314f, -0.047067f, -0.009422f, 0.091919f, -0.039227f, -0.015007f, 0.012971f, 0.039618f, -0.061523f, -0.012037f, 0.003944f, 0.007149f, 0.060052f, -0.042402f, -0.006017f, 0.041114f, 0.038017f, -0.085773f, 0.095840f, -0.015937f, 0.060892f, 0.007791f, 0.039650f, 0.056387f, -0.068753f, 0.052776f, 0.003154f, -0.099165f, -0.043888f, -0.022151f, -0.071485f, -0.024311f, 0.064144f, 0.024124f, -0.062938f, 0.022892f, 0.064426f, 0.031475f, 0.048494f, -0.034234f, 0.033901f, -0.103193f, -0.044585f, -0.075558f, -0.006933f, 0.086432f, 0.098703f, -0.034268f, -0.044242f, 0.042440f, -0.039175f, 0.035899f, -0.037212f, 0.092950f, 0.077581f, -0.046061f, -0.050260f, 0.002564f, 0.080818f, 0.005134f, 0.020957f, -0.145723f, -0.067223f, 0.039255f, 0.009983f, 0.049386f, -0.035745f, -0.034737f, 0.013641f, -0.031421f, 0.090132f, -0.093430f, -0.093327f, -0.045821f, 0.002190f, -0.007108f, 0.080343f, -0.026287f, 0.055817f, -0.007869f, 0.049886f, 0.018832f, 0.047011f, 0.071593f, 0.094148f, 0.025894f, -0.086016f, -0.146639f, 0.058295f, 0.002888f, 0.057583f, 0.032371f, -0.044054f, -0.056301f, -0.002757f, 0.014950f, -0.038564f, 0.009290f, -0.105638f, 0.043616f, -0.096123f, 0.053444f, -0.048291f, 0.031594f, -0.068029f, -0.049014f, 0.004122f, -0.017603f, 0.004073f, 0.011560f, 0.032868f, 0.057706f, -0.000276f, -0.034480f, -0.035533f, -0.111297f, -0.014865f, 0.047936f, -0.031276f, 0.012168f, 0.021463f, 0.068889f, 0.064547f, -0.083249f, 0.013769f, 0.064032f, -0.064496f, -0.036022f, -0.096405f, -0.061372f, -0.029878f, -0.070803f, -0.068770f, -0.014372f, 0.035023f, -0.001883f, -0.081722f, -0.052862f, 0.000707f, 0.003405f, -0.048853f, 0.082765f, -0.104419f, 0.032507f, 0.013309f, 0.095221f, 0.105889f, 0.050490f, 0.024999f, 0.054975f, -0.093095f, 0.038556f, 0.021158f, 0.098137f, -0.014357f, 0.050228f, -0.005230f, 0.009407f, -0.072849f, -0.096535f, 0.015272f, -0.081815f, 0.037643f, -0.066767f, 0.038751f, -0.050669f, -0.047959f, 0.099050f, -0.000449f, 0.025107f, 0.081048f, -0.006445f, -0.062200f, 0.046984f, 0.059814f, 0.073182f, -0.073219f, -0.063912f, -0.019320f, -0.018249f, -0.042103f, -0.041800f, 0.105815f, 0.043085f, 0.008775f, 0.049892f, 0.072724f, -0.101708f, 0.084646f, -0.085940f, 0.099364f, -0.045323f, -0.047490f, 0.066282f, 0.050047f, 0.077724f, 0.007392f, -0.002946f, -0.054629f, -0.012630f, 0.042389f, -0.080541f, 0.002456f, 0.020170f, 0.074777f, -0.048922f, 0.028864f, 0.071818f, -0.036093f, -0.066309f, 0.045012f, -0.019826f, 0.033250f, -0.005072f, 0.015738f, 0.053385f, -0.066484f, -0.063478f, -0.003687f, 0.036335f, 0.047802f, -0.014224f, 0.057745f, -0.037173f, 0.063025f, -0.065756f, 0.029420f, 0.000634f, 0.045699f, -0.032161f, -0.020908f, -0.074150f, -0.034827f, 0.010100f, -0.021384f, 0.074247f, -0.026182f, -0.033030f, 0.000432f, 0.012171f, -0.063689f, -0.008245f, -0.124474f, 0.024190f, 0.022018f, -0.074876f, 0.073749f, 0.083568f, 0.014228f, 0.028657f, 0.006131f, -0.077629f, -0.071786f, -0.094503f, -0.000702f, 0.006412f, -0.116696f, -0.033145f, -0.005242f, 0.108475f, -0.025953f, -0.044009f, -0.085737f, -0.059345f, 0.089799f, 0.083701f, -0.079012f, 0.068065f, 0.010856f, 0.020192f, -0.011337f, -0.032912f, 0.008716f, 0.030649f, -0.079720f, -0.110130f, -0.053522f, 0.042593f, -0.104858f, -0.012522f, 0.067573f, -0.058826f, 0.059057f, 0.087349f, 0.078315f, -0.045979f, -0.019512f, -0.034473f, 0.010068f, -0.011528f, 0.056844f, 0.015476f, 0.044160f, 0.010445f, -0.106921f, 0.066136f, 0.031524f, 0.023583f, -0.047010f, 0.052604f, -0.059410f, -0.038806f, -0.044022f, 0.018494f, 0.029477f, -0.044537f, 0.061015f, 0.053819f, 0.034925f, 0.031235f, 0.068167f, 0.112233f, 0.083056f, -0.047106f, -0.031786f, 0.047332f, 0.071430f, 0.068336f, 0.078544f, -0.052202f, 0.091537f, -0.025106f, 0.029648f, -0.027549f, 0.042946f, 0.044951f, -0.055698f, 0.045109f, -0.009254f, -0.050568f, -0.057954f, 0.036670f, -0.035981f, -0.063809f, 0.029747f, 0.052748f, 0.005241f, 0.016500f, 0.020976f, 0.049895f, 0.024994f, -0.025438f, -0.036455f, -0.114755f, -0.033841f, 0.030299f, 0.031757f, 0.034186f, 0.037357f, 0.044132f, 0.063169f, 0.085723f, 0.142024f, -0.128887f, -0.079457f, -0.132863f, -0.070267f, 0.020184f, -0.062385f, 0.077972f, -0.011382f, 0.006563f, 0.027518f, -0.059341f, 0.006611f, -0.070777f, -0.022100f, -0.059423f, 0.017781f, 0.014621f, 0.004563f, -0.014346f, 0.015317f, -0.011512f, -0.001364f, -0.094426f, 0.004689f, 0.118387f, -0.030982f, -0.046005f, 0.050241f, -0.046890f, 0.001953f, -0.074477f, 0.099823f, 0.014030f, -0.023258f, -0.011351f, -0.061529f, 0.042326f, 0.032662f, -0.008101f, 0.032149f, -0.001092f, -0.070544f, -0.062041f, -0.075106f, 0.016165f, 0.004569f, 0.034884f, 0.004092f, 0.026961f, 0.013809f, -0.058781f, 0.031849f, -0.065850f, -0.030813f, -0.036250f, -0.025478f, 0.045425f, 0.030126f, 0.010444f, 0.038425f, 0.062631f, -0.023306f, -0.002886f, -0.083496f, 0.034270f, 0.005402f, -0.007031f, -0.086589f, -0.001802f, -0.007939f, 0.015788f, 0.111430f, -0.108718f, 0.021974f, -0.009211f, -0.085441f, 0.071874f, -0.006261f, 0.053336f, -0.074468f, -0.050094f, 0.037964f, 0.055163f, -0.072737f, -0.036709f, -0.122465f, 0.115166f, 0.000009f, -0.012039f, -0.012442f, -0.047792f, -0.092038f, 0.009820f, -0.150169f, 0.096989f, -0.017939f, 0.023928f, 0.117273f, 0.025331f, -0.040142f, -0.024301f, -0.020664f, -0.065445f, 0.065058f, -0.008671f, 0.040803f, -0.011623f, -0.087135f, -0.074297f, 0.042472f, 0.110808f, -0.061321f, -0.049264f, -0.030853f, 0.014851f, -0.095513f, -0.034906f, 0.084689f, -0.101490f, 0.017846f, 0.039288f, 0.041950f, -0.101599f, 0.011877f, -0.051097f, 0.059362f, 0.045590f, 0.058462f, -0.011889f, -0.011355f, 0.075151f, -0.034796f, 0.087615f, -0.075441f, 0.026675f, 0.097823f, 0.065448f, -0.022416f, -0.040694f, -0.005610f, -0.034720f, -0.068688f, 0.106456f, 0.045926f, 0.079016f, -0.027261f, -0.060644f, 0.023310f, 0.066148f, 0.065330f, -0.000697f, 0.118550f, 0.094159f, -0.053946f, 0.084038f, -0.075165f, 0.050674f, -0.029144f, 0.036316f, 0.025902f, 0.060189f, 0.014759f, -0.046727f, -0.038842f, -0.012218f, -0.055631f, 0.020491f, 0.025550f, 0.090057f, 0.004631f, 0.043028f, -0.054533f, 0.045905f, 0.060955f, -0.017583f, 0.018366f, 0.101237f, 0.017424f, 0.033886f, -0.053660f, -0.027602f, -0.004282f, -0.045647f, -0.126265f, -0.070810f, 0.093548f, 0.002123f, 0.088232f, -0.010298f, 0.035055f, 0.001225f, -0.036957f, -0.058930f, 0.029297f, -0.081143f, 0.001384f, -0.006879f, -0.026572f, -0.083171f, 0.046720f, -0.028427f, -0.084740f, 0.085837f, -0.081805f, 0.047912f, 0.053364f, -0.059404f, -0.027422f, -0.107883f, -0.009718f, -0.102161f, 0.011455f, -0.067632f, -0.040674f, 0.030867f, 0.064586f, 0.008473f, -0.026315f, 0.045313f, 0.057706f, -0.010728f, -0.100250f, 0.072281f, -0.020050f, -0.033924f, -0.019564f, -0.001733f, 0.049863f, 0.037338f, 0.023506f, -0.076764f, -0.049978f, 0.032262f, -0.106171f, -0.053326f, 0.031066f, -0.042960f, 0.015510f, -0.037651f, -0.060971f, -0.060152f, 0.087574f, 0.058627f, 0.047896f, -0.019008f, -0.028174f, 0.040383f, 0.001643f, 0.006644f, -0.072233f, -0.016219f, -0.037257f, -0.059302f, 0.018925f, -0.023916f, -0.053074f, -0.077493f, 0.036400f, 0.059410f, 0.125759f, 0.084296f, 0.004314f, -0.045761f, 0.007109f, 0.025073f, -0.097188f, 0.065117f, -0.108195f, 0.083669f, 0.010719f, -0.005134f, 0.012648f, 0.021364f, 0.099826f, 0.038231f, -0.060406f, -0.002506f, 0.001512f, 0.020626f, -0.033282f, 0.049443f, -0.094640f, -0.057919f, 0.064401f, -0.088138f, -0.076358f, -0.049609f, 0.072435f, -0.007595f, -0.036291f, -0.052627f, -0.027343f, -0.011916f, 0.054870f, -0.037652f, -0.050947f, -0.069242f, 0.058456f, 0.044226f, -0.068648f, -0.108667f, -0.072140f, 0.003015f, -0.038176f, 0.055386f, -0.029011f, -0.073584f, -0.113618f, -0.067575f, 0.038703f, 0.073648f, 0.020002f, -0.015434f, -0.110583f, 0.123158f, 0.028061f, -0.055014f, 0.101569f, -0.001844f, 0.002546f, 0.044581f, 0.014778f, -0.011311f, -0.087224f, 0.031263f, 0.037042f, -0.090741f, 0.044805f, -0.008049f, -0.010281f, -0.040294f, 0.090382f, -0.015951f, -0.085989f, -0.058011f, 0.097266f, -0.008445f, -0.090380f, 0.000533f, 0.037242f, 0.088661f, 0.047348f, -0.047579f, 0.023262f, -0.021784f, 0.002327f, 0.083234f, 0.097166f, 0.037656f, -0.119568f, 0.018951f, 0.052647f, 0.095186f, -0.065650f, -0.024090f, -0.104516f, 0.070436f, 0.061978f, 0.014035f, -0.019519f, 0.067812f, -0.000910f, -0.049411f, 0.010988f, -0.002241f, 0.006830f, -0.005203f, 0.079099f, 0.053036f, 0.071187f, 0.108279f, -0.068707f, 0.023196f, -0.090097f, -0.047356f, 0.078239f, 0.107316f, -0.055503f, -0.053336f, 0.040187f, -0.030003f, -0.022020f, 0.066175f, -0.018126f, -0.050651f, -0.002347f, 0.002541f, 0.014997f, -0.026931f, -0.028540f, -0.105902f, 0.042729f, -0.041468f, 0.042783f, -0.050245f, -0.046870f, -0.012673f, -0.009346f, 0.081457f, 0.047598f, -0.022780f, 0.031293f, -0.010659f, 0.064873f, 0.028988f, 0.013984f, -0.058020f, 0.029438f, -0.054380f, 0.046374f, -0.079440f, -0.007870f, -0.078281f, 0.031471f, 0.009067f, -0.029473f, -0.051573f, 0.047720f, -0.006531f, -0.035376f, -0.058687f, -0.006438f, 0.014549f, -0.074138f, 0.087400f, -0.002281f, -0.088143f, -0.050287f, 0.031811f, 0.080539f, 0.058110f, 0.020888f, 0.001711f, 0.055299f, -0.068770f, -0.015948f, 0.009509f, -0.109562f, -0.018483f, 0.069964f, 0.003504f, 0.059429f, 0.056239f, 0.053209f, -0.041405f, 0.015111f, 0.069825f, -0.072565f, -0.009127f, 0.047574f, -0.080228f, 0.023350f, 0.064270f, 0.008796f, -0.055046f, 0.021299f, -0.109338f, -0.170853f, 0.030571f, -0.007098f, 0.004704f, -0.031825f, 0.058558f, 0.011304f, -0.081092f, 0.060646f, -0.005005f, -0.011142f, 0.034910f, 0.010568f, -0.033293f, -0.041562f, -0.104660f, 0.076946f, -0.008742f, 0.007775f, -0.011611f, -0.004348f, -0.045810f, 0.011147f, -0.015737f, 0.033627f, 0.008554f, 0.065124f, -0.112823f, -0.057976f, -0.055834f, -0.058886f, -0.068069f, 0.060496f, -0.018891f, 0.002356f, 0.068509f, -0.022816f, 0.095929f, -0.095154f, 0.013829f, -0.050007f, -0.080019f, -0.004185f, -0.065121f, 0.015503f, -0.008455f, 0.006285f, 0.048750f, -0.037162f, 0.055476f, 0.141936f, 0.002729f, 0.064438f, -0.042113f, 0.000834f, -0.105826f, 0.038883f, 0.066971f, 0.027511f, 0.051810f, -0.013081f, 0.025222f, -0.041619f, 0.105731f, 0.031683f, -0.069726f, -0.050308f, -0.016197f, -0.007027f, -0.014015f, 0.083044f, 0.021567f, -0.017609f, -0.118117f, 0.120573f, 0.092915f, -0.062373f, 0.049319f, 0.015269f, -0.011550f, 0.032999f, -0.092619f, -0.041084f, 0.090379f, 0.032506f, 0.070055f, -0.025741f, -0.017786f, 0.054813f, -0.025963f, -0.047655f, -0.000840f, 0.031962f, 0.032095f, -0.110945f, 0.014934f, -0.042437f, -0.091607f, -0.012942f, 0.045497f, 0.073213f, 0.008482f, -0.023364f, 0.064222f, 0.067695f, 0.027255f, -0.081934f, 0.012325f, 0.040195f, 0.007357f, 0.002486f, -0.058423f, -0.005138f, -0.008671f, -0.010580f, -0.047091f, -0.023142f, 0.043850f, 0.044046f, -0.084445f, 0.039410f, -0.003860f, -0.118127f, -0.002320f, -0.079623f, 0.036335f, 0.028311f, -0.034148f, 0.083218f, -0.019207f, 0.043371f, -0.003026f, -0.032720f, -0.049048f, 0.090754f, -0.070253f, 0.086474f, 0.076563f, 0.000381f, 0.051765f, -0.025365f, -0.109752f, -0.042456f, 0.041627f, 0.002464f, -0.010486f, 0.011901f, -0.022553f, -0.091937f, 0.031578f, 0.092494f, 0.018819f, 0.079970f, -0.028704f, 0.072022f, 0.036018f, 0.029517f, -0.076553f, 0.052518f, -0.051714f, -0.009865f, -0.076772f, 0.069802f, 0.036194f, 0.031018f, 0.082823f, -0.100659f, 0.032520f, -0.097563f, 0.084486f, 0.027855f, -0.011292f, 0.114349f, -0.028756f, 0.016704f, 0.078424f, -0.052026f, -0.005418f, -0.008922f, 0.095791f, -0.019420f, 0.002095f, 0.075289f, 0.001039f, -0.010144f, -0.045222f, 0.002752f, -0.050518f, 0.052803f, 0.074461f, 0.001322f, 0.033991f, -0.000396f, -0.019212f, 0.016328f, 0.093481f, 0.049221f, -0.027188f, 0.049093f, -0.017078f, 0.009969f, -0.123060f, 0.003613f, 0.092783f, -0.043810f, 0.028531f, -0.037387f, 0.044360f, 0.017624f, -0.010374f, -0.011260f, -0.051553f, -0.066889f, -0.069052f, 0.060088f, 0.038859f, 0.054267f, 0.031873f, 0.103348f, 0.036679f, -0.086361f, 0.140872f, -0.003409f, 0.042143f, -0.053435f, 0.047752f, -0.079141f, 0.123434f, 0.032336f, 0.031514f, 0.087216f, -0.008916f, -0.005876f, -0.101358f, 0.091584f, 0.089605f, -0.046146f, 0.062438f, -0.063381f, 0.062598f, 0.015210f, 0.026499f, -0.051921f, 0.013530f, -0.033225f, -0.034692f, 0.094248f, -0.028756f, 0.008840f, -0.056593f, -0.034194f, 0.013296f, -0.050629f, -0.008717f, -0.096293f, 0.007460f, -0.009109f, -0.005341f, -0.024371f, -0.053126f, 0.035556f, -0.103846f, 0.110437f, 0.120626f, 0.082259f, 0.062650f, 0.134712f, -0.080585f, -0.047980f, -0.029002f, 0.044304f, -0.113041f, -0.011994f, 0.072202f, 0.004747f, 0.063803f, -0.056842f, 0.001795f, 0.057793f, -0.003037f, -0.058240f, 0.006772f, 0.015956f, 0.082719f, 0.039740f, 0.001100f, 0.043023f, 0.023813f, -0.050051f, -0.048132f, 0.078068f, 0.030521f, 0.018480f, 0.021407f, 0.014577f, 0.091095f, 0.003313f, 0.061233f, -0.004239f, -0.005869f, -0.060823f, -0.020536f, -0.005545f, 0.057363f, 0.003702f, -0.018210f, 0.024273f, 0.035896f, 0.056877f, -0.059938f, 0.004880f, 0.080700f, 0.045847f, -0.031572f, -0.085680f, -0.069847f, 0.076192f, 0.004567f, -0.034556f, -0.042954f, 0.068386f, 0.032213f, -0.065815f, 0.021233f, -0.021035f, -0.071263f, -0.072525f, -0.063598f, -0.083905f, -0.000443f, 0.075632f, -0.010271f, -0.034346f, -0.049987f, 0.052555f, 0.049254f, -0.044344f, 0.023332f, -0.085269f, -0.042851f, -0.037807f, 0.055082f, 0.022563f, 0.065291f, 0.068011f, -0.079552f, -0.036421f, 0.040244f, -0.036168f, 0.030598f, 0.028592f, 0.059699f, -0.002717f, 0.017741f, 0.050645f, 0.103872f, 0.077553f, -0.070726f, 0.028638f, -0.014764f, -0.003112f, -0.068040f, 0.074870f, 0.045076f, -0.034135f, -0.011017f, -0.011956f, -0.037047f, -0.059731f, -0.041019f, 0.043975f, -0.082047f, -0.073601f, -0.058443f, 0.112483f, -0.005745f, -0.002697f, 0.002415f, -0.002727f, -0.082360f, 0.073401f, 0.061355f, 0.019011f, 0.062414f, 0.092031f, -0.072920f, 0.060999f, 0.012684f, 0.048651f, -0.084283f, -0.012150f, 0.028892f, 0.019389f, 0.049034f, 0.049148f, -0.119295f, -0.040542f, 0.022414f, -0.064913f, 0.027799f, 0.051120f, 0.063100f, 0.013530f, -0.000861f, 0.014532f, -0.074471f, -0.046761f, 0.086993f, -0.029081f, 0.072146f, 0.058682f, 0.050590f, 0.076985f, -0.053924f, 0.009181f, 0.051911f, 0.000335f, -0.003839f, 0.104121f, 0.057409f, -0.022151f, -0.034756f, -0.017966f, -0.089751f, 0.043757f, 0.013271f, 0.004393f, -0.047489f, 0.001860f, 0.023298f, -0.020518f, -0.151093f, -0.024513f, -0.019988f, -0.020758f, 0.008852f, -0.008523f, -0.002533f, 0.073751f, 0.015795f, 0.051724f, -0.011247f, 0.002000f, -0.113730f, -0.020274f, 0.087295f, -0.075474f, -0.076637f, -0.054956f, -0.009338f, -0.062049f, -0.074087f, 0.031087f, -0.040349f, -0.051678f, 0.100716f, -0.082200f, 0.064533f, -0.019126f, 0.083586f, 0.009411f, 0.059205f, 0.031332f, 0.023397f, 0.051821f, 0.022532f, 0.030816f, 0.021134f, -0.023723f, -0.059269f, 0.041505f, 0.023563f, 0.051551f, 0.071489f, -0.038314f, -0.010014f, -0.000520f, -0.083477f, -0.083582f, 0.041042f, -0.054693f, 0.067045f, 0.102248f, -0.004797f, 0.021774f, -0.039321f, -0.048159f, 0.020125f, 0.096714f, -0.010817f, 0.085598f, 0.002160f, 0.074442f, -0.047221f, 0.046351f, -0.065122f, -0.004099f, -0.129035f, 0.007838f, -0.019459f, -0.020328f, -0.046387f, 0.046288f, 0.048054f, 0.017373f, 0.019589f, -0.129152f, 0.029479f, -0.022689f, -0.015107f, -0.025188f, 0.075491f, 0.077026f, -0.065923f, 0.042030f, 0.109289f, 0.043486f, 0.017221f, 0.008821f, 0.011561f, 0.004654f, -0.056754f, 0.036712f, 0.042236f, 0.060437f, -0.019587f, 0.039304f, 0.051143f, 0.098787f, -0.045569f, 0.039682f, -0.014914f, 0.048941f, 0.007504f, -0.073369f, -0.072668f, 0.030494f, -0.036442f, 0.058714f, 0.001806f, -0.060367f, 0.024274f, -0.009757f, 0.031936f, 0.004913f, 0.063118f, -0.090829f, 0.070000f, 0.013943f, 0.074617f, -0.034084f, -0.081273f, -0.051400f, 0.019739f, 0.078452f, 0.052704f, -0.067959f, 0.080849f, -0.056316f, 0.038765f, 0.035727f, 0.085860f, -0.007363f, -0.089523f, -0.020413f, 0.029915f, 0.078932f, -0.059539f, 0.110637f, 0.021229f, 0.043152f, 0.050965f, 0.091106f, 0.049841f, -0.103355f, 0.004445f, -0.072304f, -0.042363f, -0.066190f, -0.048284f, -0.030229f, -0.076243f, 0.042931f, 0.076371f, -0.020533f, 0.035019f, 0.063463f, -0.029711f, 0.023782f, 0.016093f, 0.016832f, 0.006826f, -0.051681f, -0.049207f, 0.042430f, -0.066992f, -0.003035f, -0.001312f, 0.109425f, 0.097577f, -0.018420f, 0.014009f, 0.000220f, 0.045287f, 0.014544f, 0.022999f, 0.065819f, 0.052107f, 0.008087f, 0.040600f, -0.033854f, 0.067161f, -0.082485f, -0.009612f, 0.012278f, 0.015432f, -0.049672f, 0.016556f, 0.011564f, -0.041749f, 0.075240f, 0.043910f, 0.000435f, -0.038070f, -0.014554f, 0.033469f, -0.071254f, 0.009825f, 0.044332f, -0.123142f, 0.027695f, -0.080841f, 0.075505f, -0.049004f, -0.084826f, 0.004409f, -0.106828f, -0.005548f, 0.033334f, -0.061815f, 0.130257f, -0.068137f, 0.006503f, 0.006718f, -0.006498f, -0.066424f, -0.047970f, -0.000461f, 0.061880f, 0.025078f, 0.047782f, 0.111552f, 0.065626f, 0.079954f, -0.002803f, 0.022016f, -0.052808f, -0.053112f, -0.044968f, -0.027103f, 0.082551f, 0.038713f, -0.083391f, -0.068068f, 0.021334f, 0.013744f, 0.000922f, 0.038388f, 0.058658f, 0.110331f, -0.035424f, -0.091517f, 0.080307f, 0.001918f, -0.088114f, -0.084085f, 0.109608f, -0.044750f, -0.064989f, -0.032756f, -0.050837f, -0.044732f, 0.029665f, -0.057706f, 0.080129f, 0.025576f, 0.081428f, 0.076538f, -0.068385f, 0.056641f, -0.039591f, 0.068312f, -0.077546f, -0.019871f, 0.012301f, 0.014493f, -0.062526f, -0.006815f, 0.090553f, -0.007085f, 0.005773f, -0.039208f, 0.082995f, -0.027811f, -0.022716f, -0.071296f, -0.022802f, -0.054317f, -0.029034f, 0.003236f, -0.086801f, 0.074311f, -0.047250f, 0.016791f, -0.006269f, -0.066506f, -0.033239f, -0.045315f, 0.066025f, -0.022867f, -0.007574f, 0.023127f, -0.094828f, 0.030780f, 0.103453f, 0.061999f, 0.014514f, 0.025112f, 0.075611f, 0.046333f, -0.007169f, 0.033635f, -0.100374f, -0.056538f, 0.052185f, 0.005762f, -0.033157f, -0.086080f, -0.036609f, 0.013916f, 0.001440f, 0.043955f, -0.018740f, -0.010563f, -0.063896f, 0.013667f, -0.028305f, 0.039797f, 0.065812f, -0.038924f, 0.082190f, 0.050371f, 0.058457f, -0.034523f, 0.021789f, 0.007747f, -0.091581f, -0.013538f, -0.012224f, -0.011094f, 0.110884f, 0.017680f, -0.122823f, 0.118356f, 0.000416f, 0.040468f, 0.129294f, -0.009737f, 0.033617f, -0.075991f, -0.065127f, -0.076002f, -0.067280f, -0.095847f, 0.041946f, 0.036123f, 0.016608f, -0.054132f, 0.079349f, 0.004512f, 0.005279f, 0.102021f, -0.016391f, -0.028259f, 0.033510f, -0.094226f, -0.025107f, 0.027856f, 0.045296f, -0.040993f, -0.118535f, -0.116735f, 0.071345f, 0.000862f, -0.000295f, 0.129870f, 0.057826f, -0.029503f, 0.010626f, -0.052965f, -0.013634f, -0.040318f, 0.093022f, -0.103733f, 0.009104f, -0.021648f, -0.108577f, 0.037624f, -0.030214f, -0.073197f, -0.052824f, 0.002973f, 0.072908f, 0.040754f, 0.064100f, -0.101074f, 0.078639f, -0.039075f, 0.054301f, 0.012539f, 0.094745f, 0.105468f, -0.008356f, 0.015004f, -0.010650f, 0.063608f, -0.071745f, -0.020657f, 0.067487f, 0.007054f, -0.000005f, 0.084024f, 0.024560f, 0.076923f, -0.028171f, 0.090348f, 0.017628f, -0.069071f, 0.045818f, 0.119748f, -0.042877f, 0.013228f, 0.007970f, -0.064880f, 0.046712f, 0.071141f, -0.028899f, -0.098556f, -0.140424f, -0.003009f, 0.017952f, -0.042781f, -0.068870f, -0.058120f, -0.045728f, 0.119105f, 0.045416f, -0.056996f, 0.055724f, -0.107568f, 0.080986f, 0.046052f, -0.023823f, -0.017503f, -0.055306f, 0.034446f, 0.103299f, -0.085299f, -0.010917f, -0.001036f, -0.088133f, 0.077146f, 0.132238f, 0.083839f, 0.009002f, -0.001588f, 0.094192f, -0.082685f, 0.020434f, -0.115119f, 0.045212f, -0.051805f, -0.018886f, 0.024952f, -0.043136f, -0.050362f, 0.005581f, -0.122073f, -0.052994f, -0.097753f, 0.023520f, -0.049623f, 0.079410f, -0.022721f, -0.080738f, 0.015621f, -0.009006f, -0.018227f, -0.101640f, -0.067452f, 0.104831f, -0.024381f, 0.008176f, -0.031986f, -0.019680f, 0.018112f, 0.031226f, -0.029921f, 0.041442f, 0.009520f, 0.020655f, 0.032813f, -0.046898f, -0.085138f, -0.102318f, 0.080822f, -0.010676f, -0.014905f, 0.062149f, 0.021813f, -0.011522f, 0.049783f, 0.016009f, -0.016016f, -0.021319f, 0.007934f, 0.054067f, -0.034809f, -0.019496f, -0.061226f, -0.001666f, 0.055793f, -0.002442f, 0.022008f, -0.010132f, -0.089314f, 0.067929f, -0.070491f, 0.017926f, -0.024601f, -0.060251f, -0.098721f, 0.072144f, 0.005322f, -0.056981f, 0.087080f, 0.016709f, 0.009345f, 0.045421f, -0.016229f, -0.004578f, 0.001450f, 0.058525f, -0.059168f, -0.048381f, 0.032151f, 0.076000f, 0.115377f, 0.024372f, -0.043066f, 0.050389f, 0.049261f, -0.088663f, -0.011251f, 0.016188f, -0.064389f, 0.023478f, 0.066140f, 0.142859f, -0.045428f, -0.044379f, -0.039882f, 0.010342f, 0.018215f, 0.045252f, -0.072022f, 0.050355f, -0.036845f, -0.055279f, 0.102447f, 0.027568f, -0.028537f, 0.034125f, -0.037272f, 0.083130f, -0.022853f, 0.030752f, 0.040498f, -0.030422f, 0.107738f, -0.003611f, 0.007477f, -0.019164f, 0.089552f, 0.074105f, 0.045317f, 0.024790f, -0.041687f, 0.039571f, 0.013054f, 0.008831f, 0.000142f, 0.055908f, 0.077601f, -0.073722f, -0.095992f, 0.026714f, -0.089996f, 0.002555f, 0.065896f, 0.012349f, -0.035090f, 0.014555f, 0.010661f, 0.056298f, 0.053426f, -0.067377f, -0.016768f, 0.050075f, 0.060797f, -0.024691f, 0.037168f, 0.072547f, 0.016068f, -0.082031f, 0.040948f, -0.063228f, -0.077340f, -0.045202f, 0.004065f, 0.049616f, 0.006322f, 0.029166f, 0.020931f, -0.020407f, -0.010667f, 0.092876f, -0.025090f, 0.005937f, -0.104373f, 0.092430f, -0.065073f, -0.036009f, -0.055428f, -0.001204f, 0.015845f, 0.029207f, -0.015607f, -0.071381f, 0.075909f, -0.112707f, -0.001902f, 0.006189f, -0.017739f, -0.045340f, -0.053150f, 0.105501f, 0.038139f, 0.068767f, 0.013840f, -0.048763f, -0.004360f, 0.028873f, -0.059166f, -0.056640f, -0.053281f, 0.036093f, 0.122310f, -0.066481f, 0.068531f, -0.026871f, 0.011782f, -0.066943f, 0.006934f, 0.037645f, 0.004183f, 0.023064f, -0.029186f, 0.001525f, -0.004484f, 0.006701f, 0.003732f, -0.021086f, -0.084341f, 0.032287f, 0.037417f, 0.049852f, -0.045737f, -0.089918f, 0.084434f, -0.003605f, -0.064327f, -0.006336f, 0.036657f, 0.008939f, -0.000055f, -0.052863f, 0.082468f, -0.062018f, 0.001011f, 0.082247f, 0.028965f, 0.008860f, -0.043683f, 0.041994f, 0.059883f, 0.052317f, -0.023712f, -0.034473f, -0.019935f, 0.032706f, 0.053592f, -0.038003f, -0.013134f, 0.044459f, 0.021399f, -0.045653f, -0.058472f, -0.045780f, -0.043734f, 0.000548f, 0.103107f, 0.039287f, 0.006645f, -0.072526f, 0.050182f, 0.022370f, -0.000764f, -0.040806f, -0.016761f, -0.053657f, 0.030234f, 0.031099f, -0.023774f, -0.051630f, 0.028641f, 0.031370f, -0.044014f, 0.065474f, 0.061914f, 0.044698f, -0.079249f, 0.013364f, -0.068027f, -0.008063f, 0.022511f, 0.062616f, -0.082639f, -0.045509f, -0.065793f, -0.030373f, -0.035010f, -0.071771f, -0.006515f, -0.053578f, -0.028009f, 0.031244f, -0.070869f, 0.075837f, 0.028969f, 0.054126f, 0.064573f, 0.056664f, 0.007713f, -0.043395f, 0.002491f, 0.085136f, -0.009800f, 0.021539f, -0.018315f, -0.064534f, 0.075831f, 0.027606f, -0.003713f, -0.026591f, -0.010303f, 0.070687f, 0.063165f, 0.027026f, 0.001090f, 0.012093f, -0.062744f, 0.009741f, -0.062125f, -0.002115f, 0.066698f, -0.007891f, -0.101614f, 0.052109f, 0.005384f, 0.049997f, -0.003294f, 0.035153f, 0.022961f, -0.001440f, -0.035228f, 0.115175f, -0.055048f, -0.009134f, -0.005158f, 0.002142f, -0.023007f, -0.017582f, -0.024544f, -0.076448f, -0.063475f, 0.084671f, 0.054637f, 0.002263f, -0.049571f, -0.066058f, -0.007183f, -0.033852f, -0.068946f, 0.049332f, -0.004014f, -0.030318f, -0.051053f, 0.049798f, 0.059430f, -0.043625f, 0.042995f, 0.078281f, -0.030698f, 0.023187f, 0.001140f, 0.052506f, -0.009043f, -0.043298f, -0.050200f, -0.011676f, -0.006842f, -0.020270f, 0.043061f, 0.028442f, 0.065165f, 0.084436f, 0.020351f, 0.029045f, 0.003625f, 0.023614f, 0.047272f, -0.079964f, 0.043152f, -0.064074f, -0.118250f, -0.128342f, -0.102231f, -0.029385f, 0.058368f, 0.000765f, -0.057824f, -0.083063f, -0.060907f, -0.085817f, 0.056086f, -0.108655f, -0.038320f, -0.114283f, -0.063173f, -0.047622f, -0.000911f, 0.012722f, -0.024888f, -0.076292f, 0.090683f, -0.111435f, 0.054254f, -0.000523f, 0.078090f, -0.024146f, 0.010100f, 0.025619f, 0.034713f, 0.001115f, -0.008334f, -0.035253f, 0.058863f, 0.098240f, -0.024484f, 0.108643f, -0.043239f, -0.041644f, -0.063587f, 0.012219f, -0.043498f, 0.012069f, -0.036098f, -0.019190f, 0.112056f, -0.089096f, 0.008946f, -0.035332f, 0.006977f, 0.109809f, -0.104711f, 0.054863f, 0.012888f, 0.027272f, 0.045282f, -0.047839f, -0.017762f, 0.029736f, 0.020576f, 0.051719f, 0.131754f, 0.031660f, -0.007465f, -0.050643f, -0.026491f, -0.021616f, -0.112799f, 0.094506f, 0.053467f, -0.092937f, -0.035420f, -0.064531f, 0.082609f, 0.077020f, -0.078344f, -0.028317f, 0.036705f, -0.026841f, -0.001925f, 0.045263f, -0.110535f, -0.038941f, -0.052537f, 0.047535f, 0.029389f, 0.001209f, 0.091739f, -0.016644f, -0.044368f, -0.042576f, -0.046660f, -0.035013f, -0.024614f, -0.098210f, 0.004278f, 0.024825f, -0.026907f, 0.045172f, -0.057146f, -0.035799f, 0.039617f, -0.023842f, -0.034546f, 0.087739f, 0.077741f, 0.028432f, -0.035482f, 0.061796f, -0.088640f, 0.078984f, 0.061391f, 0.018391f, 0.019005f, -0.025781f, 0.055152f, 0.023759f, 0.052301f, -0.055939f, -0.047372f, 0.041163f, -0.003957f, 0.023373f, 0.053552f, -0.000367f, 0.041810f, 0.096648f, 0.018290f, -0.002519f, -0.077565f, 0.031535f, 0.046762f, -0.090655f, -0.091457f, -0.006258f, -0.045490f, -0.026734f, -0.017362f, 0.064720f, 0.071975f, 0.017498f, -0.029339f, -0.025591f, 0.020485f, 0.068904f, 0.051400f, -0.020701f, -0.052776f, 0.038706f, -0.035683f, 0.077907f, 0.019338f, 0.050592f, -0.024307f, -0.073984f, 0.015490f, -0.057271f, -0.010840f, -0.046976f, 0.001983f, 0.078465f, 0.011177f, 0.066505f, -0.086934f, -0.070419f, 0.039177f, -0.035728f, 0.015448f, -0.084529f, -0.051816f, -0.028627f, -0.012268f, -0.028211f, -0.025334f, -0.088094f, 0.029446f, -0.077806f, 0.030223f, 0.074416f, -0.026207f, 0.072044f, 0.097480f, 0.122920f, 0.062497f, -0.108009f, 0.040187f, -0.061109f, -0.038258f, 0.094099f, -0.007535f, 0.024537f, 0.046264f, 0.038436f, 0.058532f, -0.063904f, -0.033813f, -0.032625f, -0.083569f, -0.069908f, -0.000275f, 0.045321f, 0.033706f, -0.015286f, -0.005374f, -0.042893f, -0.072624f, 0.007547f, 0.012049f, 0.053000f, -0.019614f, 0.070384f, -0.049782f, 0.016708f, 0.030041f, 0.091133f, -0.016849f, -0.007812f, 0.059625f, -0.006491f, -0.070462f, 0.060763f, 0.016145f, 0.003482f, 0.005281f, 0.027956f, 0.039734f, -0.046242f, 0.041355f, -0.080762f, 0.101210f, 0.057059f, 0.026827f, 0.043706f, 0.035873f, -0.014208f, -0.115708f, 0.076203f, 0.045304f, 0.040552f, -0.025358f, 0.150114f, -0.087938f, -0.034775f, -0.005583f, 0.051456f, 0.022699f, 0.008846f, -0.096562f, -0.002866f, 0.044467f, -0.042899f, 0.001827f, 0.009604f, 0.003083f, 0.038499f, -0.105090f, -0.082319f, 0.028933f, 0.004735f, 0.041475f, 0.081817f, 0.033110f, 0.062091f, 0.022761f, 0.013195f, -0.073404f, -0.064179f, 0.003136f, -0.086941f, 0.057661f, -0.053745f, 0.033579f, -0.004307f, -0.098629f, -0.084105f, -0.051907f, -0.083065f, 0.065067f, 0.033215f, 0.054797f, 0.025903f, 0.019932f, 0.055996f, 0.055081f, -0.075618f, 0.019170f, -0.060861f, 0.092816f, 0.056127f, -0.123855f, 0.101690f, 0.002036f, 0.097945f, -0.041798f, 0.074012f, -0.059089f, -0.013312f, -0.079654f, 0.081107f, 0.002229f, 0.048510f, 0.026582f, -0.072720f, 0.026403f, -0.066589f, -0.048432f, -0.061547f, 0.002446f, -0.065491f, -0.029997f, 0.004057f, -0.071711f, -0.029908f, 0.057877f, 0.030552f, 0.011871f, -0.000701f, 0.049362f, -0.029372f, 0.028749f, -0.039751f, -0.017139f, -0.066921f, -0.052243f, 0.020593f, -0.106853f, -0.057698f, 0.020349f, -0.049340f, -0.054430f, 0.095278f, -0.046963f, -0.037109f, 0.032463f, -0.066904f, 0.011743f, 0.015268f, -0.055120f, 0.024224f, 0.005966f, -0.013918f, -0.019225f, -0.017588f, 0.004552f, -0.062656f, 0.020610f, -0.009543f, 0.049092f, -0.093430f, -0.027057f, -0.009111f, 0.077124f, -0.048820f, -0.006473f, 0.033628f, 0.027544f, -0.040485f, -0.030535f, 0.024396f, 0.095776f, 0.086551f, 0.040179f, -0.038581f, -0.000790f, 0.027039f, -0.006378f, 0.013260f, 0.071198f, -0.015619f, 0.018980f, -0.012747f, -0.005664f, -0.012427f, 0.035985f, -0.079770f, -0.103978f, 0.068053f, -0.063594f, -0.031625f, 0.026208f, 0.045905f, 0.028574f, -0.079848f, -0.048535f, -0.028659f, -0.000222f, -0.057921f, 0.036696f, -0.001289f, -0.024734f, -0.081692f, -0.031560f, 0.086635f, -0.036877f, 0.006959f, 0.042068f, 0.042603f, -0.070984f, 0.002833f, 0.076740f, -0.033895f, -0.046920f, 0.084180f, 0.036549f, 0.007901f, -0.036246f, 0.052717f, -0.111111f, -0.057625f, 0.076217f, -0.026058f, -0.027694f, -0.042899f, 0.059506f, 0.065989f, 0.095355f, 0.068106f, -0.077928f, -0.005037f, -0.057160f, -0.132683f, -0.041864f, 0.065101f, -0.104153f, -0.032808f, -0.037804f, -0.025712f, 0.010505f, 0.018589f, -0.075881f, 0.040319f, -0.077522f, -0.009269f, -0.015351f, 0.028000f, 0.055631f, 0.059571f, -0.024975f, 0.058061f, -0.056809f, -0.047063f, -0.057035f, -0.082881f, 0.022248f, 0.020806f, 0.107896f, -0.010741f, -0.078427f, -0.066923f, -0.087565f, 0.036001f, -0.036712f, 0.042539f, -0.031977f, -0.005282f, 0.003300f, -0.056914f, -0.009564f, 0.009389f, -0.076365f, 0.038982f, -0.056915f, -0.093349f, -0.016202f, 0.045891f, -0.050253f, 0.056462f, -0.046327f, 0.086877f, 0.008731f, 0.030854f, -0.010132f, 0.060039f, -0.024333f, -0.032002f, -0.187994f, 0.024887f, -0.018774f, 0.116807f, 0.011119f, 0.009831f, -0.074034f, 0.109166f, 0.067493f, 0.060952f, -0.099660f, 0.023040f, 0.044744f, -0.000046f, 0.055658f, 0.125524f, 0.048044f, -0.000794f, -0.102419f, 0.044428f, 0.113797f, -0.130921f, 0.038386f, 0.038678f, 0.042475f, 0.092700f, -0.066862f, -0.027173f, -0.047194f, -0.022126f, -0.050206f, -0.066624f, 0.038102f, 0.123809f, -0.053879f, 0.003032f, 0.071214f, -0.072893f, -0.069792f, -0.106189f, -0.005251f, -0.027454f, 0.008031f, -0.007788f, -0.002861f, -0.026786f, -0.035327f, -0.003439f, 0.025587f, 0.072338f, -0.022092f, 0.068639f, 0.113610f, -0.022579f, -0.092315f, 0.004116f, 0.007276f, 0.013387f, -0.073692f, -0.031109f, 0.072440f, 0.066777f, 0.064659f, -0.029491f, 0.030648f, -0.000203f, -0.055965f, -0.097172f, -0.059861f, -0.073567f, 0.078696f, -0.082793f, 0.019848f, 0.051113f, -0.055025f, -0.038216f, -0.036924f, 0.007750f, -0.043655f, -0.051801f, -0.134312f, 0.028961f, 0.030904f, -0.024900f, 0.003881f, 0.039865f, 0.005239f, 0.055472f, -0.003979f, -0.005147f, 0.064711f, 0.033171f, -0.040414f, -0.059913f, 0.014900f, 0.043160f, -0.088147f, 0.029914f, 0.005839f, -0.080900f, 0.051378f, -0.083718f, -0.033532f, 0.004387f, -0.046644f, -0.027585f, 0.044554f, 0.066114f, -0.051368f, -0.036173f, -0.005764f, -0.061759f, 0.035145f, -0.016207f, 0.100405f, -0.057204f, 0.037132f, 0.077190f, -0.008987f, -0.010540f, -0.015022f, 0.036509f, 0.036020f, -0.068118f, 0.004656f, -0.083504f, 0.035248f, 0.005874f, -0.020564f, 0.051473f, 0.013442f, -0.005944f, -0.022226f, 0.115558f, -0.000747f, -0.026972f, -0.056066f, 0.009868f, -0.073978f, 0.046176f, -0.010858f, -0.006391f, 0.078390f, 0.081785f, -0.023874f, -0.041928f, -0.103251f, 0.145562f, 0.021651f, 0.048489f, -0.007804f, 0.014135f, -0.049833f, -0.028036f, -0.029279f, -0.029932f, 0.079673f, 0.095491f, -0.032628f, 0.028329f, -0.088922f, -0.001239f, -0.055886f, 0.027274f, 0.098987f, -0.024317f, -0.006333f, -0.034076f, 0.072693f, -0.012670f, 0.080813f, 0.017839f, 0.031985f, 0.016410f, -0.033899f, -0.078121f, -0.036762f, -0.003387f, 0.001904f, 0.081739f, -0.035046f, -0.025290f, -0.064009f, -0.078734f, 0.049554f, -0.038020f, -0.028469f, -0.011984f, 0.039364f, -0.078639f, 0.030573f, 0.056505f, 0.073806f, 0.069987f, -0.008591f, -0.004375f, 0.063588f, 0.036612f, 0.087188f, 0.025246f, -0.013845f, 0.057294f, 0.003618f, 0.032215f, -0.062171f, 0.004907f, 0.043155f, -0.082530f, 0.079639f, 0.082663f, 0.026992f, 0.035941f, -0.053051f, 0.050090f, -0.001068f, 0.076622f, -0.034816f, 0.003124f, -0.048133f, -0.029049f, -0.008002f, -0.043289f, -0.077763f, -0.099159f, 0.096466f, 0.076025f, -0.030041f, 0.034358f, -0.033030f, -0.017520f, 0.019580f, 0.118817f, -0.024720f, 0.042329f, -0.053276f, 0.072068f, -0.055474f, -0.034115f, 0.047157f, 0.048422f, 0.003011f, 0.084817f, -0.037117f, 0.047375f, -0.016387f, -0.001849f, -0.020450f, -0.056401f, -0.046160f, -0.103235f, -0.010652f, 0.013709f, 0.105095f, -0.012890f, -0.065161f, 0.022584f, -0.015513f, 0.069729f, 0.064296f, -0.057571f, -0.075091f, -0.067675f, 0.065778f, 0.045856f, -0.032523f, 0.020036f, 0.119150f, 0.058759f, 0.029787f, -0.042058f, -0.098991f, 0.044991f, 0.006250f, -0.117169f, 0.037499f, -0.049123f, 0.041781f, -0.065491f, -0.044479f, 0.013113f, 0.051382f, 0.082651f, 0.021253f, -0.076907f, 0.001484f, -0.041208f, 0.082739f, -0.016688f, 0.003282f, -0.020638f, -0.055645f, 0.028509f, 0.064088f, -0.069363f, -0.028483f, -0.000160f, 0.076782f, -0.054342f, 0.047135f, -0.041562f, 0.099331f, -0.062642f, -0.057691f, 0.051800f, -0.050398f, 0.019360f, -0.028663f, 0.057176f, -0.024165f, 0.055879f, -0.017781f, -0.015082f, 0.076284f, 0.099994f, -0.033732f, -0.024159f, -0.036931f, -0.051241f, -0.039172f, 0.011393f, -0.069710f, -0.060556f, 0.025646f, 0.032282f, -0.063482f, 0.048545f, -0.048390f, 0.068377f, 0.065662f, 0.014833f, -0.051207f, 0.017706f, -0.001784f, 0.009334f, 0.033911f, 0.097193f, 0.052444f, 0.068505f, -0.056500f, 0.057552f, -0.058521f, -0.014608f, -0.056508f, -0.060720f, 0.091767f, -0.094708f, 0.106256f, 0.050128f, 0.065136f, -0.003553f, -0.032059f, 0.040574f, -0.038755f, 0.014955f, 0.049084f, 0.013938f, -0.027619f, -0.038358f, -0.022397f, 0.073033f, -0.046517f, 0.082092f, 0.017711f, 0.090386f, 0.007036f, 0.018843f, -0.071640f, 0.032217f, -0.030160f, 0.098277f, 0.117858f, -0.021709f, -0.056591f, 0.010524f, -0.088492f, 0.043357f, -0.093192f, -0.038417f, 0.068001f, 0.028605f, 0.013090f, -0.050522f, 0.018257f, 0.087200f, 0.060671f, 0.013878f, 0.002346f, -0.012354f, -0.066894f, 0.041692f, -0.055826f, 0.014421f, -0.024212f, 0.073908f, 0.022901f, -0.080971f, -0.060463f, 0.012583f, -0.011899f, 0.084784f, -0.012364f, -0.026500f, -0.045954f, 0.001475f, 0.103167f, -0.054402f, -0.006194f, -0.053130f, -0.039805f, 0.010877f, -0.105234f, -0.012202f, 0.003603f, 0.054761f, -0.080014f, -0.056777f, 0.019797f, 0.131290f, -0.075883f, 0.006207f, -0.026713f, -0.003986f, -0.043875f, -0.117804f, -0.060050f, 0.036583f, -0.007153f, 0.085481f, 0.048936f, -0.068195f, 0.071109f, -0.086865f, -0.000488f, 0.062925f, 0.076324f, 0.048936f, -0.031105f, 0.027608f, 0.069895f, -0.034717f, -0.054837f, 0.036011f, -0.039954f, 0.025991f, 0.012252f, 0.004874f, -0.107419f, 0.001115f, 0.003037f, 0.064905f, 0.073752f, -0.002156f, -0.067179f, -0.065074f, 0.052999f, 0.031194f, 0.031733f, -0.036929f, -0.084462f, 0.096603f, 0.097511f, -0.041094f, -0.090405f, 0.030431f, -0.013953f, 0.039773f, -0.156368f, 0.010272f, 0.119651f, 0.095709f, 0.048409f, -0.007681f, -0.064119f, 0.027959f, -0.021367f, 0.065310f, -0.014239f, -0.008537f, -0.085754f, -0.112973f, -0.074942f, -0.001213f, 0.055598f, 0.019334f, 0.016361f, 0.088306f, 0.112945f, 0.025711f, 0.022601f, -0.009220f, -0.028269f, -0.052715f, 0.044550f, 0.007328f, -0.000160f, -0.092557f, 0.045464f, -0.032462f, 0.007380f, 0.002180f, -0.000438f, 0.030108f, 0.071756f, -0.032606f, 0.090452f, 0.001180f, -0.056493f, -0.010650f, -0.105044f, -0.040420f, -0.002255f, 0.076427f, 0.024754f, -0.039331f, 0.113552f, -0.069530f, -0.031852f, 0.064914f, -0.009508f, -0.065099f, -0.058186f, -0.029966f, -0.015952f, -0.033041f, -0.010854f, 0.030849f, -0.032583f, -0.021685f, -0.013518f, -0.008264f, -0.083324f, -0.000777f, 0.050926f, 0.074052f, 0.081899f, -0.013094f, 0.032029f, 0.002555f, 0.016559f, -0.007942f, -0.071153f, 0.037507f, -0.000105f, 0.042062f, 0.066903f, -0.088392f, -0.064712f, -0.014868f, 0.078508f, 0.091713f, -0.007786f, 0.024241f, -0.010948f, 0.055158f, 0.025008f, -0.015461f, 0.041613f, -0.131485f, -0.027044f, -0.006499f, 0.065683f, -0.017862f, -0.061516f, -0.003209f, -0.010712f, -0.075423f, -0.018319f, 0.055537f, -0.051535f, 0.035388f, -0.017057f, -0.102382f, 0.054638f, 0.024323f, -0.055687f, 0.024958f, -0.013320f, 0.035053f, -0.134462f, 0.033475f, 0.095789f, -0.011957f, 0.076005f, -0.061155f, -0.009359f, 0.035717f, -0.041653f, -0.022480f, -0.050732f, -0.026362f, -0.062766f, -0.106467f, 0.073546f, -0.028665f, -0.014202f, -0.006647f, 0.036267f, 0.068740f, 0.014795f, 0.008169f, 0.022105f, 0.029163f, -0.061635f, -0.013103f, -0.002603f, 0.034694f, -0.008012f, -0.085374f, -0.028953f, -0.012327f, 0.012175f, -0.093550f, 0.040902f, 0.022582f, 0.080098f, 0.017674f, -0.126449f, 0.010977f, 0.055284f, 0.034008f, 0.003433f, 0.017008f, 0.066027f, -0.062051f, 0.067280f, 0.091192f, -0.082886f, 0.067407f, -0.017523f, 0.034143f, 0.021130f, 0.021761f, 0.045197f, 0.012949f, 0.019292f, 0.062149f, 0.059269f, -0.087252f, 0.042931f, -0.043426f, 0.092334f, -0.058251f, -0.090224f, 0.039078f, 0.017448f, 0.015897f, -0.085874f, 0.033540f, 0.085415f, -0.013664f, -0.036225f, -0.028877f, -0.091315f, 0.059748f, 0.023236f, 0.027935f, -0.037631f, 0.025382f, 0.006940f, 0.061224f, -0.000421f, 0.081454f, 0.008334f, 0.016053f, 0.091972f, 0.052388f, 0.028329f, -0.103199f, 0.024790f, -0.001717f, 0.001336f, -0.072888f, 0.031616f, 0.033116f, -0.013573f, -0.070542f, 0.014428f, -0.038927f, 0.003952f, -0.040622f, -0.008077f, -0.038049f, -0.049750f, -0.003244f, 0.008268f, -0.042460f, -0.014825f, -0.009734f, 0.091323f, 0.007831f, -0.036820f, -0.078882f, -0.113978f, 0.001963f, 0.068798f, 0.077657f, 0.078160f, 0.101452f, -0.082131f, -0.048545f, -0.050860f, -0.078839f, -0.017114f, 0.031367f, -0.058999f, 0.066715f, -0.009937f, -0.058480f, 0.024812f, -0.093005f, -0.065053f, -0.027211f, 0.023531f, -0.010085f, -0.023683f, 0.074389f, 0.029254f, 0.039798f, -0.077417f, -0.011643f, -0.017967f, -0.016344f, -0.066646f, 0.036922f, 0.013602f, 0.008640f, 0.029488f, -0.005306f, -0.109885f, 0.010393f, -0.062874f, -0.072122f, 0.045389f, 0.040202f, 0.050237f, -0.039552f, 0.030973f, -0.045022f, -0.086724f, -0.060299f, 0.102953f, 0.022721f, 0.085067f, 0.013481f, 0.042075f, -0.020528f, 0.009486f, -0.010056f, -0.028605f, 0.114740f, -0.095098f, -0.019810f, 0.067110f, -0.110177f, -0.010135f, 0.020026f, 0.091233f, -0.045510f, 0.070368f, 0.008444f, -0.018449f, 0.010561f, 0.057589f, 0.048903f, 0.035207f, 0.076072f, -0.094068f, -0.002147f, -0.043936f, 0.001024f, 0.031277f, -0.026565f, -0.034733f, 0.093257f, -0.022234f, -0.013760f, -0.009313f, -0.030261f, -0.029195f, 0.022470f, 0.065710f, 0.008345f, 0.072261f, -0.014977f, 0.059170f, 0.032301f, -0.043239f, -0.005207f, -0.043368f, 0.029829f, 0.032212f, -0.099274f, 0.002775f, 0.050173f, 0.020587f, -0.122464f, -0.030347f, -0.115443f, -0.050393f, 0.050978f, 0.059403f, -0.048281f, 0.039028f, -0.002482f, -0.001681f, 0.047819f, 0.050285f, -0.069430f, -0.046946f, -0.039586f, 0.021215f, -0.016476f, 0.016155f, -0.045512f, -0.028617f, 0.009444f, -0.048573f, 0.001493f, -0.075892f, 0.007462f, 0.036886f, -0.091546f, 0.000576f, -0.064108f, 0.011399f, 0.054523f, -0.034872f, -0.080283f, -0.000276f, -0.041807f, -0.136568f, 0.099719f, -0.051846f, 0.043516f, 0.035903f, 0.090308f, 0.018449f, 0.046339f, 0.084623f, 0.014966f, -0.053563f, 0.020812f, -0.069705f, -0.063369f, -0.021924f, 0.021555f, -0.044147f, 0.047663f, 0.022197f, -0.018342f, 0.024820f, -0.035868f, -0.024967f, -0.039621f, -0.066535f, 0.029981f, 0.029594f, -0.027847f, 0.018856f, -0.061983f, 0.006382f, 0.037322f, -0.048250f, -0.075504f, 0.033878f, -0.027435f, 0.020905f, -0.011815f, 0.085856f, 0.088578f, 0.088414f, 0.063887f, -0.054161f, 0.044491f, -0.093754f, -0.006108f, 0.071528f, -0.000135f, -0.007614f, -0.070699f, 0.057422f, -0.025412f, -0.031305f, -0.039837f, 0.027077f, 0.036197f, -0.033058f, 0.002914f, -0.029365f, 0.051562f, 0.105068f, 0.046412f, -0.027057f, 0.066576f, 0.097509f, 0.000760f, 0.086721f, -0.016013f, -0.020991f, 0.052158f, 0.002762f, 0.047927f, -0.027641f, -0.062792f, -0.037242f, 0.041541f, -0.009689f, 0.098895f, -0.075370f, -0.011474f, -0.068381f, -0.100550f, 0.090284f, 0.048832f, -0.023055f, 0.029213f, 0.038456f, 0.028511f, -0.094863f, 0.077657f, 0.000873f, 0.014551f, -0.054214f, -0.035357f, -0.093786f, -0.061486f, -0.005129f, 0.055071f, 0.063766f, 0.012394f, 0.059252f, 0.086396f, 0.010036f, -0.016823f, 0.016548f, 0.097852f, -0.007435f, 0.004953f, 0.015321f, -0.010758f, 0.018218f, -0.086349f, 0.016301f, 0.060069f, 0.090762f, 0.001726f, 0.074213f, 0.064507f, -0.001129f, 0.011271f, 0.025151f, 0.085519f, -0.008806f, 0.059792f, -0.086482f, -0.020803f, 0.069123f, 0.078899f, -0.083972f, 0.084001f, -0.082621f, -0.088405f, 0.055305f, -0.023272f, 0.093542f, 0.041324f, -0.032740f, 0.064520f, -0.033474f, -0.028189f, 0.059425f, -0.030304f, 0.012422f, -0.073216f, 0.031889f, 0.086463f, 0.007677f, -0.050933f, 0.079157f, 0.017221f, 0.019211f, 0.001344f, 0.045384f, 0.023099f, -0.081408f, -0.010658f, 0.053724f, -0.099932f, 0.055583f, 0.070125f, 0.031716f, -0.074567f, -0.020265f, -0.007432f, -0.023009f, -0.012305f, 0.025777f, -0.044343f, -0.090746f, -0.001939f, 0.050294f, 0.013725f, 0.003774f, 0.019785f, -0.015173f, 0.027785f, 0.009725f, -0.010360f, -0.084756f, -0.037267f, 0.074649f, -0.067906f, -0.087578f, 0.070561f, 0.072490f, -0.017384f, -0.045061f, 0.029863f, -0.007477f, 0.016216f, 0.028326f, 0.051975f, 0.040774f, -0.002082f, 0.027066f, -0.014966f, -0.039259f, 0.037529f, 0.044197f, 0.011580f, 0.025131f, -0.077302f, -0.056447f, -0.103572f, -0.053377f, -0.014046f, -0.105360f, 0.081761f, 0.028133f, 0.068268f, -0.057176f, -0.094557f, -0.032512f, 0.013904f, 0.064849f, -0.026812f, -0.023444f, -0.018205f, 0.030765f, -0.010911f, 0.008450f, 0.039628f, -0.019921f, -0.074200f, -0.010893f, -0.034214f, -0.097555f, -0.059840f, -0.069650f, 0.039291f, 0.086029f, -0.041390f, -0.000414f, -0.027733f, 0.011142f, 0.023554f, 0.110251f, -0.109832f, 0.010588f, 0.043120f, 0.045669f, -0.032891f, 0.128276f, 0.037673f, -0.039183f, 0.009951f, 0.071921f, 0.028880f, -0.017077f, 0.049387f, -0.007177f, -0.029380f, -0.021248f, -0.020848f, 0.084690f, 0.000814f, 0.030823f, -0.101722f, -0.055918f, -0.054799f, -0.098004f, -0.026986f, -0.072513f, -0.009403f, -0.101818f, -0.038531f, -0.053795f, 0.029140f, 0.119753f, -0.083416f, 0.001532f, -0.125623f, 0.075151f, -0.062271f, -0.101767f, 0.014497f, -0.012495f, -0.058032f, 0.057638f, -0.029167f, 0.044946f, -0.050136f, -0.084644f, 0.066419f, -0.058611f, 0.039614f, 0.022739f, -0.092022f, 0.112057f, -0.026575f, 0.089093f, -0.044206f, 0.097774f, -0.110563f, 0.020239f, -0.000170f, 0.015450f, 0.055129f, 0.034446f, 0.033181f, -0.043889f, 0.007184f, -0.031851f, -0.010682f, -0.014849f, 0.077361f, -0.064780f, 0.038373f, -0.028356f, 0.020314f, -0.048579f, 0.060287f, -0.016111f, -0.001018f, -0.068457f, 0.012965f, -0.032181f, 0.001532f, 0.021007f, -0.034981f, -0.013749f, 0.107049f, -0.006076f, -0.070921f, -0.085648f, -0.058955f, -0.052081f, 0.063926f, -0.133260f, 0.059147f, -0.092858f, 0.063547f, -0.085055f, 0.024785f, -0.010935f, -0.020119f, -0.012734f, -0.011204f, 0.054332f, 0.093869f, 0.101249f, -0.004126f, 0.036979f, -0.043278f, -0.058125f, -0.043145f, 0.052614f, 0.053775f, -0.110254f, 0.016496f, 0.057462f, 0.024285f, -0.084353f, 0.026026f, -0.068984f, -0.003090f, 0.035430f, -0.004792f, 0.019875f, 0.008165f, 0.049560f, -0.115356f, 0.035821f, 0.040673f, 0.006446f, -0.072021f, 0.057171f, -0.079587f, 0.023259f, -0.094394f, 0.026239f, -0.060039f, -0.085159f, 0.082177f, -0.017860f, -0.065362f, -0.050431f, -0.010878f, -0.060873f, -0.046915f, 0.138964f, -0.132208f, -0.086341f, -0.020125f, -0.066999f, 0.035387f, -0.024272f, 0.068265f, -0.044932f, 0.013048f, 0.066024f, 0.065881f, 0.027644f, 0.009660f, 0.003963f, 0.019232f, 0.105491f, -0.037254f, -0.009357f, 0.007898f, -0.007876f, 0.070943f, -0.002878f, 0.016774f, 0.115383f, -0.089781f, -0.020979f, -0.068805f, 0.006691f, 0.050540f, 0.087593f, 0.048049f, -0.084308f, 0.035477f, 0.004118f, 0.000356f, 0.002048f, 0.021965f, 0.023539f, 0.022884f, 0.080312f, -0.071573f, -0.039762f, 0.011906f, -0.037807f, 0.037456f, 0.053360f, 0.069464f, 0.042226f, -0.029557f, 0.091028f, -0.021207f, -0.061345f, -0.049359f, 0.040753f, -0.015435f, 0.018376f, 0.050915f, 0.000271f, -0.018254f, 0.001021f, 0.003649f, -0.083884f, 0.006103f, 0.024039f, -0.078226f, -0.027177f, 0.058860f, 0.017036f, 0.062002f, 0.000541f, -0.043555f, 0.069388f, -0.037853f, 0.043853f, -0.034927f, -0.060588f, -0.014311f, -0.001610f, -0.072567f, -0.022330f, 0.081761f, 0.029342f, 0.101242f, 0.061200f, -0.014481f, -0.027168f, 0.012813f, 0.026965f, 0.059746f, 0.074312f, 0.060682f, -0.003632f, 0.004645f, 0.037488f, -0.063592f, 0.063375f, -0.056211f, -0.033872f, 0.049193f, -0.027779f, -0.036023f, -0.000042f, 0.031266f, 0.003960f, 0.083923f, -0.038903f, 0.023301f, 0.029960f, -0.052908f, 0.005398f, -0.108901f, -0.003016f, 0.040810f, 0.008908f, -0.033898f, -0.047817f, -0.082854f, 0.035283f, 0.079609f, 0.077548f, -0.020158f, 0.007188f, 0.071548f, 0.070188f, 0.018150f, -0.006091f, -0.037164f, -0.066221f, 0.030088f, -0.081311f, 0.040556f, 0.032820f, -0.013394f, 0.003365f, -0.067414f, -0.025929f, 0.019977f, 0.064135f, 0.067753f, 0.042941f, 0.069533f, -0.009860f, -0.038462f, 0.042439f, 0.024116f, 0.045619f, -0.010635f, 0.008394f, 0.022414f, -0.063703f, -0.040716f, 0.018882f, -0.083645f, -0.062941f, -0.073416f, 0.008999f, 0.002380f, -0.025399f, 0.037080f, -0.007191f, 0.113848f, 0.076874f, -0.046466f, -0.009874f, 0.034057f, -0.038040f, 0.001392f, 0.000972f, 0.066682f, -0.098418f, 0.012285f, 0.015140f, -0.022088f, -0.029903f, 0.068801f, -0.038833f, 0.007856f, -0.032677f, -0.006570f, 0.026159f, -0.043716f, -0.105596f, 0.031268f, -0.042244f, -0.079657f, -0.024090f, 0.075093f, -0.044065f, 0.014126f, -0.126829f, -0.079333f, -0.048878f, 0.070354f, -0.092003f, -0.098939f, -0.033157f, 0.004789f, -0.105179f, 0.013694f, -0.029347f, 0.032541f, 0.003505f, -0.025653f, -0.071329f, -0.054970f, -0.011300f, -0.071332f, -0.024308f, 0.041360f, 0.093343f, 0.047901f, 0.038812f, -0.015445f, 0.008297f, 0.038055f, 0.037515f, -0.014894f, -0.028810f, 0.076931f, -0.062040f, -0.054155f, 0.043586f, -0.059450f, -0.005921f, 0.103398f, -0.037814f, -0.018449f, -0.034282f, -0.013481f, 0.012012f, 0.028198f, -0.009667f, -0.053847f, -0.091717f, 0.079949f, -0.005840f, -0.035828f, -0.091587f, 0.059161f, 0.050050f, 0.000380f, -0.064465f, 0.038917f, -0.025501f, -0.019817f, 0.057047f, -0.019778f, 0.034866f, -0.033186f, -0.060041f, -0.023217f, -0.065810f, 0.092519f, 0.048447f, 0.011776f, -0.014047f, -0.074923f, 0.017508f, 0.020738f, -0.005978f, 0.021170f, -0.067366f, -0.058235f, 0.000342f, -0.082316f, 0.138501f, -0.047015f, -0.119293f, -0.038046f, 0.029952f, -0.013283f, -0.014775f, -0.047585f, -0.051174f, -0.006500f, 0.034197f, 0.061002f, -0.144407f, 0.017499f, 0.003747f, -0.044699f, 0.090430f, -0.039248f, 0.054924f, 0.010369f, 0.097748f, -0.015496f, -0.001341f, 0.082292f, -0.064125f, -0.103116f, 0.057400f, 0.020348f, 0.094480f, 0.005065f, 0.043061f, -0.004656f, -0.020708f, -0.011917f, 0.018261f, -0.031841f, 0.078761f, 0.015036f, 0.030878f, 0.075064f, -0.021615f, 0.099698f, -0.043502f, 0.072287f, -0.067761f, 0.099123f, -0.031598f, -0.036806f, 0.038297f, -0.028052f, 0.014199f, 0.004707f, 0.051181f, -0.019237f, -0.092297f, -0.055454f, 0.027827f, -0.061076f, -0.010476f, 0.024882f, -0.057150f, -0.003672f, 0.044357f, -0.033006f, 0.042300f, -0.027210f, -0.069405f, 0.051807f, -0.020618f, -0.017107f, -0.107269f, 0.006804f, 0.047245f, -0.068487f, 0.038255f, 0.058825f, -0.011392f, 0.002544f, 0.049025f, 0.054016f, 0.019573f, 0.082819f, -0.001178f, -0.021710f, 0.034872f, -0.037630f, 0.046516f, -0.009809f, -0.087253f, 0.084260f, -0.013519f, -0.126191f, 0.010819f, 0.056388f, 0.077041f, -0.058652f, 0.023151f, -0.036126f, -0.059587f, 0.053131f, 0.051588f, 0.011065f, -0.000889f, -0.003665f, -0.050610f, -0.003146f, -0.005900f, -0.109969f, 0.033653f, 0.028712f, -0.055363f, -0.014486f, -0.017365f, 0.045764f, -0.009597f, 0.112915f, 0.024082f, -0.079005f, 0.081320f, 0.042149f, -0.027015f, 0.086529f, -0.069292f, -0.068766f, 0.054139f, -0.002877f, -0.058924f, -0.047081f, 0.007230f, 0.075049f, -0.099141f, -0.001712f, 0.002508f, -0.074924f, -0.100264f, 0.051903f, -0.072747f, 0.063666f, 0.084578f, 0.023332f, -0.049848f, 0.023189f, -0.093793f, 0.094472f, 0.054649f, -0.017563f, 0.038834f, 0.052330f, 0.068062f, 0.016424f, 0.008408f, -0.013553f, 0.062223f, -0.037164f, 0.022616f, -0.096642f, 0.010814f, -0.010235f, 0.118361f, -0.131404f, -0.042075f, -0.046401f, -0.067623f, 0.030533f, -0.033317f, 0.009050f, 0.004750f, -0.031454f, 0.001869f, 0.072021f, 0.134291f, -0.012007f, 0.032450f, 0.055859f, -0.099201f, 0.006432f, 0.052238f, -0.059210f, -0.088720f, 0.103350f, -0.006197f, -0.017715f, -0.014763f, 0.006273f, 0.014640f, 0.021544f, 0.066570f, -0.035409f, -0.044244f, -0.033973f, -0.000673f, 0.052985f, 0.097545f, 0.100836f, -0.035028f, 0.036325f, -0.027092f, 0.026160f, -0.026027f, 0.036280f, 0.085678f, -0.003016f, 0.005004f, 0.085382f, -0.091027f, -0.045238f, -0.101345f, 0.064787f, 0.063494f, 0.004530f, 0.062461f, -0.015654f, 0.009332f, 0.046377f, -0.013070f, -0.023768f, 0.025541f, -0.046708f, -0.124043f, -0.004579f, -0.011797f, 0.049172f, 0.066157f, 0.009254f, 0.094980f, -0.055399f, -0.025485f, 0.082769f, -0.013060f, 0.028933f, -0.077139f, -0.082017f, -0.047214f, -0.006054f, 0.025593f, -0.031671f, 0.091437f, 0.097732f, -0.074846f, -0.020748f, 0.113337f, 0.035014f, -0.039326f, 0.029716f, 0.097475f, 0.011347f, -0.090893f, 0.015465f, -0.038916f, -0.020596f, -0.047775f, -0.010194f, -0.038939f, 0.025487f, -0.060491f, -0.105529f, -0.051665f, 0.010308f, -0.017413f, 0.017739f, 0.006787f, 0.092754f, -0.027980f, -0.009293f, 0.063785f, 0.015061f, -0.127769f, 0.050730f, -0.147361f, 0.020444f, 0.022537f, -0.029980f, 0.007019f, -0.078022f, -0.004850f, 0.010743f, -0.064191f, -0.074061f, 0.095124f, -0.014018f, -0.029236f, -0.019537f, 0.008565f, -0.005327f, -0.045695f, -0.022300f, -0.002033f, -0.104535f, -0.026822f, -0.007039f, -0.038296f, -0.064782f, -0.063887f, 0.106138f, 0.085766f, 0.124301f, -0.027370f, -0.054590f, -0.069231f, -0.080349f, -0.037577f, 0.009059f, 0.054284f, 0.015838f, -0.006790f, 0.024667f, -0.022444f, -0.010024f, 0.044196f, -0.059039f, 0.039963f, -0.061394f, 0.058295f, -0.064855f, 0.014908f, 0.037888f, -0.111094f, 0.022752f, 0.028445f, 0.057939f, 0.069337f, -0.018460f, 0.032706f, 0.039513f, 0.065040f, -0.035102f, -0.027318f, 0.003832f, 0.026132f, -0.001248f, -0.014148f, -0.001259f, 0.067676f, 0.020396f, -0.048992f, 0.077739f, -0.045491f, -0.037596f, -0.041844f, -0.050599f, -0.023854f, -0.013778f, -0.038869f, 0.024865f, -0.021341f, -0.064477f, 0.034387f, 0.073845f, 0.033766f, -0.033308f, 0.043730f, 0.100547f, 0.077558f, -0.041068f, 0.060846f, 0.030548f, 0.047406f, 0.017900f, 0.018536f, -0.079417f, -0.078351f, 0.028239f, -0.100432f, -0.002166f, 0.024711f, 0.054682f, -0.047803f, 0.105760f, 0.101110f, 0.021940f, -0.050272f, -0.061017f, 0.047431f, 0.004435f, -0.023596f, -0.047724f, 0.013754f, 0.003143f, 0.060484f, 0.023608f, -0.060996f, -0.076521f, -0.039321f, -0.054107f, -0.061682f, -0.027917f, -0.031078f, 0.037182f, -0.004384f, 0.005750f, 0.047314f, -0.036332f, -0.037535f, -0.093360f, 0.016519f, -0.039933f, 0.074074f, 0.026008f, -0.094391f, 0.064664f, -0.088952f, 0.072633f, 0.043797f, 0.108025f, 0.040484f, 0.060408f, -0.133423f, 0.014517f, 0.023186f, 0.073956f, -0.060350f, 0.013542f, 0.144102f, 0.059632f, -0.006727f, -0.099581f, -0.022637f, -0.014205f, 0.055635f, 0.020298f, -0.045625f, -0.045656f, -0.030587f, 0.129719f, 0.021504f, -0.013477f, -0.022590f, -0.114075f, 0.126379f, 0.020052f, 0.010186f, -0.010570f, 0.066608f, 0.008274f, -0.014128f, -0.081550f, -0.002241f, -0.094424f, 0.051593f, -0.146557f, 0.045979f, 0.057381f, 0.065231f, 0.047598f, 0.040075f, -0.050502f, 0.008386f, 0.014732f, -0.042789f, -0.008873f, 0.042501f, 0.094410f, -0.027613f, 0.038813f, -0.020720f, -0.046541f, 0.105985f, 0.097118f, 0.012966f, -0.033545f, 0.036660f, 0.012871f, 0.022958f, 0.038746f, -0.062807f, 0.001541f, 0.025256f, -0.072051f, -0.009995f, -0.066275f, -0.042323f, -0.007910f, 0.016645f, -0.090966f, -0.064106f, 0.044370f, 0.032657f, 0.000433f, -0.072401f, -0.015546f, 0.020852f, -0.076380f, 0.032429f, -0.049145f, 0.029622f, 0.058569f, 0.086141f, -0.089740f, -0.051062f, -0.025811f, -0.053577f, 0.034286f, 0.079825f, 0.073206f, 0.005559f, -0.001974f, -0.069936f, 0.088735f, 0.002043f, 0.010234f, 0.070197f, 0.046033f, 0.050533f, -0.066761f, 0.115545f, 0.020505f, -0.034349f, 0.009553f, -0.042610f, 0.036479f, -0.003507f, 0.025128f, -0.041705f, 0.049242f, -0.064801f, -0.014620f, 0.009205f, 0.107428f, -0.060158f, -0.087196f, 0.086929f, -0.023834f, 0.105872f, 0.001541f, 0.019673f, 0.006376f, -0.090387f, 0.043794f, -0.062992f, 0.046858f, -0.043046f, -0.046144f, -0.027106f, 0.008106f, -0.073824f, -0.040894f, -0.018237f, 0.036392f, -0.036535f, 0.104070f, -0.022129f, 0.053546f, -0.016544f, 0.016378f, 0.085831f, -0.096755f, 0.037028f, -0.030279f, 0.092925f, 0.012959f, -0.029473f, -0.037861f, -0.016094f, -0.079121f, -0.049498f, -0.053378f, 0.046041f, 0.014493f, -0.039640f, 0.013932f, 0.030321f, -0.092707f, -0.112117f, -0.072969f, 0.084036f, 0.102469f, -0.027926f, -0.016592f, -0.048686f, 0.009406f, 0.004811f, 0.063376f, 0.022487f, -0.062991f, -0.044145f, 0.046778f, 0.007073f, 0.038855f, 0.091716f, 0.018568f, 0.039145f, 0.034038f, 0.078539f, 0.045334f, 0.026404f, -0.045167f, 0.051222f, -0.028935f, 0.023515f, 0.031809f, 0.019521f, 0.018026f, 0.004042f, 0.009951f, -0.025564f, 0.037290f, 0.116297f, 0.095019f, -0.048414f, 0.070932f, 0.027590f, -0.009863f, -0.101255f, -0.015875f, 0.043841f, 0.018792f, 0.073315f, -0.096754f, 0.054129f, -0.100803f, -0.031636f, -0.031068f, -0.072227f, 0.004031f, -0.056466f, -0.056918f, -0.016509f, 0.006672f, -0.029023f, -0.120688f, 0.052561f, 0.043971f, 0.045647f, 0.118664f, -0.111693f, -0.052653f, 0.010085f, 0.092242f, 0.073894f, 0.018133f, 0.031804f, -0.079706f, 0.133765f, 0.070064f, -0.075903f, -0.022206f, -0.054172f, -0.002605f, 0.105758f, -0.035083f, -0.106399f, -0.035558f, 0.073678f, -0.010208f, -0.037774f, -0.050153f, 0.014975f, 0.060740f, 0.039661f, -0.087892f, -0.098451f, -0.054835f, -0.006011f, 0.122441f, -0.054921f, 0.085568f, 0.039774f, 0.017474f, 0.080467f, -0.065232f, -0.002261f, 0.053926f, -0.026970f, 0.027877f, 0.004460f, 0.109655f, -0.059811f, 0.011562f, -0.034640f, 0.049018f, -0.010426f, 0.017816f, -0.019373f, 0.023957f, 0.001039f, 0.004062f, -0.116150f, -0.074951f, -0.100965f, 0.010421f, -0.048099f, -0.052173f, 0.048769f, -0.027172f, 0.014002f, -0.069906f, 0.081115f, 0.034906f, 0.058133f, 0.007479f, 0.079435f, -0.037703f, -0.034570f, -0.055356f, -0.000441f, 0.002377f, -0.057864f, -0.085523f, -0.046544f, 0.040813f, -0.002195f, 0.024103f, -0.009942f, 0.020501f, 0.011941f, -0.032522f, -0.046506f, 0.003354f, 0.028271f, 0.010365f, -0.074132f, -0.003835f, 0.032282f, -0.020418f, -0.045672f, 0.034514f, -0.017659f, -0.059062f, 0.038030f, 0.041047f, 0.041015f, 0.053900f, 0.093329f, 0.076625f, 0.009294f, 0.069706f, -0.017089f, 0.014699f, -0.075490f, -0.026144f, -0.070490f, 0.086149f, -0.040181f, 0.023957f, -0.053826f, 0.047296f, 0.044748f, -0.027442f, 0.042898f, -0.119963f, 0.002732f, 0.006286f, -0.000953f, -0.018480f, -0.004869f, -0.113085f, 0.111968f, 0.000186f, -0.006808f, 0.007997f, -0.016569f, 0.108857f, 0.003158f, -0.008776f, 0.012543f, -0.043468f, 0.016386f, 0.030739f, 0.003781f, -0.019215f, 0.022357f, 0.031053f, -0.043000f, 0.017328f, 0.042102f, -0.006893f, -0.088749f, -0.082666f, 0.125775f, -0.020214f, -0.013736f, 0.032778f, -0.094588f, -0.080793f, -0.056228f, -0.008190f, -0.096512f, -0.098061f, 0.023983f, 0.035125f, -0.009920f, -0.054242f, -0.052731f, 0.035896f, 0.099819f, -0.071722f, -0.034206f, 0.104074f, 0.015259f, -0.101445f, 0.024028f, 0.017979f, -0.011680f, 0.091105f, 0.074775f, -0.056844f, 0.060621f, -0.007104f, 0.021859f, -0.075803f, 0.016238f, 0.058016f, -0.004395f, 0.054993f, 0.044045f, 0.108715f, 0.023568f, 0.050920f, 0.027589f, 0.030212f, 0.066822f, -0.128323f, -0.053883f, 0.031823f, 0.020849f, 0.100632f, -0.106704f, 0.129712f, -0.045930f, -0.047985f, -0.048970f, -0.027330f, 0.045769f, 0.019897f, 0.065871f, -0.007987f, -0.036304f, 0.045142f, -0.008139f, -0.060439f, -0.042084f, 0.023383f, 0.071778f, -0.003758f, -0.013087f, 0.063630f, -0.027900f, 0.075740f, -0.017172f, -0.026250f, 0.069596f, 0.097282f, -0.036188f, 0.049880f, -0.037267f, 0.053362f, 0.049001f, 0.123257f, 0.013863f, 0.083738f, 0.043662f, -0.002426f, 0.047374f, 0.044485f, -0.078142f, -0.016723f, 0.064589f, 0.046966f, -0.030070f, -0.054489f, -0.018881f, 0.054762f, -0.072965f, 0.057299f, -0.020300f, -0.038209f, 0.001974f, 0.058183f, -0.035599f, 0.010755f, -0.065254f, 0.042994f, 0.078055f, -0.154822f, 0.047204f, 0.037550f, -0.019667f, 0.004101f, -0.059233f, -0.021751f, 0.004853f, -0.101290f, 0.042355f, 0.059108f, 0.114666f, -0.009130f, 0.090642f, 0.044337f, -0.056946f, 0.021014f, -0.032458f, -0.024553f, 0.006366f, 0.088248f, 0.044012f, -0.035582f, 0.105491f, 0.010036f, -0.059127f, -0.008387f, -0.035002f, -0.030831f, -0.044323f, -0.062319f, -0.076008f, 0.058801f, -0.014561f, -0.005081f, 0.002031f, -0.025655f, -0.074121f, -0.042795f, -0.061589f, -0.021658f, -0.013519f, 0.015347f, 0.044314f, -0.040201f, -0.038568f, -0.021008f, -0.006262f, 0.047598f, -0.003967f, 0.063072f, -0.009840f, -0.007603f, 0.065938f, -0.102120f, 0.021988f, -0.036040f, 0.027491f, -0.027283f, 0.075617f, -0.008054f, 0.027740f, -0.073202f, -0.001383f, -0.021539f, 0.039309f, -0.148931f, -0.031829f, -0.008095f, -0.002002f, -0.013930f, 0.091501f, 0.075994f, 0.024953f, 0.108819f, -0.048395f, -0.061806f, -0.008086f, -0.005724f, 0.078553f, -0.005523f, 0.015503f, -0.108356f, -0.046462f, -0.019236f, 0.085182f, 0.003064f, 0.041502f, -0.063321f, -0.030380f, -0.089027f, -0.030834f, -0.015486f, 0.084931f, 0.066639f, -0.126183f, -0.034926f, -0.051319f, 0.061581f, 0.158991f, 0.021486f, -0.002538f, -0.022048f, -0.026847f, 0.005711f, 0.110993f, 0.070071f, 0.015619f, 0.055233f, 0.003947f, -0.074336f, 0.020284f, -0.029892f, 0.023320f, -0.083778f, -0.042660f, -0.004433f, -0.086794f, 0.062598f, 0.007400f, -0.046913f, 0.061016f, -0.061236f, -0.028258f, -0.030546f, 0.003044f, -0.071030f, 0.050600f, -0.028322f, 0.089118f, -0.055339f, -0.070911f, -0.033359f, 0.032324f, -0.066412f, 0.061396f, -0.051055f, -0.010404f, 0.015606f, -0.112146f, -0.025458f, 0.006166f, 0.011157f, -0.103797f, -0.090377f, 0.011023f, -0.128150f, 0.034025f, 0.108487f, -0.016494f, -0.046538f, -0.052816f, 0.055838f, 0.030948f, 0.006111f, 0.076299f, 0.044814f, -0.068731f, -0.032758f, 0.014951f, -0.028716f, -0.108287f, 0.033473f, -0.011555f, 0.080951f, 0.036017f, -0.036901f, 0.048783f, -0.057471f, 0.005013f, 0.010328f, -0.016311f, 0.012152f, -0.018872f, -0.058643f, -0.039726f, -0.007697f, 0.079812f, -0.044798f, 0.023413f, -0.038981f, -0.059413f, 0.022897f, 0.019318f, -0.064212f, -0.021327f, -0.015826f, -0.039845f, -0.026597f, 0.069372f, 0.023354f, 0.022629f, 0.029183f, 0.091519f, 0.006489f, -0.064224f, -0.037472f, 0.030769f, -0.003439f, 0.033598f, 0.058530f, 0.001858f, 0.026500f, -0.068043f, 0.013643f, 0.121357f, 0.064491f, 0.019312f, -0.019905f, 0.014826f, 0.067279f, -0.082857f, -0.006729f, -0.019062f, -0.066650f, -0.092258f, 0.030006f, -0.006019f, -0.064668f, 0.044337f, 0.092758f, -0.051808f, 0.006978f, 0.026466f, -0.022455f, 0.027517f, 0.115905f, 0.041394f, 0.029072f, -0.078488f, -0.035343f, 0.049420f, -0.045139f, 0.052061f, -0.033080f, 0.004291f, 0.044935f, 0.006801f, -0.074499f, 0.071493f, 0.057340f, -0.033263f, 0.057044f, 0.000663f, 0.071844f, 0.032995f, -0.039206f, 0.043817f, 0.052810f, -0.023723f, 0.162703f, -0.011545f, -0.073279f, 0.029140f, 0.040932f, 0.009257f, 0.019608f, 0.070272f, 0.016530f, -0.048624f, 0.069647f, -0.024709f, 0.058191f, -0.051788f, -0.057206f, 0.015680f, -0.088227f, 0.009648f, -0.046969f, -0.027867f, -0.024839f, 0.081309f, -0.052527f, 0.030400f, 0.012083f, -0.032433f, -0.001342f, 0.095772f, 0.033198f, 0.077988f, 0.020400f, -0.032339f, 0.011938f, -0.030761f, 0.077377f, -0.021592f, -0.085897f, -0.067282f, 0.011637f, 0.008221f, -0.003859f, -0.010103f, -0.076269f, 0.048907f, 0.000911f, -0.073774f, -0.029960f, -0.029506f, -0.023845f, -0.081220f, 0.006920f, -0.030744f, -0.008076f, -0.018891f, 0.067027f, 0.070743f, -0.084948f, -0.050290f, -0.028387f, 0.085920f, 0.001048f, 0.045456f, -0.040056f, -0.029587f, -0.090904f, -0.026385f, 0.034678f, 0.038234f, -0.008766f, -0.023778f, 0.059734f, 0.024398f, -0.078174f, 0.021319f, -0.045924f, 0.009716f, -0.066184f, 0.034886f, -0.005041f, -0.018366f, -0.019338f, -0.012321f, -0.005265f, -0.050106f, 0.078635f, 0.126726f, -0.003975f, -0.060422f, 0.062836f, 0.069688f, 0.116644f, 0.101855f, 0.032887f, -0.064797f, -0.055400f, -0.094379f, -0.058992f, 0.037238f, -0.021268f, 0.014013f, -0.054564f, 0.000791f, -0.016469f, -0.035894f, 0.067547f, 0.025953f, 0.005638f, -0.078242f, 0.030044f, -0.060778f, 0.002508f, 0.124473f, 0.038006f, 0.042164f, -0.073133f, 0.027792f, -0.057440f, 0.070396f, -0.043500f, -0.054676f, 0.022027f, 0.074193f, -0.030809f, -0.031392f, 0.101631f, 0.001687f, -0.045585f, -0.016805f, -0.017364f, 0.089006f, 0.122883f, 0.043629f, 0.069356f, 0.006394f, 0.001592f, -0.062842f, -0.036020f, -0.111139f, 0.095305f, 0.043484f, -0.055778f, 0.054880f, 0.016321f, 0.030701f, 0.034964f, -0.026853f, 0.031461f, -0.018173f, 0.021111f, -0.027900f, -0.094192f, -0.043011f, -0.019264f, -0.033394f, -0.021825f, -0.080926f, -0.016596f, 0.037955f, 0.053853f, 0.037539f, -0.090463f, 0.034466f, 0.023693f, 0.077934f, 0.006699f, -0.031119f, 0.023759f, -0.059140f, 0.017415f, 0.025449f, -0.027780f, -0.018393f, -0.065131f, 0.020555f, 0.138303f, -0.091174f, 0.058588f, -0.103016f, -0.028384f, 0.025318f, 0.015221f, -0.015065f, 0.020066f, 0.029358f, 0.020655f, 0.114011f, 0.012342f, 0.125460f, -0.006300f, -0.001414f, -0.027014f, -0.060133f, -0.002432f, 0.039589f, -0.052322f, -0.053314f, -0.012471f, -0.021646f, 0.025790f, 0.014530f, 0.038726f, 0.093202f, 0.036155f, -0.009452f, -0.030597f, -0.011707f, 0.046655f, -0.159570f, -0.036064f, 0.010975f, -0.067036f, -0.009977f, -0.032572f, -0.056292f, 0.032733f, -0.041694f, -0.010883f, 0.030926f, 0.081061f, 0.020463f, 0.120418f, 0.004531f, -0.074927f, 0.046997f, 0.034424f, 0.043384f, 0.015988f, -0.097445f, 0.005192f, 0.007274f, 0.049019f, -0.003221f, -0.047023f, -0.086794f, 0.024111f, -0.070599f, -0.052052f, 0.080883f, -0.032799f, -0.022028f, 0.027483f, 0.107157f, 0.029073f, 0.070242f, 0.114814f, -0.046438f, 0.013257f, -0.020078f, -0.002986f, 0.093019f, 0.019500f, -0.021058f, -0.064129f, 0.051223f, 0.082641f, -0.030007f, -0.004496f, -0.005637f, -0.003942f, 0.028764f, -0.024674f, 0.008248f, -0.029287f, -0.001071f, 0.037758f, -0.074526f, 0.061483f, -0.002516f, -0.000964f, -0.064845f, -0.018869f, 0.056396f, -0.013666f, -0.016563f, -0.104422f, 0.060150f, -0.049539f, -0.061663f, 0.021234f, -0.023859f, -0.027200f, 0.015096f, 0.009902f, -0.078803f, -0.053774f, 0.075646f, -0.056671f, 0.048422f, 0.096885f, 0.002260f, 0.030718f, -0.012898f, 0.084018f, 0.035648f, 0.063989f, -0.050742f, 0.005546f, 0.015233f, 0.000243f, -0.012878f, -0.069693f, 0.040090f, 0.004815f, -0.009309f, -0.007762f, 0.080717f, 0.069432f, 0.024496f, -0.057031f, -0.047135f, 0.009591f, 0.010989f, -0.017289f, 0.023056f, -0.036404f, 0.081140f, 0.012820f, 0.027866f, -0.094754f, -0.076798f, 0.052525f, -0.037782f, 0.099989f, 0.028078f, -0.015450f, -0.052191f, -0.088292f, 0.059534f, -0.004642f, -0.005937f, -0.025754f, -0.003648f, -0.061175f, -0.046962f, 0.022076f, -0.036926f, 0.024990f, -0.082186f, 0.067076f, -0.037674f, 0.021839f, 0.062964f, -0.046493f, -0.015364f, 0.010136f, -0.011768f, 0.022441f, -0.029636f, 0.027348f, -0.040521f, -0.033925f, 0.003225f, 0.005068f, 0.036582f, 0.018532f, 0.042657f, 0.019314f, 0.029594f, 0.080555f, 0.091417f, 0.015804f, 0.011923f, -0.094666f, 0.000903f, -0.038253f, 0.011858f, -0.018460f, -0.050524f, -0.000408f, -0.003092f, -0.052459f, -0.031452f, -0.004859f, -0.008717f, -0.004701f, 0.006569f, 0.033886f, 0.030287f, -0.029974f, 0.050235f, -0.031310f, -0.050217f, -0.025992f, 0.031569f, -0.047987f, -0.035415f, -0.109261f, 0.010715f, 0.046758f, -0.030863f, 0.021254f, 0.011550f, -0.001400f, 0.011879f, 0.116096f, -0.021171f, 0.002077f, -0.074846f, -0.033975f, 0.024756f, -0.020896f, -0.102995f, 0.041984f, -0.025314f, 0.033988f, 0.007616f, 0.084379f, 0.073926f, 0.001978f, -0.024465f, 0.053602f, -0.015803f, 0.015670f, 0.041454f, 0.025834f, -0.042026f, 0.009956f, 0.029499f, 0.070784f, -0.000392f, 0.041014f, 0.089476f, -0.080823f, -0.032848f, 0.060262f, -0.015881f, 0.049217f, -0.039845f, -0.096665f, 0.022132f, -0.115811f, -0.022984f, 0.059264f, -0.044446f, 0.080029f, 0.000377f, 0.049223f, -0.073872f, -0.079789f, -0.059208f, 0.058308f, 0.089315f, -0.005974f, -0.038793f, 0.080951f, -0.060443f, -0.035838f, 0.002841f, 0.056687f, -0.052492f, -0.032521f, 0.021883f, -0.062511f, -0.058885f, 0.000627f, 0.107161f, 0.042123f, 0.032965f, 0.002871f, -0.063329f, 0.046447f, -0.079740f, 0.021618f, 0.018013f, -0.045302f, -0.112973f, -0.088576f, 0.017546f, 0.084476f, -0.030168f, 0.058939f, -0.061028f, -0.080827f, -0.118221f, -0.043779f, 0.006924f, 0.086520f, 0.053783f, 0.063578f, -0.095914f, 0.031361f, 0.037188f, -0.107129f, 0.093653f, 0.030912f, -0.031143f, -0.027131f, -0.042169f, 0.004936f, -0.028531f, 0.139072f, -0.060866f, -0.033069f, -0.027982f, 0.030577f, -0.058117f, 0.012140f, 0.060037f, 0.081382f, 0.043676f, 0.080700f, -0.032106f, 0.036435f, -0.014737f, 0.020301f, -0.090371f, -0.006131f, -0.079763f, 0.089262f, -0.045811f, -0.041824f, 0.034326f, -0.114585f, -0.066268f, -0.009100f, -0.010375f, -0.018781f, 0.019451f, 0.046887f, -0.088869f, -0.016127f, -0.042141f, -0.005424f, -0.107065f, -0.117339f, 0.050413f, 0.009646f, -0.076851f, -0.016056f, 0.064682f, 0.014898f, 0.063420f, -0.040842f, -0.026547f, 0.074511f, 0.102845f, -0.055324f, 0.052908f, -0.058865f, -0.031736f, 0.015018f, 0.032037f, 0.072383f, -0.120303f, 0.029091f, 0.050499f, 0.063696f, -0.070342f, 0.006939f, 0.013289f, -0.053039f, 0.085240f, 0.057426f, -0.072067f, -0.058412f, -0.093211f, 0.048056f, -0.004992f, 0.020359f, -0.006872f, 0.005719f, -0.039600f, -0.061075f, 0.095293f, 0.070714f, 0.039925f, -0.121040f, -0.010419f, 0.013368f, 0.005689f, 0.092315f, 0.030906f, -0.083268f, 0.091165f, 0.079128f, -0.024778f, 0.000438f, -0.028943f, -0.018500f, -0.059731f, 0.022951f, 0.065506f, 0.057272f, -0.086896f, 0.046492f, -0.023304f, 0.097279f, 0.010210f, -0.032744f, -0.029712f, 0.052890f, -0.050792f, 0.050427f, -0.031126f, 0.007021f, -0.011362f, 0.041055f, 0.103715f, -0.076671f, -0.019749f, -0.027611f, 0.033768f, -0.003394f, 0.017421f, 0.082572f, 0.008513f, -0.057881f, 0.003147f, 0.075344f, -0.067940f, -0.077002f, -0.037544f, -0.062048f, -0.030621f, -0.065898f, 0.052160f, -0.051142f, -0.070792f, -0.030065f, 0.027435f, 0.066621f, 0.016155f, -0.004447f, 0.039949f, -0.065591f, -0.028097f, -0.055927f, -0.058225f, -0.027848f, 0.014287f, 0.042742f, -0.016618f, 0.030837f, -0.076060f, -0.014612f, 0.021086f, 0.015469f, -0.104121f, -0.056167f, -0.005110f, 0.011803f, 0.019984f, -0.003788f, -0.088744f, -0.048391f, -0.078085f, 0.111965f, 0.007313f, -0.080578f, 0.030339f, 0.028547f, -0.020532f, 0.055327f, 0.026382f, 0.009406f, -0.072858f, 0.028880f, 0.039572f, -0.045478f, -0.012817f, 0.050119f, -0.151988f, 0.045818f, -0.019965f, 0.029938f, -0.053377f, 0.106732f, -0.038577f, -0.016169f, 0.100901f, 0.072232f, 0.058276f, -0.002489f, -0.038145f, 0.082363f, 0.014355f, -0.017813f, -0.068749f, 0.093183f, -0.019542f, 0.069156f, -0.000797f, -0.005343f, -0.026833f, -0.026260f, -0.038596f, 0.021052f, 0.015066f, 0.052853f, 0.039312f, 0.107312f, -0.054445f, -0.046470f, 0.028976f, 0.106590f, 0.051740f, -0.004758f, 0.023514f, 0.003823f, 0.030946f, -0.080899f, -0.112486f, 0.072045f, -0.059678f, -0.035001f, -0.095087f, 0.113579f, 0.048313f, 0.068456f, 0.105710f, -0.025541f, 0.029525f, -0.071277f, -0.049518f, 0.074622f, 0.013588f, -0.061642f, 0.009377f, 0.005446f, -0.091209f, -0.035564f, -0.064033f, 0.007202f, 0.085099f, -0.029475f, -0.037826f, 0.016840f, 0.031136f, -0.043162f, -0.104279f, -0.061301f, 0.055965f, 0.109547f, 0.074339f, 0.113702f, 0.015402f, 0.043305f, 0.025361f, -0.062586f, 0.019612f, -0.021744f, -0.021106f, 0.017590f, -0.061860f, 0.084641f, -0.029200f, -0.038114f, -0.002022f, 0.006185f, 0.019433f, -0.030338f, 0.041786f, 0.095648f, 0.019470f, 0.016612f, -0.047082f, 0.072241f, 0.026119f, 0.048224f, -0.088194f, -0.078095f, 0.011452f, 0.095599f, -0.034158f, 0.080968f, -0.012530f, -0.044364f, -0.076953f, 0.090597f, -0.044564f, 0.030953f, -0.012362f, 0.034821f, -0.023754f, -0.011813f, 0.047494f, -0.017557f, 0.021514f, -0.032104f, -0.037315f, -0.072993f, -0.035627f, -0.125626f, -0.034949f, 0.054441f, -0.013937f, -0.000327f, -0.087143f, -0.010996f, 0.023521f, 0.066742f, 0.021682f, -0.012943f, 0.002030f, -0.001232f, -0.032665f, -0.037971f, -0.100887f, -0.010405f, 0.054915f, -0.050999f, -0.080464f, -0.052213f, 0.025909f, -0.002588f, -0.021100f, -0.057983f, -0.041093f, 0.063447f, -0.111220f, -0.048035f, 0.069623f, -0.022752f, -0.054372f, 0.045392f, 0.011625f, -0.034549f, -0.064101f, -0.077000f, 0.013186f, 0.133068f, 0.007359f, 0.040235f, 0.046101f, 0.026209f, -0.029440f, 0.006326f, 0.074650f, -0.000008f, -0.065656f, -0.007727f, 0.016160f, 0.022219f, -0.081298f, 0.038773f, 0.059077f, -0.008512f, -0.020421f, -0.094661f, -0.037713f, -0.024979f, 0.017806f, -0.077250f, 0.039220f, -0.004611f, -0.070004f, 0.030483f, 0.057312f, 0.076730f, 0.034045f, 0.055387f, -0.028324f, 0.063734f, -0.013092f, -0.014829f, 0.005382f, 0.049543f, -0.026939f, 0.077911f, -0.046642f, 0.005036f, 0.006556f, 0.086673f, -0.085935f, 0.078787f, 0.083833f, -0.048826f, 0.024597f, 0.028585f, 0.023286f, -0.010305f, 0.004822f, 0.015451f, -0.002474f, 0.037539f, -0.032120f, 0.083369f, -0.025529f, 0.042716f, -0.067719f, -0.036389f, -0.005239f, -0.017386f, 0.032140f, 0.042632f, 0.047292f, -0.027082f, 0.037739f, 0.063242f, 0.046848f, -0.068649f, 0.004404f, -0.020726f, -0.040970f, 0.026326f, 0.070559f, -0.110357f, 0.097730f, 0.029033f, 0.037616f, -0.036102f, 0.020304f, -0.010739f, 0.039171f, -0.031157f, -0.013755f, 0.079030f, 0.036376f, 0.030144f, 0.050267f, 0.136572f, 0.056322f, -0.022423f, -0.038425f, 0.009545f, -0.065805f, 0.057096f, -0.060861f, -0.072531f, -0.035779f, -0.026436f, 0.016499f, -0.042294f, -0.037091f, -0.085420f, -0.015985f, -0.013166f, 0.064950f, -0.048427f, 0.058377f, 0.052029f, 0.070498f, 0.108225f, -0.050665f, -0.051219f, 0.005712f, 0.071205f, 0.109472f, 0.106191f, -0.042331f, 0.102847f, 0.011622f, -0.038776f, -0.002400f, -0.040400f, 0.050459f, -0.032414f, -0.020949f, 0.008234f, 0.037177f, 0.090311f, 0.003023f, 0.017256f, 0.093837f, -0.068647f, -0.007650f, -0.029607f, -0.050248f, 0.019166f, 0.038502f, -0.068945f, 0.025190f, -0.002574f, 0.086756f, -0.059008f, 0.037923f, -0.071573f, 0.032843f, -0.062380f, -0.030618f, 0.014845f, 0.000957f, -0.055951f, -0.042257f, 0.047906f, -0.128958f, -0.056931f, -0.054677f, -0.078570f, 0.012364f, 0.000789f, -0.033042f, 0.020925f, 0.066700f, 0.034003f, -0.042736f, -0.026622f, 0.077799f, -0.035918f, -0.098435f, 0.072977f, 0.010938f, -0.028177f, -0.047864f, -0.051477f, 0.053205f, -0.053447f, 0.000722f, 0.069945f, -0.090310f, 0.086630f, 0.053315f, 0.024370f, 0.000606f, -0.025818f, -0.039315f, -0.100955f, 0.101271f, -0.071579f, 0.013617f, -0.006203f, -0.012957f, -0.055741f, -0.070319f, -0.084579f, 0.120418f, -0.025586f, 0.087016f, 0.002681f, -0.060060f, 0.040168f, -0.029175f, 0.088500f, 0.035982f, -0.015539f, -0.000876f, -0.053865f, 0.133214f, -0.037534f, 0.012597f, 0.012902f, 0.050694f, -0.088871f, 0.023798f, -0.007925f, 0.053817f, -0.090062f, -0.042992f, -0.002809f, -0.035720f, -0.052771f, 0.049664f, -0.056297f, 0.081605f, 0.081169f, 0.011765f, -0.054512f, -0.052372f, -0.080575f, -0.103501f, -0.046310f, 0.022089f, 0.045635f, -0.027043f, 0.044969f, -0.013633f, -0.040710f, -0.010060f, 0.020575f, -0.040245f, 0.040810f, 0.116560f, 0.021311f, -0.051279f, 0.047884f, 0.008516f, -0.023652f, 0.038107f, 0.043653f, 0.050817f, -0.004452f, 0.064321f, -0.012755f, -0.006912f, -0.048001f, 0.043719f, -0.012454f, -0.022429f, 0.060458f, 0.034600f, -0.011262f, 0.052223f, -0.021973f, 0.038450f, -0.033290f, 0.100483f, -0.078879f, -0.063657f, -0.037106f, -0.002427f, 0.006254f, -0.037156f, -0.019926f, -0.054941f, 0.062527f, -0.027487f, 0.013346f, -0.008771f, -0.097782f, 0.056297f, 0.013832f, 0.028262f, -0.006494f, -0.076038f, 0.022263f, 0.061184f, 0.019026f, -0.063510f, -0.077819f, -0.000600f, 0.029209f, 0.018678f, -0.082819f, 0.027695f, 0.038212f, -0.077317f, -0.075874f, -0.087296f, 0.007712f, 0.098734f, -0.063265f, -0.008695f, 0.052842f, -0.010661f, -0.053323f, -0.017022f, -0.017675f, 0.020032f, -0.023230f, -0.051422f, -0.093505f, 0.041327f, -0.006068f, 0.060384f, 0.015438f, -0.063591f, -0.028634f, 0.015319f, -0.038691f, -0.005825f, -0.015995f, 0.064076f, -0.084397f, -0.054074f, -0.067454f, -0.048052f, -0.107859f, 0.027313f, -0.101252f, -0.068438f, -0.044279f, -0.093553f, 0.066096f, -0.056817f, -0.112737f, -0.028519f, -0.032274f, 0.083117f, 0.033483f, -0.016140f, -0.059800f, -0.096506f, 0.085569f, 0.024394f, -0.002869f, 0.006433f, 0.019236f, 0.050416f, -0.017046f, 0.008734f, -0.030107f, -0.068920f, 0.015611f, -0.019814f, 0.081126f, 0.003986f, -0.018923f, -0.026890f, 0.081124f, 0.021998f, 0.028566f, -0.063534f, 0.098723f, -0.103859f, 0.066362f, -0.022681f, -0.050461f, -0.059476f, 0.015382f, -0.000966f, 0.046321f, -0.010140f, -0.023962f, -0.050696f, 0.025140f, -0.071160f, 0.028481f, 0.037016f, -0.018598f, 0.100137f, 0.036255f, 0.063976f, -0.068009f, -0.014888f, 0.075561f, 0.024137f, 0.048609f, -0.097848f, -0.085545f, 0.049141f, -0.028683f, 0.004933f, 0.049142f, -0.014975f, -0.087221f, -0.059636f, 0.019629f, 0.055095f, -0.015508f, -0.029034f, 0.000818f, 0.063604f, 0.062112f, 0.074969f, -0.118031f, -0.082977f, 0.021975f, 0.085061f, 0.016598f, -0.021662f, 0.046820f, -0.035908f, 0.001912f, 0.041319f, 0.018191f, -0.007601f, 0.003855f, -0.018156f, -0.002994f, -0.003314f, 0.031538f, -0.061391f, -0.055179f, -0.042128f, -0.074998f, 0.026391f, 0.058443f, 0.026085f, 0.053474f, -0.031978f, 0.080143f, -0.065392f, -0.076936f, -0.116882f, -0.008364f, 0.094325f, -0.044480f, -0.128465f, 0.070666f, -0.025105f, 0.019590f, 0.062652f, 0.144971f, 0.007684f, 0.058129f, -0.004385f, 0.063897f, 0.006861f, -0.070049f, 0.013289f, -0.012624f, -0.005075f, 0.038974f, 0.072853f, -0.075211f, -0.007213f, 0.029330f, 0.119600f, 0.088631f, -0.104516f, 0.029964f, -0.120806f, -0.002506f, -0.020194f, -0.077214f, 0.044157f, -0.126882f, -0.014652f, -0.051654f, 0.022308f, 0.039950f, 0.087946f, 0.080056f, -0.025518f, -0.052238f, -0.062062f, -0.021218f, 0.055683f, 0.016968f, -0.033288f, -0.014264f, -0.001375f, -0.024259f, 0.008301f, 0.006050f, 0.096620f, -0.064400f, -0.012653f, -0.074701f, -0.054761f, 0.095890f, -0.027785f, 0.080145f, -0.053583f, 0.004896f, 0.076621f, -0.026745f, 0.024369f, -0.087844f, -0.035537f, -0.009885f, -0.050079f, -0.088876f, -0.081442f, 0.089203f, -0.022850f, -0.090782f, 0.046720f, 0.051199f, 0.071458f, 0.062574f, -0.000539f, 0.071050f, -0.036518f, 0.008885f, 0.050708f, 0.018890f, -0.006616f, 0.066381f, -0.005213f, 0.023659f, 0.008160f, -0.044458f, 0.044367f, -0.042294f, 0.010852f, -0.017339f, -0.069123f, -0.019257f, -0.010067f, -0.016546f, -0.066834f, -0.046088f, -0.088210f, -0.039623f, -0.071735f, -0.051573f, 0.054750f, 0.038746f, -0.010064f, 0.025082f, 0.013106f, -0.040763f, -0.086275f, -0.046200f, 0.046378f, 0.063103f, 0.006563f, 0.059628f, -0.034143f, 0.004326f, -0.016393f, -0.040180f, 0.067607f, 0.003406f, 0.048433f, -0.024525f, -0.058077f, -0.005710f, -0.059767f, 0.047857f, -0.014645f, 0.053727f, -0.004479f, 0.108431f, 0.032534f, 0.029421f, 0.036484f, 0.016004f, 0.047158f, 0.021714f, -0.076914f, 0.060098f, 0.029011f, 0.019147f, 0.050060f, -0.087353f, 0.059113f, 0.027924f, -0.021652f, -0.018970f, 0.085297f, -0.052770f, 0.038801f, -0.017774f, 0.063006f, 0.061885f, -0.025557f, -0.024369f, 0.072107f, -0.025507f, -0.044446f, 0.061293f, 0.032880f, -0.030534f, 0.011258f, -0.094891f, -0.029393f, 0.041493f, 0.010016f, 0.008844f, 0.054358f, -0.110979f, 0.003076f, 0.003602f, 0.073936f, -0.073442f, 0.100526f, -0.042611f, 0.038055f, -0.028292f, 0.063152f, 0.015741f, 0.108407f, -0.066227f, 0.010066f, 0.046435f, 0.055287f, -0.042820f, -0.000575f, 0.112900f, -0.043546f, 0.029139f, -0.097424f, -0.063943f, 0.052638f, -0.032260f, 0.039876f, 0.124348f, -0.012549f, 0.020153f, -0.121158f, 0.013953f, -0.085429f, 0.089474f, -0.043263f, 0.066303f, -0.017427f, -0.001903f, 0.011378f, -0.025498f, 0.046231f, -0.045723f, 0.037450f, -0.036084f, -0.007979f, -0.070569f, 0.049796f, -0.086399f, 0.064529f, 0.077747f, -0.059700f, -0.000918f, -0.049488f, 0.000861f, -0.013018f, 0.022591f, 0.007270f, -0.037624f, -0.030031f, -0.148773f, 0.039765f, -0.007967f, 0.070177f, -0.025906f, -0.013968f, -0.032293f, -0.006256f, -0.015624f, -0.023503f, 0.018253f, 0.034760f, -0.015195f, -0.077925f, 0.113503f, -0.078508f, 0.063324f, 0.030347f, -0.007869f, 0.113891f, -0.031841f, 0.023334f, -0.056878f, -0.016533f, 0.021411f, 0.039222f, 0.057700f, -0.050053f, 0.058187f, -0.061423f, -0.108447f, -0.019839f, 0.026031f, -0.060585f, 0.072372f, -0.028821f, -0.030663f, -0.085256f, 0.066473f, 0.088795f, -0.024910f, -0.052398f, 0.013102f, -0.043766f, -0.152675f, -0.039183f, -0.076466f, 0.038935f, -0.055947f, 0.126502f, 0.052365f, -0.004788f, -0.036479f, -0.045577f, -0.021582f, 0.017308f, 0.039755f, 0.041016f, 0.065423f, -0.032918f, 0.040038f, -0.014343f, -0.000500f, -0.020315f, -0.102290f, 0.004457f, 0.013091f, -0.024004f, -0.024292f, 0.105608f, -0.025771f, 0.030451f, 0.027164f, -0.036908f, -0.062358f, 0.002127f, 0.060410f, -0.007990f, 0.028574f, -0.072344f, -0.042798f, -0.125361f, -0.002148f, 0.004032f, 0.052024f, -0.034781f, 0.014505f, 0.004769f, -0.045015f, -0.012854f, 0.002174f, -0.027810f, -0.023214f, -0.036851f, -0.002958f, 0.023088f, -0.013219f, 0.088030f, -0.059072f, -0.038637f, -0.004435f, -0.085477f, 0.065525f, -0.111910f, 0.084227f, 0.051727f, -0.033766f, 0.057406f, 0.057478f, -0.024101f, 0.032978f, -0.110596f, -0.012293f, -0.054323f, -0.036406f, 0.053864f, 0.006514f, 0.037371f, -0.052303f, -0.044505f, -0.058157f, -0.039016f, -0.052022f, 0.027933f, 0.060517f, 0.046756f, 0.031732f, 0.051493f, 0.007943f, -0.067130f, -0.046508f, 0.030650f, 0.015182f, -0.024970f, -0.043817f, 0.019872f, -0.084165f, 0.064227f, -0.071910f, 0.032584f, -0.008523f, -0.023156f, 0.083686f, -0.009292f, 0.006323f, -0.079332f, -0.006458f, 0.020690f, 0.005108f, -0.063588f, -0.030012f, 0.004820f, -0.005300f, -0.069857f, 0.025316f, -0.083338f, 0.043499f, -0.101286f, 0.102230f, -0.004532f, 0.051789f, -0.055896f, 0.058915f, 0.050490f, 0.093394f, -0.007334f, -0.042998f, -0.110481f, 0.025939f, 0.014377f, -0.060036f, 0.041195f, -0.062380f, 0.104863f, 0.113581f, -0.050643f, -0.018986f, -0.091517f, 0.034261f, 0.057047f, 0.068472f, -0.073199f, 0.049123f, -0.045060f, 0.042125f, -0.141937f, 0.033216f, -0.032437f, 0.027569f, 0.075041f, -0.082579f, -0.009629f, 0.057643f, -0.013643f, -0.034300f, -0.050622f, 0.055918f, -0.084887f, -0.115101f, -0.106577f, -0.039830f, 0.131139f, 0.073812f, 0.013202f, -0.036931f, 0.082470f, -0.031112f, -0.047629f, 0.071375f, 0.101021f, 0.050700f, 0.123569f, -0.006518f, 0.011058f, 0.015882f, -0.060357f, 0.009398f, 0.049746f, 0.047042f, -0.037169f, 0.080719f, -0.000144f, -0.011176f, -0.003437f, -0.033915f, 0.013562f, -0.100775f, -0.055659f, -0.023444f, -0.061974f, 0.058250f, -0.057707f, 0.082470f, 0.012105f, -0.090714f, 0.059408f, 0.071952f, -0.040077f, 0.087143f, -0.022736f, 0.000637f, -0.050222f, 0.008972f, -0.021163f, -0.041796f, -0.107436f, 0.021619f, 0.019526f, -0.014039f, -0.040269f, 0.025180f, 0.024121f, -0.018893f, 0.064516f, 0.044153f, 0.030162f, -0.023439f, 0.014730f, 0.040395f, -0.035126f, 0.018119f, 0.048810f, 0.022214f, 0.073315f, 0.013457f, -0.109955f, 0.036190f, -0.106101f, 0.002064f, 0.085824f, -0.016856f, 0.039069f, 0.013760f, -0.028707f, -0.047246f, 0.074338f, 0.071874f, -0.059818f, 0.089607f, -0.112095f, -0.071630f, -0.048980f, -0.074781f, -0.096071f, 0.071869f, -0.031833f, 0.086106f, -0.038169f, -0.019326f, -0.040033f, 0.000038f, 0.001399f, 0.008578f, -0.048463f, 0.117167f, 0.000584f, 0.046994f, -0.117879f, -0.032727f, -0.007890f, -0.004435f, 0.009697f, 0.001421f, -0.002962f, 0.040362f, 0.047999f, 0.013290f, -0.036698f, 0.038031f, 0.011959f, -0.039836f, -0.024822f, -0.010452f, -0.071912f, -0.069227f, -0.032931f, 0.061520f, 0.066442f, 0.054264f, 0.027973f, -0.084402f, 0.082290f, 0.031419f, -0.019538f, 0.067015f, 0.178846f, 0.031733f, 0.003071f, -0.052370f, -0.040762f, -0.019954f, 0.073778f, 0.064305f, 0.098584f, -0.014988f, -0.156617f, 0.093279f, 0.055560f, -0.029955f, -0.021096f, 0.005095f, 0.048606f, -0.007278f, -0.074466f, 0.076132f, 0.021047f, -0.046676f, 0.004599f, 0.001442f, -0.030898f, -0.067949f, -0.026888f, 0.032214f, 0.054205f, -0.026717f, 0.020807f, -0.016395f, -0.039844f, -0.049540f, 0.100941f, 0.071685f, -0.097783f, 0.013494f, 0.071676f, 0.085452f, -0.080062f, 0.010359f, -0.069703f, -0.000071f, 0.128917f, -0.004985f, 0.066332f, -0.068356f, 0.053073f, 0.006810f, -0.081936f, 0.065562f, -0.016560f, -0.072655f, 0.070268f, 0.020019f, 0.028136f, 0.010886f, 0.028371f, -0.086653f, 0.067130f, 0.076751f, -0.002728f, 0.020630f, 0.045942f, -0.097830f, -0.004436f, 0.103867f, -0.081644f, -0.032287f, 0.028479f, -0.042211f, -0.004421f, -0.075963f, 0.040126f, 0.015432f, -0.037780f, 0.069145f, -0.009674f, -0.007525f, -0.029325f, 0.009144f, -0.036589f, -0.053825f, 0.025851f, -0.077928f, -0.043092f, -0.106437f, -0.064038f, -0.062034f, 0.126997f, -0.033100f, -0.028172f, -0.024630f, 0.072902f, 0.049496f, -0.014437f, 0.096172f, -0.024576f, -0.052893f, -0.026510f, -0.051628f, -0.065142f, 0.013008f, -0.015858f, 0.009277f, -0.068904f, -0.009161f, 0.013523f, 0.082163f, 0.027858f, 0.014974f, -0.016196f, -0.066450f, -0.032381f, -0.070517f, -0.063623f, -0.083478f, 0.069968f, -0.088703f, 0.041119f, -0.051759f, 0.063695f, 0.027664f, -0.014301f, -0.040697f, 0.016219f, 0.056867f, -0.038087f, -0.064465f, 0.007554f, -0.024560f, 0.000115f, -0.085312f, -0.050988f, 0.021100f, -0.018405f, -0.046881f, -0.034396f, 0.054903f, -0.007891f, -0.053414f, -0.019880f, -0.000040f, 0.075878f, 0.042577f, -0.080901f, 0.033479f, -0.027968f, -0.104810f, 0.035843f, -0.011797f, 0.042562f, -0.037212f, -0.029519f, 0.089623f, -0.004328f, 0.077063f, 0.136518f, -0.089675f, 0.051267f, -0.030415f, 0.022848f, -0.015609f, 0.063426f, 0.034633f, 0.073026f, -0.071473f, -0.086610f, 0.040004f, -0.020816f, -0.034659f, -0.077788f, 0.022178f, -0.044808f, -0.053383f, 0.105184f, -0.084278f, -0.104701f, -0.032441f, 0.024138f, -0.012441f, 0.057374f, 0.007782f, 0.042998f, 0.018587f, -0.108349f, -0.081841f, 0.109638f, 0.014597f, -0.008503f, 0.005837f, 0.102853f, -0.008525f, -0.042569f, -0.042273f, -0.040958f, 0.053565f, 0.048900f, -0.109613f, -0.012107f, 0.053427f, 0.059304f, 0.004539f, 0.084434f, -0.087280f, 0.077303f, 0.043717f, -0.081890f, 0.026911f, -0.008375f, -0.152179f, -0.037992f, 0.039168f, 0.027238f, 0.019597f, 0.020604f, 0.018260f, -0.034267f, -0.037509f, -0.009501f, -0.083708f, -0.029101f, 0.090483f, 0.038729f, 0.084038f, -0.035366f, -0.017184f, 0.063038f, -0.065853f, -0.002930f, -0.072569f, 0.041551f, -0.068409f, 0.043170f, 0.030096f, -0.019095f, 0.035706f, 0.036517f, 0.077540f, -0.011456f, 0.065191f, -0.006946f, 0.044416f, 0.021845f, -0.040000f, 0.003591f, 0.073226f, 0.004699f, -0.039769f, 0.003030f, 0.031119f, 0.097832f, 0.104459f, -0.064760f, -0.017264f, 0.020008f, 0.047028f, -0.035433f, 0.016066f, -0.031760f, -0.045299f, -0.022298f, -0.006116f, -0.025447f, 0.017972f, -0.032265f, 0.036231f, -0.057333f, -0.030882f, 0.000228f, -0.020989f, 0.045037f, 0.039330f, 0.029762f, 0.041597f, -0.065583f, -0.051753f, -0.025770f, 0.011719f, 0.057706f, -0.009684f, -0.001564f, -0.042556f, -0.097606f, 0.014929f, -0.062052f, -0.043447f, -0.022138f, -0.056454f, 0.062442f, -0.005487f, 0.019361f, 0.090548f, -0.026846f, 0.042591f, -0.084028f, -0.024601f, -0.049652f, 0.072612f, 0.081667f, 0.047009f, 0.030381f, 0.013286f, -0.046357f, 0.051014f, 0.067724f, -0.008422f, 0.091545f, 0.018208f, -0.034688f, -0.000233f, -0.047060f, -0.071634f, -0.001835f, 0.049196f, -0.070545f, -0.032174f, 0.076483f, -0.045609f, -0.056851f, 0.000761f, -0.059117f, 0.030046f, -0.035946f, 0.024090f, -0.016515f, 0.050915f, -0.074429f, -0.057456f, -0.116865f, -0.088356f, -0.096267f, -0.044710f, 0.107324f, 0.011049f, -0.051842f, -0.042697f, -0.043398f, -0.095225f, 0.100312f, 0.032057f, 0.000559f, 0.000131f, -0.060865f, 0.001742f, 0.001145f, -0.056183f, -0.079617f, 0.094938f, 0.000507f, -0.045471f, 0.026019f, 0.040535f, 0.020612f, -0.094087f, 0.040127f, 0.008023f, -0.045994f, 0.076792f, -0.052672f, 0.052468f, -0.022793f, 0.081712f, -0.073521f, 0.080391f, -0.094600f, 0.063991f, 0.041931f, -0.004753f, 0.071202f, 0.026976f, -0.051989f, 0.036019f, 0.011463f, -0.044366f, -0.124223f, -0.065337f, -0.109371f, 0.004571f, -0.076683f, 0.004343f, -0.013757f, -0.085717f, 0.003929f, 0.032414f, 0.088533f, -0.064105f, -0.017220f, 0.007410f, 0.088497f, 0.005543f, 0.007157f, -0.102677f, 0.038276f, -0.037827f, -0.029126f, 0.053242f, -0.015027f, -0.002953f, 0.093927f, -0.064422f, 0.034345f, 0.134284f, 0.003598f, -0.012434f, -0.058205f, 0.017971f, 0.007703f, -0.052638f, 0.120147f, -0.056359f, 0.047730f, -0.088754f, -0.004165f, 0.050208f, -0.001715f, -0.013609f, 0.004172f, 0.031623f, 0.058963f, -0.044260f, -0.015269f, 0.063444f, 0.099460f, -0.055009f, 0.065104f, -0.031071f, 0.011407f, -0.039099f, 0.015909f, 0.003175f, -0.043645f, 0.000325f, 0.089334f, 0.000101f, -0.000908f, 0.046119f, -0.090782f, -0.007290f, 0.033589f, 0.066986f, -0.045764f, -0.029130f, 0.058506f, 0.044319f, 0.071539f, 0.024971f, 0.039505f, 0.065040f, 0.004851f, 0.002070f, 0.009429f, 0.075760f, -0.010658f, -0.037284f, -0.005271f, 0.030282f, -0.066375f, 0.047910f, 0.026743f, -0.013798f, -0.026536f, -0.075936f, 0.052107f, 