
#include <eml_net.h>
static const float mynet_layer_0_biases[128] = { -0.085850f, -0.006592f, 0.087340f, 0.051356f, -0.039176f, -0.082111f, 0.062141f, -0.057127f, -0.004808f, 0.080010f, 0.010624f, 0.120351f, -0.003043f, -0.027402f, -0.063499f, 0.094133f, 0.076430f, -0.067376f, -0.028720f, -0.023430f, 0.022640f, -0.027448f, 0.024132f, -0.076169f, -0.005879f, 0.188352f, 0.075925f, 0.027193f, -0.010645f, 0.082619f, 0.046761f, 0.038463f, -0.065373f, 0.029146f, 0.002191f, -0.104141f, -0.042865f, -0.016022f, -0.048395f, 0.004595f, 0.043749f, -0.007692f, 0.031021f, -0.082793f, 0.023457f, -0.044770f, 0.033522f, 0.096920f, 0.099119f, 0.101133f, 0.024555f, 0.091691f, 0.032110f, 0.029948f, -0.036893f, 0.020660f, -0.054761f, 0.067089f, -0.009704f, -0.002233f, -0.077203f, 0.041758f, 0.090055f, 0.024914f, 0.034489f, -0.121075f, -0.090902f, -0.032216f, -0.033283f, 0.016499f, -0.065520f, 0.032708f, -0.036048f, 0.063335f, 0.027083f, -0.052516f, 0.059251f, 0.098699f, 0.137228f, 0.027522f, -0.069718f, 0.066094f, -0.023815f, -0.019750f, -0.041832f, 0.045919f, 0.000761f, 0.036041f, -0.015960f, 0.042612f, -0.000743f, 0.059751f, 0.054873f, 0.048240f, -0.005969f, -0.027160f, -0.037728f, 0.082456f, -0.014936f, 0.027446f, 0.014318f, 0.063500f, -0.073106f, -0.037939f, -0.058690f, 0.066392f, -0.005448f, -0.093191f, -0.006389f, -0.088314f, 0.066632f, -0.017128f, -0.034237f, 0.075422f, -0.100069f, 0.198570f, 0.017508f, -0.101235f, -0.063354f, 0.100780f, 0.025300f, 0.047192f, -0.076168f, 0.090880f, -0.032963f, 0.138699f, -0.034896f, 0.014720f };
static const float mynet_layer_0_weights[104832] = { 0.059440f, 0.022195f, 0.067028f, -0.014430f, -0.058762f, -0.040968f, -0.065649f, 0.055508f, -0.009878f, 0.134091f, -0.043005f, 0.039761f, 0.037578f, -0.018828f, -0.055797f, -0.078170f, -0.012831f, 0.120649f, 0.013928f, -0.082732f, 0.069727f, 0.009564f, -0.094618f, -0.015751f, -0.005855f, -0.006828f, 0.037297f, 0.018810f, 0.011368f, -0.098917f, 0.059988f, -0.018484f, -0.039869f, 0.064314f, 0.122009f, 0.121496f, -0.015196f, -0.080185f, -0.022242f, -0.015886f, -0.080613f, -0.033104f, -0.077036f, 0.061202f, -0.065727f, 0.017438f, -0.026166f, -0.000596f, -0.004363f, -0.090999f, 0.041841f, 0.073080f, 0.032622f, 0.100539f, 0.032140f, 0.000548f, -0.075576f, -0.037678f, -0.045439f, -0.011143f, -0.098715f, -0.026387f, 0.035345f, -0.020202f, 0.085164f, -0.069865f, -0.057697f, 0.020267f, -0.099900f, 0.047744f, 0.014971f, -0.065466f, -0.116010f, 0.020594f, -0.005030f, 0.022721f, -0.000744f, -0.044071f, -0.055769f, -0.029699f, 0.042207f, 0.069246f, 0.027481f, -0.129478f, -0.008169f, -0.006122f, -0.036995f, 0.027902f, 0.110154f, 0.023548f, -0.100141f, 0.029469f, 0.047743f, 0.000328f, -0.005666f, -0.037746f, -0.078662f, -0.063218f, -0.103091f, -0.094076f, -0.046695f, -0.020583f, -0.139069f, 0.014380f, 0.067579f, -0.000783f, 0.005983f, 0.021571f, -0.099188f, -0.042182f, -0.018301f, -0.006226f, 0.077133f, 0.043036f, 0.083913f, 0.041533f, 0.036915f, -0.007536f, -0.031357f, 0.002108f, 0.039304f, 0.062581f, -0.034600f, -0.105411f, -0.112255f, -0.051209f, 0.139478f, 0.034613f, -0.049881f, -0.051324f, 0.016140f, -0.077017f, -0.049526f, 0.003774f, 0.107324f, -0.024313f, 0.012768f, 0.062047f, -0.023918f, 0.040620f, 0.093257f, 0.020983f, 0.022996f, -0.043082f, -0.047945f, -0.055191f, 0.012989f, -0.025882f, -0.030180f, 0.023690f, 0.015392f, -0.079400f, -0.067114f, -0.031772f, 0.131391f, -0.053469f, 0.016939f, 0.016676f, -0.026243f, 0.038315f, 0.036298f, 0.054443f, 0.072937f, 0.068045f, -0.086616f, 0.031518f, -0.066081f, -0.043839f, -0.097548f, 0.037179f, 0.032609f, -0.091270f, -0.010512f, -0.047910f, 0.037653f, -0.015525f, 0.033388f, -0.085246f, 0.023492f, -0.060328f, -0.047522f, -0.008106f, 0.097712f, 0.034724f, -0.013806f, 0.042068f, 0.052649f, -0.024752f, -0.002653f, -0.017441f, -0.055511f, 0.049370f, 0.108423f, -0.001997f, -0.013590f, -0.008074f, -0.009611f, 0.022068f, 0.041161f, 0.027795f, -0.035418f, -0.085040f, -0.046324f, 0.047786f, 0.015500f, -0.075953f, -0.086769f, -0.002807f, -0.066481f, -0.068244f, 0.089294f, 0.033459f, 0.039444f, -0.027453f, -0.025195f, -0.029654f, 0.017065f, 0.065822f, 0.030033f, 0.063781f, 0.030424f, -0.009395f, -0.081697f, -0.025471f, -0.081080f, -0.064808f, 0.061424f, -0.046454f, 0.028428f, -0.038187f, 0.005158f, 0.034295f, 0.003431f, 0.003974f, -0.011753f, 0.040274f, -0.069427f, -0.037380f, 0.035493f, 0.008139f, 0.082881f, 0.078385f, 0.091876f, -0.030070f, -0.056739f, 0.066722f, -0.040644f, 0.080219f, 0.087909f, 0.067785f, -0.034424f, -0.043075f, 0.034281f, -0.062679f, -0.002133f, -0.020615f, 0.071405f, -0.033515f, 0.055754f, -0.096919f, 0.003221f, 0.120481f, -0.001184f, -0.009540f, 0.068569f, 0.042962f, -0.018787f, 0.011762f, 0.023589f, 0.013128f, 0.095985f, 0.042368f, 0.041200f, 0.055053f, -0.009059f, -0.011668f, 0.087519f, 0.064068f, -0.013555f, 0.014592f, 0.032783f, -0.060376f, 0.033360f, -0.067953f, 0.005379f, -0.079456f, 0.016412f, 0.005843f, 0.038754f, 0.064016f, -0.062056f, -0.010552f, -0.000992f, -0.040711f, -0.097826f, 0.008366f, -0.001350f, 0.017186f, 0.014447f, -0.108712f, -0.045604f, 0.007186f, -0.009234f, 0.036630f, 0.023358f, 0.008593f, -0.044106f, -0.054971f, 0.025422f, 0.016018f, 0.026242f, -0.096080f, -0.050248f, 0.074973f, 0.058129f, 0.008953f, -0.013943f, -0.032757f, -0.043786f, -0.033609f, 0.054253f, -0.001215f, 0.036161f, -0.008093f, 0.014937f, 0.019593f, 0.019838f, -0.008445f, -0.057335f, -0.039811f, -0.032309f, 0.034693f, -0.058594f, -0.044285f, -0.107221f, -0.092621f, 0.078082f, -0.016214f, 0.085894f, -0.044384f, -0.015293f, 0.008079f, -0.078870f, -0.007035f, 0.004408f, 0.027567f, 0.036537f, -0.052371f, -0.010097f, -0.009104f, -0.020594f, 0.018620f, -0.017469f, -0.060458f, -0.055902f, -0.010810f, -0.106177f, -0.034825f, 0.032310f, 0.037446f, -0.015850f, 0.004883f, 0.031136f, 0.013537f, 0.019807f, 0.006764f, 0.067682f, 0.101925f, -0.035336f, -0.089036f, -0.043271f, -0.092460f, -0.048869f, -0.001754f, -0.083713f, -0.038858f, 0.071693f, -0.075822f, 0.026238f, -0.065902f, -0.052172f, -0.015990f, 0.045755f, 0.005797f, 0.032649f, -0.030520f, 0.016255f, -0.094807f, 0.027142f, 0.102323f, 0.130384f, -0.027976f, -0.018769f, 0.074800f, -0.073827f, 0.039235f, 0.095337f, 0.019468f, 0.084257f, 0.042011f, -0.056417f, 0.052871f, 0.005769f, 0.039828f, 0.006486f, 0.094675f, -0.047908f, -0.108417f, 0.032653f, -0.098596f, 0.021483f, 0.053006f, 0.073355f, -0.001401f, 0.046651f, 0.013976f, 0.056551f, 0.021047f, 0.027242f, 0.118468f, -0.025687f, 0.031273f, -0.108937f, -0.007973f, -0.109638f, 0.076329f, -0.017918f, 0.001158f, -0.005050f, -0.064346f, -0.083526f, 0.035004f, 0.002874f, -0.106675f, -0.099381f, 0.021751f, -0.065627f, 0.103972f, 0.072080f, -0.095357f, -0.066814f, 0.079879f, 0.004652f, -0.038916f, 0.038733f, 0.072124f, 0.055476f, 0.036877f, 0.024487f, -0.115107f, 0.042140f, 0.025460f, -0.054421f, 0.055768f, -0.042612f, -0.028944f, -0.111070f, 0.005947f, -0.093467f, -0.073237f, -0.054473f, 0.043097f, 0.010949f, -0.002090f, 0.091645f, -0.052349f, 0.042267f, 0.078656f, -0.053371f, 0.107943f, -0.103548f, 0.064685f, -0.045098f, 0.079181f, 0.020928f, 0.085126f, -0.043581f, -0.027090f, 0.031535f, -0.027108f, -0.007276f, 0.019221f, -0.004314f, -0.008560f, -0.029246f, 0.008021f, -0.096914f, -0.019822f, 0.051568f, 0.052279f, 0.049888f, 0.033236f, -0.094699f, -0.036560f, -0.004088f, 0.006894f, 0.012318f, -0.090503f, 0.089638f, 0.052052f, 0.020311f, -0.018487f, -0.047876f, 0.031749f, 0.034030f, -0.058508f, 0.052181f, 0.009704f, 0.077412f, 0.015837f, 0.051468f, -0.062159f, 0.075460f, -0.002534f, -0.004960f, -0.119532f, -0.020992f, 0.093557f, 0.107010f, -0.065024f, 0.009830f, 0.025894f, 0.030800f, 0.030848f, 0.090271f, 0.011093f, 0.036717f, -0.058749f, -0.055822f, 0.062472f, 0.041343f, 0.054454f, 0.101415f, 0.033746f, -0.002606f, 0.038706f, 0.038483f, -0.075582f, 0.033408f, -0.055916f, 0.071504f, 0.013471f, -0.004866f, 0.049398f, 0.087196f, 0.028380f, -0.045114f, 0.097102f, -0.035023f, 0.033383f, -0.018860f, 0.050724f, -0.040075f, 0.043606f, 0.051756f, -0.061313f, -0.039916f, -0.086160f, 0.013875f, -0.000248f, 0.021967f, -0.068604f, -0.078060f, -0.085204f, -0.021357f, 0.074539f, 0.032244f, -0.075719f, 0.053140f, -0.008132f, 0.011501f, 0.038800f, -0.005340f, 0.025358f, 0.055542f, 0.063866f, -0.001998f, 0.003843f, -0.017437f, 0.002021f, -0.032939f, 0.075448f, 0.031348f, -0.046806f, -0.027151f, 0.002183f, -0.117907f, -0.073687f, -0.054314f, -0.039912f, -0.072207f, 0.025391f, -0.018325f, -0.059158f, 0.091473f, 0.022033f, 0.045520f, -0.011430f, -0.091706f, -0.091494f, -0.025336f, -0.018200f, -0.060757f, -0.064853f, -0.043125f, -0.018946f, -0.100362f, -0.050677f, -0.014997f, 0.025526f, -0.083213f, 0.037060f, -0.032679f, -0.099282f, 0.010746f, 0.085693f, -0.078318f, -0.010808f, 0.057120f, 0.045125f, -0.056653f, -0.040338f, -0.010555f, 0.014445f, 0.014549f, -0.052425f, 0.005774f, 0.013864f, -0.081344f, -0.039102f, 0.020487f, 0.052582f, -0.008594f, 0.014040f, -0.052796f, -0.024462f, 0.008497f, -0.038083f, -0.019011f, -0.078593f, -0.051385f, -0.061876f, 0.034821f, -0.077256f, -0.076089f, 0.102233f, 0.020941f, 0.038122f, 0.048336f, 0.046006f, -0.077014f, -0.026671f, 0.064593f, 0.040236f, 0.063630f, -0.100601f, -0.033628f, -0.017120f, 0.026659f, -0.009981f, 0.023320f, 0.102770f, -0.035581f, -0.070969f, -0.061580f, -0.098937f, 0.006806f, -0.039200f, -0.062688f, -0.026185f, -0.004764f, 0.091181f, -0.001983f, 0.052225f, -0.007019f, 0.142680f, -0.096315f, -0.026098f, 0.016279f, 0.053889f, -0.002186f, -0.003608f, -0.047783f, -0.008519f, 0.070102f, -0.021521f, -0.014291f, -0.041017f, 0.051095f, -0.114659f, -0.060546f, -0.054767f, -0.005039f, 0.006747f, -0.012776f, -0.034156f, -0.039715f, 0.034861f, -0.019625f, -0.000404f, -0.004365f, -0.041873f, 0.014765f, -0.040980f, 0.002788f, 0.052030f, -0.046280f, 0.049612f, -0.026663f, 0.026080f, 0.070799f, 0.001564f, -0.053872f, 0.002397f, -0.065914f, 0.046009f, 0.065580f, 0.087840f, -0.077989f, 0.014238f, 0.130614f, -0.102858f, -0.033567f, 0.044314f, 0.043230f, 0.075783f, -0.106837f, 0.027885f, -0.033294f, -0.034770f, -0.029372f, 0.045431f, 0.026459f, -0.017673f, -0.099028f, 0.033812f, -0.017707f, 0.013645f, -0.043922f, -0.017634f, -0.056834f, -0.084167f, 0.005009f, 0.029792f, -0.042923f, 0.081988f, -0.021493f, 0.008341f, 0.029133f, 0.031956f, -0.054309f, 0.102634f, 0.002341f, -0.046557f, -0.031584f, 0.039032f, 0.019587f, 0.004291f, 0.047589f, 0.043095f, -0.071746f, -0.035000f, -0.034448f, 0.006196f, -0.076631f, -0.026001f, 0.034376f, -0.020874f, -0.009743f, 0.017890f, -0.004150f, 0.001398f, -0.055555f, 0.021923f, 0.048992f, -0.024447f, -0.036574f, 0.082132f, -0.007441f, 0.010900f, 0.070192f, 0.049176f, -0.008238f, -0.086343f, -0.059908f, 0.057575f, 0.048228f, -0.044983f, 0.014027f, 0.071374f, -0.097433f, -0.041452f, -0.028017f, -0.008297f, -0.029884f, 0.010497f, 0.037004f, 0.013399f, 0.060248f, 0.110997f, 0.099313f, -0.013159f, 0.034415f, 0.082954f, -0.054519f, 0.022914f, 0.004366f, 0.058050f, -0.049088f, -0.029380f, 0.065407f, 0.007234f, -0.042655f, 0.022930f, 0.030892f, -0.013133f, 0.036586f, -0.073434f, -0.110709f, -0.032513f, 0.033759f, -0.056170f, -0.013436f, -0.053065f, -0.001417f, 0.073277f, 0.016958f, -0.032747f, 0.026735f, 0.027774f, -0.022989f, -0.015230f, 0.009164f, -0.052747f, -0.018647f, -0.013262f, 0.085394f, -0.018110f, 0.054432f, 0.011659f, -0.109185f, 0.028571f, -0.098966f, 0.039258f, -0.041668f, -0.006853f, -0.106002f, 0.035073f, 0.071783f, -0.023976f, -0.031612f, 0.057363f, -0.017679f, 0.089215f, -0.072510f, -0.059677f, -0.065285f, 0.007383f, 0.036503f, -0.060941f, 0.036460f, -0.003486f, -0.063614f, -0.015391f, -0.009687f, -0.011525f, -0.029796f, -0.031848f, 0.007879f, -0.000481f, -0.069446f, -0.013777f, 0.026166f, -0.004440f, -0.030293f, -0.033159f, -0.003930f, 0.041965f, -0.059969f, -0.004740f, -0.061755f, 0.014385f, -0.044904f, -0.062237f, 0.038352f, -0.024289f, 0.017449f, -0.022169f, -0.077645f, -0.040325f, 0.025031f, 0.018677f, 0.045504f, -0.052044f, 0.024225f, -0.075830f, -0.033728f, 0.053479f, -0.041144f, -0.102242f, -0.032646f, -0.057921f, -0.030156f, 0.024099f, 0.000225f, 0.092590f, 0.033633f, -0.016129f, -0.001069f, 0.032833f, 0.019031f, -0.115175f, 0.014922f, -0.023869f, 0.031681f, -0.038749f, -0.019982f, 0.060798f, -0.016265f, -0.097496f, 0.055934f, -0.010999f, 0.094151f, -0.030090f, -0.016747f, -0.070844f, -0.010005f, 0.050354f, 0.091093f, -0.007086f, -0.038147f, 0.100313f, 0.034932f, -0.002013f, -0.084373f, -0.045333f, -0.105705f, 0.072172f, -0.068788f, -0.034741f, -0.004365f, -0.031744f, 0.001946f, 0.027302f, -0.001693f, -0.113916f, -0.079984f, 0.054387f, 0.037098f, 0.052602f, -0.008251f, -0.023207f, -0.041124f, 0.071561f, 0.025971f, -0.042256f, 0.007917f, -0.047194f, -0.044433f, 0.021646f, -0.013829f, 0.005237f, -0.048482f, -0.009885f, -0.025328f, -0.017575f, 0.099076f, -0.030033f, -0.026709f, 0.022966f, -0.051347f, 0.026009f, 0.052903f, -0.038456f, -0.096147f, -0.061903f, 0.078274f, -0.106331f, 0.043504f, 0.043122f, -0.004314f, 0.075432f, -0.066742f, -0.085612f, 0.036031f, -0.008697f, 0.041666f, 0.012100f, -0.021161f, 0.065011f, -0.047223f, 0.025746f, -0.027807f, 0.009752f, 0.010897f, -0.022162f, 0.010736f, -0.115107f, 0.009037f, 0.017387f, -0.039681f, -0.004216f, 0.103405f, 0.042422f, 0.013685f, 0.036618f, 0.040321f, 0.067737f, -0.038116f, -0.015853f, -0.032377f, 0.072847f, 0.072455f, -0.043105f, 0.052449f, 0.080862f, -0.057703f, 0.018520f, 0.035404f, -0.090897f, 0.021572f, -0.071573f, 0.059290f, 0.038253f, 0.062131f, -0.005263f, 0.058220f, 0.013766f, 0.003975f, 0.044759f, -0.058632f, 0.023450f, -0.011238f, -0.013761f, -0.060501f, 0.034792f, -0.008927f, 0.086102f, -0.066595f, -0.118447f, -0.002993f, 0.037276f, -0.003348f, 0.002647f, 0.066183f, 0.015227f, -0.098015f, -0.103726f, 0.067601f, -0.088750f, 0.083227f, -0.077733f, 0.075022f, 0.038183f, 0.094521f, 0.009661f, 0.093938f, 0.009372f, 0.010623f, 0.058647f, 0.032463f, 0.072310f, -0.010434f, -0.010286f, -0.033338f, 0.050137f, -0.045696f, -0.101693f, 0.008314f, -0.062640f, -0.061574f, -0.064573f, -0.025173f, -0.096386f, 0.077351f, -0.011338f, -0.035041f, 0.080083f, -0.061885f, 0.008861f, 0.036719f, -0.048677f, 0.021274f, 0.035739f, 0.065755f, 0.003202f, 0.022759f, -0.051778f, 0.108269f, -0.052579f, 0.070756f, 0.044482f, 0.020177f, -0.006830f, 0.023047f, -0.068985f, -0.068256f, -0.006478f, -0.053604f, -0.066148f, -0.049049f, 0.067103f, 0.050360f, 0.055072f, 0.125800f, -0.094876f, 0.033247f, 0.061454f, 0.053094f, -0.019464f, 0.046306f, -0.052578f, -0.021105f, -0.020036f, 0.013386f, 0.030814f, -0.057854f, 0.087158f, -0.141102f, -0.040364f, 0.064670f, 0.062035f, 0.075534f, 0.094285f, -0.013780f, -0.064268f, -0.092865f, 0.014425f, -0.020459f, -0.041509f, 0.073707f, 0.002599f, -0.086726f, -0.038240f, 0.038028f, -0.056850f, 0.059523f, -0.010266f, 0.011301f, 0.022325f, 0.049209f, -0.006734f, 0.034064f, 0.028386f, -0.039124f, 0.054293f, 0.003032f, 0.009384f, 0.040019f, 0.024331f, 0.033032f, 0.028290f, 0.027941f, 0.034538f, 0.023446f, 0.018666f, -0.047426f, 0.053038f, 0.046422f, -0.077626f, 0.098002f, -0.029837f, -0.031997f, 0.027722f, -0.021001f, 0.091024f, 0.070480f, -0.066700f, -0.078648f, -0.035846f, 0.028056f, 0.060418f, 0.036506f, -0.031251f, -0.044419f, 0.006659f, 0.049919f, -0.093681f, 0.065300f, -0.063790f, 0.069858f, -0.020167f, 0.040116f, 0.069790f, -0.010646f, 0.073666f, 0.023688f, -0.023267f, -0.058222f, 0.031210f, -0.109263f, 0.038862f, -0.038814f, 0.048020f, -0.083321f, 0.017930f, 0.117409f, 0.044887f, 0.001939f, -0.058575f, 0.084920f, -0.081712f, -0.060096f, -0.016638f, -0.024530f, 0.064046f, 0.001374f, -0.073999f, -0.025858f, 0.076929f, 0.025498f, -0.026390f, -0.067228f, 0.047399f, 0.056830f, -0.044626f, -0.026419f, 0.023532f, 0.026520f, -0.022095f, 0.071431f, -0.069369f, 0.050011f, 0.043804f, -0.021343f, 0.061476f, -0.092315f, -0.051351f, 0.087701f, -0.025737f, 0.057838f, -0.051548f, -0.005120f, -0.103414f, 0.089603f, -0.021648f, 0.066560f, 0.007704f, 0.080190f, -0.056577f, 0.064003f, 0.002959f, 0.056456f, 0.054962f, 0.019233f, 0.033749f, -0.149655f, -0.061778f, 0.065476f, 0.030044f, 0.071590f, 0.055687f, -0.073169f, -0.113721f, 0.003653f, 0.010632f, -0.034081f, -0.014520f, -0.029593f, 0.013817f, -0.075781f, 0.036480f, -0.025865f, 0.016634f, -0.055992f, -0.089082f, -0.001560f, -0.004969f, 0.000665f, -0.021412f, 0.036287f, 0.045414f, 0.043895f, -0.078175f, -0.057702f, -0.072004f, -0.061513f, 0.046261f, -0.050791f, -0.042777f, 0.015996f, 0.033132f, 0.014635f, -0.073811f, -0.011895f, -0.002342f, -0.062366f, -0.054905f, -0.018329f, -0.027713f, -0.015094f, -0.060239f, 0.015406f, 0.082083f, 0.069433f, -0.101288f, -0.058954f, -0.061231f, 0.022115f, 0.014680f, -0.045793f, 0.074247f, -0.127300f, 0.025483f, 0.043977f, 0.016244f, 0.051556f, 0.001204f, -0.026668f, 0.054596f, -0.046873f, 0.068331f, 0.042762f, 0.048619f, -0.021551f, 0.050973f, -0.007321f, 0.038829f, -0.110690f, -0.031682f, -0.060514f, -0.032237f, 0.047654f, -0.074558f, 0.106968f, -0.072927f, -0.091161f, 0.056520f, 0.068384f, -0.009469f, 0.035726f, 0.039246f, -0.071039f, 0.107427f, 0.062844f, -0.045972f, -0.038548f, 0.029222f, -0.015870f, -0.092740f, -0.051677f, -0.001493f, 0.095568f, 0.014101f, 0.051011f, -0.001994f, -0.017391f, -0.027102f, 0.081409f, -0.094218f, 0.115856f, -0.020938f, -0.016678f, 0.061144f, -0.061568f, 0.029515f, 0.075334f, -0.029642f, -0.016144f, 0.008632f, 0.092133f, -0.069354f, 0.059086f, 0.022560f, 0.054492f, -0.050658f, 0.040415f, 0.044977f, -0.036520f, -0.074627f, 0.083564f, -0.042644f, 0.013402f, 0.031233f, -0.148959f, 0.056024f, 0.001173f, 0.014063f, -0.009875f, 0.067587f, -0.064376f, -0.071174f, 0.045594f, -0.011155f, 0.032246f, -0.014099f, 0.071749f, -0.056702f, 0.018011f, -0.021204f, -0.039881f, -0.038998f, -0.032741f, -0.024342f, -0.017912f, 0.032291f, -0.011679f, -0.028895f, 0.019401f, 0.012657f, -0.057806f, -0.044816f, -0.107968f, 0.029136f, -0.003965f, -0.021820f, 0.052544f, -0.009206f, 0.014155f, 0.045436f, -0.033378f, -0.040615f, 0.000590f, -0.068717f, 0.023816f, 0.032291f, -0.006602f, -0.022583f, -0.027354f, 0.049566f, -0.018903f, 0.051099f, -0.048745f, -0.112448f, 0.057050f, 0.055378f, -0.056942f, 0.055102f, 0.077701f, 0.074490f, -0.077421f, 0.012590f, 0.012621f, -0.008023f, -0.026733f, -0.111578f, -0.032070f, 0.034494f, -0.038345f, 0.038356f, 0.105085f, -0.057769f, 0.003647f, 0.033197f, 0.029272f, -0.054263f, -0.032694f, 0.078496f, 0.029416f, 0.074091f, -0.018318f, 0.003529f, 0.085391f, -0.036736f, -0.107211f, 0.084477f, 0.076147f, -0.001915f, -0.004799f, 0.013891f, -0.059038f, 0.064587f, -0.039245f, -0.036272f, 0.081225f, -0.066234f, 0.110056f, -0.060621f, 0.048093f, 0.026984f, 0.040761f, 0.022035f, 0.065185f, -0.001098f, -0.010321f, 0.003185f, 0.053328f, -0.001128f, 0.086376f, -0.029133f, 0.052936f, -0.010798f, -0.052462f, -0.091442f, -0.019067f, -0.019642f, 0.022135f, 0.007866f, 0.012840f, -0.048409f, 0.029183f, -0.009817f, -0.037724f, -0.067599f, 0.011858f, 0.016549f, 0.000878f, -0.040366f, 0.002812f, 0.068233f, -0.024368f, 0.021318f, -0.170367f, -0.021577f, -0.017385f, -0.011250f, 0.028399f, 0.077490f, -0.005139f, -0.014885f, 0.032944f, 0.061490f, 0.076981f, -0.052734f, 0.000931f, -0.064476f, -0.027894f, 0.054525f, -0.066341f, 0.081616f, -0.059825f, 0.046309f, -0.001186f, -0.069731f, -0.002646f, -0.038010f, -0.039301f, -0.039536f, 0.033825f, -0.005867f, -0.076127f, -0.004468f, 0.027476f, -0.058765f, -0.027296f, -0.096480f, -0.060295f, 0.024631f, -0.033449f, 0.008937f, 0.053919f, -0.060361f, 0.029247f, -0.058668f, 0.123602f, 0.004014f, 0.031686f, 0.008439f, -0.051214f, 0.056307f, 0.077997f, -0.027594f, 0.030167f, 0.081185f, -0.030378f, -0.046496f, 0.064064f, 0.025548f, -0.036989f, 0.091664f, 0.007198f, -0.061362f, 0.075329f, -0.077906f, 0.066931f, -0.011988f, 0.017576f, -0.032980f, 0.059418f, 0.002563f, -0.011096f, -0.001584f, 0.025741f, 0.043876f, -0.105761f, -0.024666f, -0.079651f, 0.037487f, -0.011066f, -0.007342f, -0.015629f, -0.052514f, -0.019526f, 0.011764f, 0.110260f, -0.060923f, 0.057070f, -0.023693f, -0.033915f, 0.067603f, 0.058497f, 0.019423f, -0.037164f, -0.067808f, 0.060448f, -0.024525f, -0.036540f, -0.076746f, -0.024153f, 0.064345f, -0.028029f, -0.008795f, -0.029864f, -0.044808f, -0.064554f, -0.028940f, -0.053192f, 0.043169f, -0.002407f, 0.061657f, 0.010876f, 0.003688f, 0.007616f, 0.006570f, 0.014675f, 0.029416f, 0.099455f, -0.003988f, 0.060684f, 0.040324f, 0.008323f, -0.079383f, 0.019292f, 0.050715f, -0.084268f, -0.026402f, -0.031994f, 0.007307f, -0.059886f, 0.023807f, -0.042322f, -0.017299f, 0.019558f, 0.047462f, 0.067281f, 0.024573f, -0.005669f, -0.090816f, 0.042586f, 0.104008f, 0.014816f, 0.054045f, 0.028419f, 0.017604f, -0.139755f, 0.015125f, -0.078664f, 0.059842f, 0.035930f, 0.006968f, -0.053053f, -0.035677f, -0.041203f, -0.030698f, -0.074972f, 0.036332f, 0.021888f, -0.047823f, -0.063511f, -0.013054f, 0.012573f, -0.023476f, 0.044001f, -0.035424f, 0.051486f, 0.058037f, -0.036630f, 0.070916f, -0.046356f, 0.054029f, 0.005281f, 0.026663f, 0.095798f, 0.041880f, 0.036109f, -0.032420f, -0.040708f, 0.025425f, -0.054383f, 0.002467f, -0.060717f, 0.107956f, 0.029325f, 0.029075f, -0.021531f, 0.097662f, -0.019131f, 0.036025f, 0.027788f, 0.014006f, -0.026606f, -0.046588f, 0.027185f, -0.061735f, -0.022488f, -0.050401f, -0.025758f, -0.043262f, 0.026418f, 0.051955f, 0.056413f, -0.022509f, -0.098171f, 0.033070f, 0.002646f, -0.040194f, -0.002977f, -0.028024f, 0.033177f, -0.006922f, -0.101177f, -0.060542f, 0.084406f, 0.001334f, -0.042570f, 0.058310f, -0.080051f, 0.037421f, 0.090744f, -0.103655f, -0.050649f, -0.075218f, -0.019562f, -0.077371f, 0.010862f, -0.087448f, 0.012819f, 0.069292f, 0.066413f, 0.042919f, -0.019051f, -0.000253f, 0.003339f, -0.027960f, -0.057456f, 0.084369f, 0.057829f, 0.023785f, -0.046376f, -0.023376f, 0.036279f, 0.092750f, 0.055566f, -0.045642f, 0.007556f, -0.033956f, -0.009789f, -0.030616f, 0.045205f, -0.068621f, 0.034052f, -0.062339f, -0.133425f, -0.096295f, 0.082706f, 0.040341f, 0.067397f, 0.033360f, -0.132781f, 0.010073f, 0.002388f, 0.050979f, -0.080678f, 0.062242f, -0.001334f, -0.063222f, -0.004076f, 0.040663f, -0.002321f, -0.018561f, 0.029171f, 0.051451f, -0.013333f, 0.060711f, -0.001077f, -0.010158f, -0.001968f, -0.040062f, -0.028313f, 0.039672f, -0.075567f, 0.056315f, -0.019789f, -0.007032f, 0.039027f, 0.028263f, -0.056123f, -0.011165f, -0.063147f, -0.022733f, -0.060839f, 0.007001f, -0.019630f, 0.041857f, -0.073010f, -0.032584f, 0.033155f, -0.082071f, -0.034508f, -0.109147f, 0.150999f, 0.018428f, -0.022583f, -0.031520f, 0.024401f, 0.080725f, 0.009497f, -0.087602f, -0.069814f, -0.034538f, 0.023606f, 0.047268f, 0.005750f, -0.043117f, -0.149410f, 0.101774f, -0.015966f, 0.034710f, 0.023239f, -0.073441f, 0.005542f, -0.078518f, -0.001426f, 0.021430f, 0.088275f, -0.000387f, -0.134399f, 0.110540f, 0.015883f, -0.041823f, 0.015463f, 0.052884f, 0.023648f, 0.057653f, 0.000486f, 0.021753f, -0.013177f, -0.032648f, 0.034128f, -0.037203f, 0.028494f, -0.019136f, 0.016371f, -0.013907f, 0.027320f, -0.008643f, -0.047487f, -0.122464f, 0.075993f, 0.008299f, -0.030118f, 0.017701f, 0.087471f, 0.005882f, 0.072620f, -0.028124f, 0.040674f, 0.027244f, 0.076101f, 0.061875f, 0.025879f, 0.010866f, -0.046626f, 0.042496f, 0.117534f, 0.148604f, -0.089840f, -0.033306f, -0.060056f, 0.091922f, 0.048697f, -0.024613f, 0.002587f, 0.009849f, 0.122589f, 0.020928f, -0.008458f, -0.004648f, 0.027904f, -0.018987f, -0.049253f, -0.018183f, 0.031806f, 0.012361f, -0.033891f, 0.027332f, -0.152685f, -0.040511f, 0.052168f, 0.086528f, -0.060793f, 0.055461f, 0.074018f, -0.096538f, -0.011454f, 0.058686f, 0.041512f, -0.104482f, 0.039338f, 0.037980f, -0.036259f, -0.077560f, -0.001227f, -0.050571f, 0.014240f, -0.076474f, 0.060217f, -0.048359f, -0.044533f, -0.041585f, -0.045666f, 0.024431f, 0.091285f, -0.044358f, -0.105148f, 0.027756f, 0.074174f, -0.024437f, -0.042094f, -0.035436f, 0.015725f, -0.061301f, 0.010697f, 0.005554f, 0.045254f, -0.063545f, 0.050985f, -0.038589f, 0.095701f, -0.095391f, 0.028842f, -0.002363f, 0.043689f, 0.067605f, -0.004544f, 0.014403f, -0.048234f, 0.076660f, -0.003142f, -0.051087f, -0.032306f, 0.002312f, -0.039275f, 0.059086f, 0.059994f, 0.001285f, -0.003389f, -0.116600f, 0.047932f, -0.033116f, -0.076244f, -0.066699f, 0.083728f, 0.022296f, 0.012676f, 0.117846f, 0.004942f, -0.016092f, -0.043263f, 0.060651f, -0.015161f, 0.008093f, 0.001198f, -0.025030f, 0.039498f, 0.001204f, -0.076766f, -0.034576f, 0.036834f, -0.051809f, -0.039445f, 0.046526f, -0.047676f, -0.001034f, -0.025028f, -0.009326f, -0.020204f, -0.017948f, 0.058825f, 0.021765f, -0.023938f, -0.008534f, -0.005429f, 0.003399f, -0.043070f, -0.036225f, 0.058124f, 0.027149f, -0.017606f, 0.025912f, 0.018362f, -0.000958f, 0.088359f, 0.041427f, 0.007695f, 0.015478f, 0.026035f, 0.005006f, -0.059079f, 0.005317f, -0.047393f, -0.078931f, 0.148543f, -0.029228f, -0.057679f, 0.023889f, 0.042583f, 0.016335f, -0.132636f, -0.068192f, -0.072255f, -0.078242f, 0.072089f, -0.018839f, -0.051633f, -0.019591f, 0.001973f, 0.075313f, -0.071886f, 0.086948f, 0.116594f, -0.022527f, 0.034806f, -0.066257f, 0.005881f, -0.096008f, 0.087792f, 0.073301f, -0.066558f, 0.034443f, -0.089826f, 0.024775f, -0.019505f, 0.045072f, 0.011853f, -0.064114f, -0.079109f, -0.054401f, -0.066450f, -0.063124f, 0.070296f, -0.019293f, -0.084722f, -0.065156f, 0.066825f, -0.009885f, -0.080133f, 0.036444f, 0.005027f, -0.049529f, -0.009086f, 0.008136f, -0.036631f, 0.069059f, 0.080848f, -0.018704f, 0.059956f, -0.062112f, 0.033638f, 0.006375f, -0.000167f, 0.057606f, 0.029948f, -0.052723f, -0.092699f, 0.063921f, -0.054780f, -0.027281f, 0.001802f, -0.019544f, -0.041071f, 0.028205f, -0.027734f, 0.044295f, 0.054885f, 0.010798f, 0.028868f, -0.021653f, 0.046898f, 0.013000f, -0.010093f, -0.088538f, -0.051015f, 0.121251f, 0.017629f, -0.011977f, -0.135217f, 0.032277f, 0.068733f, -0.018626f, 0.044053f, 0.057172f, -0.023413f, -0.002765f, -0.043681f, 0.057557f, 0.097398f, 0.022101f, 0.070585f, -0.045496f, 0.023859f, 0.035097f, -0.048772f, -0.015798f, 0.058315f, -0.049731f, 0.053528f, 0.017835f, 0.005234f, 0.044623f, -0.026252f, -0.035032f, -0.055916f, 0.118020f, 0.031928f, -0.013727f, -0.009585f, 0.003324f, -0.061479f, 0.096236f, 0.084710f, 0.085033f, 0.065852f, -0.022473f, 0.039041f, 0.092566f, 0.010145f, -0.001060f, 0.051039f, -0.070241f, 0.010176f, -0.059227f, -0.021711f, -0.022436f, 0.057380f, 0.018198f, -0.111353f, -0.030743f, -0.045472f, 0.042658f, 0.041116f, 0.037887f, -0.030147f, -0.013793f, 0.036846f, 0.075226f, -0.039538f, 0.048889f, 0.034187f, 0.010428f, -0.047210f, -0.045585f, 0.040725f, -0.000249f, -0.046701f, -0.048699f, -0.072274f, 0.006487f, -0.030437f, 0.064069f, 0.023899f, 0.023201f, -0.021200f, 0.012879f, -0.061023f, 0.042190f, -0.013274f, -0.064860f, 0.029450f, -0.035198f, -0.042932f, -0.057946f, -0.040492f, 0.003230f, -0.095612f, 0.059510f, -0.038523f, 0.030354f, 0.032334f, 0.023374f, -0.033935f, -0.049138f, -0.046728f, -0.067182f, 0.098502f, 0.004964f, 0.045819f, 0.013406f, 0.120800f, 0.078902f, -0.022695f, 0.009056f, 0.008281f, 0.029155f, -0.066702f, -0.000396f, 0.050527f, 0.054482f, -0.075516f, 0.036934f, 0.090838f, -0.080497f, -0.013707f, -0.062648f, 0.090726f, 0.053301f, -0.044834f, 0.009130f, 0.017446f, 0.015028f, -0.011510f, 0.107939f, -0.060489f, 0.053758f, -0.045705f, 0.009338f, 0.059275f, -0.037042f, 0.061781f, -0.054134f, 0.063423f, -0.001770f, -0.068282f, 0.007577f, 0.016531f, -0.002912f, 0.002688f, -0.028979f, -0.083263f, -0.018240f, 0.032841f, -0.113706f, 0.076615f, 0.037918f, 0.029646f, -0.034562f, 0.085583f, -0.077800f, -0.021003f, -0.029551f, 0.021634f, 0.013163f, 0.025865f, 0.107481f, 0.048692f, -0.037927f, -0.069914f, 0.082336f, 0.057726f, 0.020022f, -0.023335f, 0.053483f, 0.016573f, 0.124409f, 0.054874f, 0.068069f, -0.019934f, -0.070746f, 0.034501f, -0.012997f, 0.000952f, -0.038454f, 0.083607f, -0.030826f, -0.028751f, -0.051123f, 0.023461f, 0.032225f, -0.052165f, 0.022071f, -0.107197f, -0.001564f, 0.022903f, 0.055138f, 0.037667f, 0.071156f, 0.079779f, -0.031963f, 0.000530f, -0.057635f, -0.018112f, -0.065003f, 0.004047f, -0.073426f, -0.067990f, 0.002279f, 0.032292f, 0.006060f, 0.016395f, -0.045708f, 0.014728f, -0.076780f, -0.093908f, -0.025446f, -0.105418f, -0.076641f, -0.043196f, -0.084292f, -0.139731f, -0.022831f, 0.042610f, -0.058005f, -0.062801f, -0.017933f, 0.053437f, -0.004790f, -0.067025f, 0.026220f, -0.067602f, -0.024530f, 0.012680f, 0.006039f, 0.098452f, -0.042878f, 0.045883f, -0.070766f, 0.065051f, 0.021799f, 0.010353f, -0.049790f, 0.066223f, 0.033948f, 0.006332f, -0.006470f, 0.105806f, 0.074181f, -0.024392f, -0.029318f, 0.017312f, -0.088797f, -0.045373f, -0.050915f, 0.069223f, 0.048582f, -0.069377f, -0.055107f, 0.035361f, -0.048132f, -0.097487f, 0.052625f, 0.034103f, -0.084889f, -0.139264f, 0.021738f, 0.067515f, 0.014376f, 0.033262f, -0.021051f, 0.061853f, -0.080801f, -0.003413f, 0.105797f, 0.086263f, 0.048980f, 0.035341f, -0.115362f, -0.019202f, -0.036181f, -0.019024f, -0.078913f, -0.025685f, -0.021140f, -0.020477f, -0.071380f, 0.032598f, -0.111628f, -0.000359f, 0.017064f, -0.049933f, 0.119497f, 0.026020f, 0.084998f, 0.031416f, -0.045973f, 0.018106f, -0.011286f, 0.002402f, 0.102021f, 0.056482f, 0.046840f, 0.038423f, 0.150395f, 0.053427f, 0.059631f, -0.055523f, -0.068310f, 0.050221f, 0.004970f, -0.021523f, -0.038597f, -0.002703f, -0.051386f, -0.033503f, -0.092663f, 0.076952f, 0.004997f, -0.051553f, -0.056908f, -0.021087f, 0.030510f, 0.015550f, -0.015794f, -0.052973f, 0.006360f, 0.051756f, -0.020274f, -0.037609f, -0.019801f, 0.078316f, -0.042533f, 0.034644f, -0.051717f, -0.018292f, -0.052213f, -0.023625f, 0.108489f, 0.031251f, -0.060235f, -0.083350f, -0.061270f, -0.103187f, -0.105348f, 0.011091f, -0.009014f, -0.042675f, 0.057412f, -0.122555f, 0.071028f, -0.024350f, -0.011557f, -0.084845f, 0.051799f, 0.066705f, -0.024096f, 0.042846f, -0.022045f, -0.018161f, -0.014082f, 0.015906f, -0.084725f, 0.087556f, -0.055666f, -0.001981f, 0.038425f, 0.075252f, -0.007763f, -0.017638f, -0.055294f, -0.038811f, -0.018817f, -0.046444f, 0.077073f, 0.045700f, 0.000586f, -0.054032f, -0.014626f, -0.006243f, 0.009981f, 0.001227f, 0.037876f, 0.124197f, 0.100937f, 0.009406f, -0.017023f, 0.073753f, -0.091298f, -0.045930f, -0.007997f, -0.006121f, -0.022999f, -0.101233f, 0.096702f, 0.061837f, 0.008699f, 0.025986f, 0.055162f, -0.009856f, 0.027788f, -0.098455f, 0.099569f, 0.023947f, 0.066554f, 0.062649f, -0.085190f, -0.065325f, 0.122464f, -0.024988f, 0.034660f, 0.062880f, -0.026684f, -0.027473f, -0.065129f, 0.065406f, -0.077448f, 0.035915f, 0.000433f, -0.021266f, 0.121748f, 0.062002f, 0.023482f, 0.056640f, -0.005198f, -0.021791f, 0.060324f, -0.016664f, 0.010080f, 0.120770f, 0.021282f, 0.061365f, 0.157326f, -0.080793f, 0.156574f, -0.050806f, -0.076721f, 0.074074f, 0.039585f, -0.123922f, -0.065607f, 0.026677f, 0.012238f, 0.025742f, -0.075561f, 0.003652f, -0.002657f, 0.040653f, -0.027244f, -0.078667f, 0.075922f, -0.028033f, 0.127606f, -0.022118f, 0.045893f, -0.016591f, -0.084948f, 0.000525f, 0.063198f, 0.056604f, -0.079363f, 0.040872f, 0.038205f, 0.011737f, 0.031191f, 0.041015f, 0.062563f, -0.022894f, 0.009214f, -0.078897f, -0.033617f, -0.085368f, -0.103858f, -0.049710f, -0.035428f, 0.029754f, 0.076238f, -0.104966f, 0.092277f, -0.017469f, -0.062645f, -0.136945f, 0.009978f, 0.037748f, 0.022159f, -0.110517f, -0.048624f, -0.034262f, -0.017055f, -0.049393f, -0.043781f, 0.101915f, -0.002349f, -0.047030f, 0.045136f, 0.036238f, 0.007200f, -0.017742f, 0.012439f, 0.092769f, 0.019473f, -0.036176f, 0.032464f, -0.031990f, 0.079410f, -0.071780f, 0.034257f, 0.041136f, 0.022972f, -0.084950f, 0.082698f, 0.007101f, 0.061299f, 0.032509f, 0.002720f, 0.054194f, -0.057360f, -0.064488f, 0.060459f, -0.001689f, -0.031834f, -0.083926f, -0.033708f, 0.037600f, -0.097160f, 0.045136f, -0.000503f, -0.037951f, -0.008525f, -0.113373f, 0.031792f, 0.080737f, -0.010999f, 0.057565f, -0.100270f, -0.079862f, 0.074529f, -0.052002f, -0.085054f, 0.030290f, -0.037052f, 0.033467f, -0.001271f, 0.061519f, -0.000937f, 0.018605f, 0.043966f, -0.055668f, 0.150143f, -0.068876f, 0.073193f, -0.008353f, -0.067450f, -0.028298f, 0.030478f, -0.027931f, 0.019965f, 0.110290f, 0.064769f, 0.096098f, 0.137264f, 0.034563f, 0.151148f, -0.079798f, -0.143576f, 0.092764f, 0.002619f, -0.124138f, -0.086195f, 0.073057f, -0.015522f, 0.010485f, -0.012798f, 0.001651f, -0.006951f, -0.029945f, -0.053774f, 0.018761f, -0.021049f, 0.083409f, 0.101793f, -0.079321f, 0.021829f, 0.025836f, 0.060431f, -0.083382f, 0.029443f, 0.048360f, -0.043495f, -0.047426f, 0.006709f, 0.043766f, -0.044455f, 0.023106f, 0.020707f, 0.053126f, -0.045596f, 0.032786f, -0.061440f, -0.102022f, -0.106617f, -0.085423f, 0.038203f, -0.048002f, 0.066610f, -0.112587f, 0.002702f, -0.058493f, -0.078751f, -0.111789f, 0.012268f, -0.001257f, -0.020461f, -0.029616f, 0.038186f, -0.096310f, 0.004906f, 0.027133f, -0.019989f, 0.090592f, -0.074146f, 0.008805f, 0.019052f, 0.022071f, 0.081825f, -0.013944f, -0.094419f, 0.067544f, 0.055276f, -0.067436f, -0.004241f, -0.044924f, -0.011772f, -0.042867f, 0.048418f, 0.017298f, -0.004234f, -0.091789f, 0.044869f, 0.050561f, 0.101807f, 0.033516f, -0.126742f, 0.110738f, -0.005366f, 0.026626f, 0.007916f, 0.034887f, -0.035255f, -0.094872f, -0.015989f, 0.000918f, -0.041353f, 0.037794f, 0.029253f, -0.007149f, 0.071434f, 0.028147f, 0.102806f, 0.117467f, 0.079207f, 0.078205f, -0.082609f, -0.074478f, -0.018744f, -0.072644f, -0.070199f, 0.092556f, 0.047447f, -0.006909f, -0.009568f, 0.059742f, -0.025977f, 0.021075f, 0.008110f, -0.055579f, 0.055541f, 0.059158f, 0.020709f, -0.018353f, -0.014689f, -0.048791f, -0.053218f, -0.017577f, -0.006237f, 0.094592f, 0.030566f, -0.010491f, 0.151784f, -0.026082f, 0.075944f, -0.070821f, -0.050990f, -0.012657f, -0.061290f, -0.004642f, -0.067709f, 0.000952f, -0.012909f, -0.023116f, -0.044303f, 0.047235f, -0.026742f, -0.083424f, 0.043258f, 0.052784f, 0.039622f, 0.068198f, 0.029480f, 0.023553f, -0.048098f, 0.094925f, 0.095257f, -0.029186f, 0.059003f, 0.058835f, -0.031449f, -0.004410f, -0.005106f, -0.030499f, -0.021950f, 0.084823f, -0.027773f, 0.057495f, 0.050113f, 0.036956f, 0.020837f, -0.047470f, 0.021970f, 0.003406f, -0.021361f, -0.013763f, 0.053934f, -0.068171f, 0.060707f, -0.015513f, -0.059824f, -0.065633f, 0.061570f, -0.009583f, -0.055815f, -0.110083f, 0.002908f, 0.024230f, -0.032168f, -0.019355f, -0.050484f, 0.033660f, -0.000350f, 0.017049f, -0.076170f, -0.014017f, -0.042923f, 0.045161f, 0.001490f, -0.012690f, -0.033609f, -0.033467f, 0.126346f, 0.090040f, -0.046830f, -0.033687f, 0.000387f, 0.046119f, 0.044848f, 0.020304f, 0.114039f, 0.038203f, 0.004860f, 0.024399f, -0.103162f, 0.034968f, -0.046445f, 0.014030f, -0.015165f, 0.028754f, 0.065477f, -0.096906f, 0.028558f, 0.003342f, -0.107679f, -0.060439f, -0.004009f, 0.133440f, -0.045027f, 0.009488f, 0.057578f, 0.035949f, 0.086090f, 0.005704f, 0.002733f, -0.103423f, 0.022142f, 0.015479f, 0.076693f, 0.125262f, 0.005472f, 0.010492f, 0.034952f, 0.016523f, -0.073662f, 0.061233f, -0.071887f, -0.030327f, 0.131043f, -0.029591f, -0.016568f, -0.079084f, 0.015754f, -0.096717f, -0.004674f, 0.064366f, 0.101863f, 0.039989f, 0.035944f, 0.075996f, 0.117532f, -0.070728f, 0.150988f, -0.062529f, -0.118748f, 0.030844f, -0.100857f, -0.106414f, 0.006423f, -0.095554f, 0.003000f, 0.068696f, -0.048469f, 0.102913f, -0.017146f, -0.067311f, -0.041159f, -0.074955f, -0.073233f, 0.038105f, 0.125651f, -0.078995f, 0.023873f, 0.056403f, 0.063496f, -0.080990f, -0.045541f, -0.013921f, 0.029655f, 0.057241f, -0.054834f, 0.006287f, -0.008712f, 0.097571f, 0.068140f, 0.065853f, -0.018613f, -0.020436f, -0.029112f, -0.100781f, -0.051824f, -0.000917f, -0.044228f, 0.032584f, 0.042480f, 0.040851f, -0.009041f, -0.046065f, 0.007682f, -0.123340f, 0.035502f, 0.005783f, -0.024310f, -0.040117f, 0.040232f, -0.061244f, 0.075617f, 0.025993f, 0.029135f, 0.097453f, -0.050071f, 0.046778f, 0.013712f, 0.025704f, 0.083631f, -0.002266f, 0.049417f, 0.006487f, -0.033617f, -0.049722f, 0.161368f, 0.055256f, 0.066324f, -0.030750f, 0.002985f, 0.141881f, 0.038536f, -0.073795f, -0.004149f, 0.061803f, 0.042518f, -0.026694f, -0.137375f, 0.080943f, -0.085694f, 0.002841f, 0.078563f, 0.062391f, -0.001895f, -0.004999f, 0.054151f, 0.061822f, 0.033071f, -0.079985f, 0.054731f, 0.120661f, 0.041140f, -0.104032f, 0.095921f, 0.027190f, 0.077923f, -0.044192f, 0.048582f, -0.121587f, 0.009584f, -0.077673f, 0.072235f, 0.064736f, 0.072084f, -0.071865f, 0.062784f, 0.014779f, 0.011895f, 0.087013f, -0.098084f, 0.022250f, -0.006248f, 0.019642f, -0.005104f, -0.054246f, -0.058099f, -0.109133f, -0.029612f, 0.084677f, 0.054472f, -0.002431f, 0.040908f, 0.009210f, 0.095432f, 0.031153f, 0.066053f, -0.126546f, -0.082304f, 0.103034f, -0.019106f, -0.032067f, -0.021022f, -0.048576f, 0.003794f, 0.089665f, -0.048033f, -0.013428f, -0.002598f, -0.051039f, 0.054782f, -0.094280f, -0.017719f, -0.057670f, 0.122938f, -0.071197f, -0.001116f, 0.052451f, 0.065033f, -0.095387f, -0.053246f, -0.002980f, -0.066462f, 0.006693f, -0.001020f, -0.022260f, -0.084470f, 0.062847f, 0.061820f, 0.040867f, -0.072544f, -0.113062f, -0.010746f, -0.055836f, -0.109670f, -0.022559f, 0.007326f, 0.017789f, -0.019720f, -0.114754f, 0.121256f, -0.034275f, 0.006687f, -0.064718f, 0.012102f, -0.056442f, 0.033858f, -0.023346f, 0.111166f, 0.025377f, -0.057748f, -0.072615f, 0.071692f, 0.102416f, -0.018048f, -0.036767f, 0.006811f, 0.030742f, 0.057297f, 0.030750f, -0.056396f, 0.046142f, -0.067641f, -0.041112f, 0.162912f, -0.014228f, 0.090533f, -0.111047f, 0.010950f, 0.154284f, 0.008316f, -0.147051f, 0.024036f, -0.044201f, 0.061198f, 0.052004f, -0.094193f, -0.033210f, -0.011862f, 0.015645f, -0.062010f, 0.089998f, 0.072445f, -0.001493f, -0.034334f, 0.080541f, -0.098707f, -0.052827f, 0.107681f, 0.117308f, -0.089285f, -0.086550f, 0.022455f, -0.021114f, 0.038570f, -0.061477f, -0.032144f, -0.052603f, 0.024851f, -0.047111f, -0.021909f, 0.113186f, 0.095050f, -0.000837f, 0.082487f, 0.053285f, -0.009896f, 0.005990f, -0.014881f, 0.029864f, 0.107545f, 0.030359f, -0.041963f, -0.048155f, 0.034458f, -0.119931f, 0.005306f, 0.018516f, 0.049329f, 0.128617f, 0.029118f, 0.113871f, 0.089102f, 0.023943f, 0.033376f, -0.004327f, -0.078049f, 0.010589f, -0.014911f, -0.007646f, -0.125639f, 0.033437f, -0.008581f, 0.050702f, -0.044089f, -0.011388f, 0.033555f, -0.112128f, -0.028549f, 0.043949f, -0.077246f, 0.033860f, 0.034836f, 0.030622f, -0.021808f, -0.036919f, -0.010634f, -0.151447f, -0.077661f, 0.062349f, 0.019480f, 0.075273f, 0.017864f, -0.042588f, -0.050751f, 0.016166f, -0.039506f, 0.051344f, 0.006870f, -0.063495f, -0.113416f, 0.022948f, -0.008614f, -0.049892f, 0.047690f, 0.062758f, -0.014623f, -0.085334f, 0.059089f, 0.071209f, 0.022365f, -0.167522f, -0.012852f, 0.001612f, 0.076169f, -0.093629f, 0.128636f, 0.008019f, 0.058981f, 0.026134f, 0.041246f, 0.036307f, -0.052566f, -0.047496f, 0.021881f, -0.034654f, 0.049450f, 0.004408f, -0.005094f, -0.034197f, -0.114361f, -0.001654f, 0.121860f, -0.018451f, -0.002536f, -0.093971f, -0.092440f, 0.027945f, 0.148631f, -0.121806f, 0.022175f, -0.048988f, -0.001399f, -0.014828f, -0.065188f, -0.056506f, -0.074353f, -0.026872f, -0.029641f, 0.047086f, 0.143701f, 0.012701f, -0.005288f, 0.045202f, -0.058092f, -0.001690f, 0.081305f, 0.103265f, -0.064329f, -0.041278f, 0.058737f, 0.034961f, 0.105168f, -0.008811f, -0.066964f, -0.059169f, -0.050680f, -0.106267f, -0.023556f, 0.071245f, 0.028108f, -0.062619f, 0.093067f, -0.065021f, -0.009833f, 0.026429f, -0.111937f, 0.019869f, -0.011999f, 0.021788f, 0.037023f, -0.011658f, 0.001922f, -0.181343f, -0.079968f, 0.085691f, 0.078804f, 0.127678f, 0.056943f, 0.125797f, 0.078370f, 0.003711f, 0.121952f, -0.038467f, -0.093353f, 0.071206f, 0.023887f, -0.063336f, -0.109936f, -0.035564f, 0.064729f, 0.122107f, -0.019823f, -0.042149f, 0.110100f, -0.072170f, -0.020596f, 0.094755f, -0.099033f, 0.034925f, -0.020202f, -0.023654f, 0.035823f, 0.001426f, 0.132157f, -0.096863f, -0.076165f, 0.003748f, -0.046234f, 0.010617f, -0.069414f, -0.026251f, -0.024045f, 0.089004f, 0.024598f, 0.073803f, -0.081784f, -0.084616f, -0.072022f, -0.029145f, -0.122356f, 0.026733f, 0.043312f, -0.013417f, -0.040108f, -0.029512f, 0.072074f, 0.026063f, 0.030721f, -0.054530f, 0.032185f, -0.072597f, 0.082155f, -0.012832f, 0.101091f, -0.050711f, -0.044193f, 0.015436f, 0.048798f, 0.099425f, -0.013176f, -0.005245f, 0.016999f, 0.066134f, 0.021988f, 0.067534f, 0.026904f, 0.012854f, -0.008604f, -0.071406f, 0.046385f, -0.057604f, 0.016136f, -0.068884f, -0.029657f, 0.107643f, 0.086852f, -0.125543f, -0.018649f, 0.018973f, 0.020829f, 0.017656f, -0.050174f, 0.038479f, -0.047736f, 0.024080f, -0.016581f, 0.153726f, 0.073720f, -0.027650f, -0.058689f, 0.019465f, -0.041223f, -0.047363f, 0.080467f, 0.022611f, 0.007175f, 0.000318f, 0.128284f, -0.012566f, 0.041764f, -0.087278f, 0.024085f, -0.084472f, -0.005465f, -0.104376f, 0.005042f, -0.027494f, 0.098375f, -0.092535f, 0.075623f, -0.091955f, 0.031280f, -0.002950f, 0.012084f, 0.038612f, 0.041611f, 0.070467f, 0.086814f, 0.003508f, 0.016454f, -0.177505f, -0.017707f, -0.014923f, 0.012398f, 0.143038f, -0.012836f, 0.106876f, 0.112077f, 0.066296f, 0.144783f, -0.058729f, -0.107624f, 0.000833f, -0.080705f, -0.122219f, -0.057741f, 0.016475f, 0.026122f, 0.054222f, 0.060296f, -0.003166f, -0.044144f, -0.010676f, -0.020653f, 0.079510f, -0.122787f, 0.074958f, 0.058596f, 0.008985f, -0.013336f, 0.062839f, 0.087477f, -0.081964f, 0.005694f, 0.059321f, -0.023627f, 0.047806f, -0.025922f, -0.067769f, -0.017071f, 0.140057f, 0.078765f, 0.025626f, -0.010439f, -0.090156f, 0.007325f, 0.026920f, -0.045102f, 0.015578f, 0.049786f, 0.003723f, -0.038063f, -0.055868f, 0.082834f, 0.015416f, -0.002509f, -0.023579f, -0.020221f, -0.028749f, 0.066449f, 0.021414f, 0.098463f, -0.050635f, -0.025805f, -0.035423f, 0.043042f, -0.017414f, -0.018021f, -0.035485f, 0.003278f, 0.059461f, -0.062050f, 0.001622f, 0.119025f, 0.026267f, -0.034375f, 0.021710f, 0.119915f, 0.034566f, 0.058610f, -0.026691f, -0.026138f, -0.008319f, 0.073253f, -0.101354f, 0.110134f, -0.029696f, 0.048625f, -0.050786f, -0.151992f, -0.084494f, -0.033151f, -0.058481f, 0.040777f, 0.133587f, 0.086534f, 0.031405f, -0.072207f, 0.100027f, -0.009313f, -0.042168f, 0.089630f, 0.004910f, 0.026027f, 0.042906f, 0.031759f, 0.007204f, 0.086023f, 0.025404f, -0.029500f, -0.022998f, -0.070749f, -0.046070f, -0.030056f, 0.099870f, 0.073514f, -0.005128f, 0.146372f, -0.083761f, 0.019887f, -0.029827f, -0.101323f, -0.066216f, 0.056159f, -0.026154f, -0.053884f, -0.102237f, -0.089357f, -0.049901f, 0.003245f, 0.102897f, 0.054879f, 0.060477f, 0.069204f, 0.049937f, 0.017607f, -0.023221f, -0.012331f, -0.026275f, -0.067433f, 0.027914f, -0.098460f, -0.073063f, -0.015038f, -0.082758f, -0.018876f, 0.156787f, -0.026131f, -0.002804f, 0.014174f, -0.082176f, -0.058628f, 0.119107f, -0.093580f, 0.017298f, 0.033457f, -0.059918f, -0.023020f, -0.030784f, 0.071382f, -0.139405f, -0.046412f, 0.020459f, 0.044543f, -0.061913f, -0.005116f, -0.035793f, 0.015110f, 0.075993f, 0.052494f, 0.090268f, 0.040629f, -0.073915f, -0.040274f, 0.013050f, 0.010060f, 0.042154f, 0.007140f, -0.071659f, 0.019224f, -0.032678f, 0.050446f, -0.022195f, 0.041847f, -0.096165f, 0.061705f, -0.047213f, 0.006975f, 0.013593f, 0.135231f, -0.073683f, -0.044321f, -0.012497f, -0.000624f, 0.053197f, -0.009864f, -0.009523f, 0.006678f, -0.036092f, -0.013765f, 0.043963f, 0.081133f, -0.057757f, -0.046448f, -0.073622f, 0.041225f, -0.063204f, -0.005790f, 0.017305f, -0.026599f, 0.126052f, 0.158264f, -0.062263f, -0.013708f, -0.077836f, 0.085991f, -0.057699f, -0.154825f, -0.025506f, 0.029813f, 0.045169f, -0.042054f, 0.100511f, 0.003583f, -0.014970f, 0.035100f, 0.003465f, -0.121280f, -0.088901f, 0.110019f, 0.041422f, 0.008215f, 0.018987f, 0.034571f, -0.039070f, 0.056699f, -0.093446f, -0.037160f, -0.027437f, -0.082257f, -0.038364f, -0.012901f, 0.005288f, 0.106844f, -0.059417f, 0.083044f, 0.017873f, -0.005899f, 0.037555f, -0.070178f, -0.002560f, 0.136986f, 0.064067f, 0.009857f, -0.010216f, -0.095315f, -0.175741f, -0.055753f, 0.037827f, 0.043599f, 0.108259f, 0.067649f, 0.087590f, 0.003338f, -0.032359f, -0.038712f, 0.036767f, -0.059897f, 0.036989f, -0.069591f, -0.075370f, -0.057296f, -0.056841f, -0.059567f, 0.129697f, -0.021751f, 0.048431f, -0.031384f, -0.101611f, -0.091747f, 0.145669f, -0.048622f, 0.034410f, -0.007977f, 0.047349f, -0.073177f, 0.037713f, 0.101304f, -0.025062f, -0.052027f, 0.004261f, -0.060340f, 0.032760f, 0.015160f, 0.022036f, -0.063338f, 0.035824f, -0.067151f, 0.122530f, 0.014213f, 0.021351f, -0.080859f, -0.005348f, -0.011369f, -0.027459f, 0.067557f, 0.036443f, 0.078381f, -0.044995f, 0.021548f, -0.047863f, 0.067870f, -0.128388f, 0.045455f, -0.018113f, 0.031442f, 0.079701f, 0.061021f, -0.045663f, -0.069955f, -0.077277f, 0.012472f, 0.030864f, 0.028378f, 0.073565f, -0.049433f, -0.031125f, 0.030566f, -0.009211f, 0.000893f, -0.044227f, -0.041855f, -0.086036f, 0.147255f, -0.044236f, 0.031642f, -0.063408f, 0.008186f, 0.089706f, 0.130231f, -0.028767f, 0.036452f, 0.017147f, 0.096881f, -0.021743f, -0.143891f, -0.119692f, -0.061552f, 0.056621f, -0.007820f, 0.066274f, 0.126766f, 0.084008f, 0.018438f, 0.024306f, -0.064347f, -0.032553f, -0.010821f, -0.066689f, -0.027880f, -0.018006f, 0.100646f, -0.104388f, 0.118398f, -0.012860f, -0.064639f, -0.085506f, -0.042775f, 0.017807f, 0.019750f, -0.013449f, -0.001782f, -0.049536f, 0.150499f, -0.046634f, 0.075725f, 0.050876f, 0.011032f, 0.029497f, 0.074226f, 0.054223f, 0.097751f, -0.093877f, -0.080336f, -0.166036f, 0.033513f, 0.105836f, -0.030121f, 0.084741f, -0.001670f, 0.031529f, 0.082309f, 0.008259f, -0.030198f, 0.039381f, -0.017931f, -0.081155f, 0.008986f, 0.004518f, -0.083301f, -0.071097f, 0.020416f, 0.070414f, 0.108569f, 0.065554f, 0.065647f, -0.089668f, 0.002868f, 0.114920f, -0.046759f, -0.062372f, -0.006443f, 0.028406f, -0.042253f, -0.037004f, 0.116941f, -0.115951f, -0.012801f, 0.051856f, 0.069908f, 0.031434f, 0.011511f, -0.059120f, -0.038154f, 0.105152f, -0.024846f, 0.011672f, -0.068316f, -0.050587f, -0.042073f, 0.053038f, -0.068610f, 0.000167f, 0.059443f, 0.034847f, -0.003140f, -0.079222f, 0.015388f, 0.053991f, -0.059107f, 0.029414f, 0.063060f, -0.032477f, -0.044688f, 0.007348f, 0.053945f, -0.072766f, 0.028150f, 0.001738f, 0.070775f, 0.083735f, -0.066276f, -0.014000f, -0.040026f, 0.004657f, 0.026058f, 0.078389f, -0.013403f, 0.016350f, -0.051540f, -0.049451f, 0.118311f, 0.012129f, 0.040485f, -0.050946f, -0.013326f, 0.026739f, 0.072232f, -0.069223f, 0.036545f, 0.001275f, -0.015734f, -0.094639f, -0.114543f, -0.094589f, 0.045655f, -0.009033f, -0.003874f, 0.026675f, 0.139439f, 0.032973f, -0.077802f, 0.062696f, -0.062732f, 0.058388f, -0.037057f, 0.042320f, 0.087673f, 0.067483f, 0.047707f, -0.039729f, 0.074302f, 0.018980f, 0.002953f, -0.021541f, -0.038495f, 0.052939f, 0.092983f, -0.000538f, 0.111759f, -0.050192f, 0.144673f, -0.027910f, 0.033656f, 0.065764f, -0.058100f, 0.027422f, 0.028493f, 0.018878f, 0.015771f, -0.052741f, -0.079732f, -0.149293f, -0.061578f, -0.018729f, 0.094359f, 0.127801f, -0.007967f, 0.131342f, -0.010389f, 0.073397f, 0.090721f, 0.109462f, -0.078226f, 0.008581f, -0.055268f, 0.082042f, -0.067088f, 0.009765f, 0.030032f, 0.122701f, 0.018931f, 0.086074f, -0.064625f, -0.008940f, -0.092402f, 0.111035f, 0.002520f, -0.001080f, 0.017439f, -0.038772f, -0.033267f, 0.021542f, 0.147027f, -0.119653f, -0.031424f, -0.016441f, -0.037454f, 0.002936f, 0.029190f, -0.111254f, -0.065721f, 0.003075f, 0.047653f, 0.098931f, -0.067984f, -0.089058f, 0.061120f, 0.035244f, -0.040379f, -0.026663f, -0.034221f, 0.005555f, 0.000206f, -0.119457f, 0.051690f, -0.085034f, 0.047024f, -0.058836f, -0.023763f, -0.015329f, -0.022856f, 0.079452f, 0.059017f, -0.042029f, 0.046561f, -0.063475f, 0.125439f, 0.015465f, 0.034166f, -0.040973f, 0.005758f, 0.029963f, 0.027887f, 0.011641f, 0.020763f, 0.083157f, 0.000903f, -0.093601f, 0.041601f, -0.077591f, 0.081603f, -0.071861f, -0.032560f, 0.091193f, 0.028084f, -0.026992f, -0.025373f, -0.043482f, 0.029927f, -0.080901f, -0.099018f, -0.010725f, 0.047493f, 0.100731f, -0.030239f, 0.006197f, 0.042385f, 0.002182f, -0.060930f, 0.104521f, -0.151884f, -0.089653f, -0.011767f, -0.004150f, -0.004753f, 0.030690f, -0.009462f, -0.002700f, 0.134490f, -0.058346f, -0.016961f, -0.019357f, -0.076633f, 0.059219f, 0.087003f, 0.071363f, 0.095129f, -0.064367f, 0.018584f, 0.009969f, 0.034646f, 0.011378f, -0.028955f, -0.088181f, 0.118326f, -0.028141f, 0.131403f, 0.019764f, -0.000565f, -0.030952f, 0.003620f, 0.113006f, -0.038255f, 0.052587f, -0.005266f, 0.051116f, 0.011618f, 0.045117f, 0.031059f, 0.095068f, -0.101058f, 0.038349f, 0.009615f, 0.072371f, 0.052174f, 0.038195f, -0.071330f, 0.108156f, 0.015450f, 0.093259f, 0.046321f, -0.049118f, -0.090264f, 0.189191f, -0.050578f, 0.071931f, -0.013424f, -0.049678f, 0.023083f, 0.015219f, 0.123289f, -0.071123f, 0.009959f, 0.008966f, 0.051835f, 0.025174f, 0.025577f, -0.073236f, -0.069790f, 0.094219f, -0.037458f, 0.051781f, -0.064628f, -0.044620f, 0.082031f, -0.082962f, -0.108972f, -0.013143f, 0.056919f, 0.058569f, -0.050947f, 0.012904f, 0.008874f, -0.000239f, 0.050464f, -0.018385f, 0.045492f, -0.118172f, -0.101524f, -0.027895f, -0.018442f, 0.007198f, 0.015398f, -0.002009f, 0.016082f, -0.027319f, 0.039529f, 0.075927f, -0.034975f, 0.071962f, -0.012440f, 0.050076f, 0.089783f, -0.038129f, -0.144941f, -0.006725f, -0.000487f, -0.015429f, 0.046542f, -0.051617f, 0.042111f, -0.011566f, 0.085973f, 0.006532f, 0.035560f, 0.020061f, 0.062527f, -0.053453f, 0.027843f, -0.041564f, -0.044384f, 0.024079f, 0.004361f, 0.051227f, 0.082964f, 0.045078f, -0.155487f, 0.114175f, -0.119626f, 0.016715f, -0.010675f, -0.050113f, -0.009624f, -0.069446f, 0.078744f, -0.024868f, 0.092904f, -0.111161f, 0.012472f, 0.041753f, 0.011677f, -0.026913f, -0.020652f, 0.069480f, 0.027733f, -0.084880f, -0.010603f, -0.019946f, 0.111260f, 0.044980f, 0.006467f, -0.058341f, -0.006775f, 0.034217f, 0.067642f, -0.029280f, -0.019239f, -0.094102f, -0.044324f, 0.039152f, -0.090288f, 0.033937f, 0.034180f, 0.046164f, 0.059861f, 0.117492f, 0.085897f, 0.071770f, -0.012633f, -0.047832f, -0.053302f, 0.003248f, 0.079647f, 0.027516f, -0.035007f, -0.027028f, 0.094788f, -0.012966f, -0.018261f, 0.009877f, 0.007213f, 0.180758f, 0.044006f, 0.027689f, 0.061672f, 0.019933f, -0.076506f, -0.090978f, 0.025870f, -0.030401f, 0.007231f, 0.037835f, -0.026121f, -0.058497f, 0.089746f, -0.112965f, -0.038809f, 0.043609f, 0.022716f, -0.044104f, -0.088968f, -0.143577f, 0.058937f, -0.028048f, -0.070105f, 0.070869f, 0.085741f, -0.045547f, 0.020985f, -0.001273f, -0.033116f, -0.013025f, 0.021461f, 0.079308f, 0.069592f, -0.023162f, 0.000349f, 0.003220f, 0.077808f, -0.021410f, -0.002705f, 0.023584f, 0.095884f, -0.007925f, 0.069569f, -0.035100f, -0.008687f, -0.014362f, 0.015795f, 0.079571f, 0.053827f, 0.045703f, -0.094875f, 0.045795f, 0.000215f, -0.073271f, 0.103715f, -0.051094f, -0.023678f, 0.041986f, 0.136740f, -0.034956f, -0.091459f, -0.039901f, 0.034264f, -0.129040f, -0.021097f, 0.075096f, 0.031544f, 0.039905f, 0.018235f, -0.024988f, 0.117337f, 0.020368f, -0.087380f, 0.092190f, -0.100857f, 0.000887f, -0.108264f, 0.019217f, 0.116132f, 0.044729f, 0.066011f, -0.126194f, 0.056401f, -0.032974f, 0.036375f, -0.032663f, -0.086493f, -0.030349f, 0.058000f, -0.007332f, 0.084488f, -0.079340f, -0.045635f, -0.005921f, 0.103820f, 0.063321f, 0.006436f, -0.080245f, 0.099772f, 0.017718f, 0.023463f, -0.014895f, 0.048564f, -0.055250f, 0.015270f, -0.001999f, -0.090704f, 0.085550f, -0.022688f, 0.001018f, 0.093266f, 0.115476f, 0.003021f, 0.131503f, -0.125283f, -0.009789f, -0.005063f, 0.077519f, 0.071887f, -0.040344f, 0.058564f, -0.044835f, 0.122014f, 0.125357f, -0.061656f, 0.019609f, -0.082330f, 0.140749f, 0.018304f, 0.031414f, 0.076104f, 0.032296f, -0.017811f, 0.024895f, 0.108053f, -0.082126f, 0.066404f, -0.073369f, 0.075172f, -0.054246f, -0.019617f, -0.080234f, -0.011030f, 0.004175f, -0.062940f, 0.033455f, 0.039084f, -0.079823f, -0.014012f, -0.029298f, -0.100675f, 0.102372f, 0.088524f, 0.041649f, -0.004644f, 0.032276f, 0.013816f, 0.057141f, -0.002912f, 0.060579f, 0.054573f, -0.051278f, 0.013763f, 0.047680f, 0.085024f, -0.071106f, 0.065516f, 0.010878f, 0.053885f, -0.080568f, 0.030975f, 0.061771f, 0.042384f, 0.025588f, 0.001924f, -0.026242f, 0.050559f, -0.003347f, -0.134977f, -0.045668f, -0.008322f, -0.134351f, 0.019739f, 0.000123f, 0.060778f, 0.006048f, 0.114964f, -0.056160f, -0.031846f, -0.066576f, -0.029590f, -0.059942f, -0.048496f, 0.086054f, 0.067328f, 0.122122f, -0.023875f, -0.052304f, -0.009324f, -0.010916f, -0.072193f, 0.100008f, -0.140313f, 0.026791f, -0.011368f, -0.051602f, -0.004049f, 0.009790f, -0.072851f, -0.132005f, 0.080113f, -0.103178f, 0.004504f, 0.029385f, -0.037093f, 0.103072f, 0.028447f, 0.013725f, 0.066372f, -0.094281f, -0.052173f, 0.044205f, 0.119450f, -0.009383f, 0.004855f, -0.069565f, -0.040157f, -0.032326f, 0.053967f, -0.089442f, 0.057742f, -0.027350f, 0.069838f, 0.028338f, -0.050523f, 0.039883f, -0.098490f, 0.033173f, 0.065081f, 0.095944f, 0.010667f, 0.100620f, -0.010500f, -0.057773f, -0.051538f, 0.000663f, 0.054826f, 0.072183f, -0.054409f, 0.047142f, 0.108342f, 0.000480f, -0.043064f, -0.012218f, 0.036634f, 0.115033f, 0.084573f, 0.013989f, 0.050334f, -0.020074f, -0.000056f, 0.024204f, 0.081900f, 0.043537f, -0.066986f, 0.003604f, -0.015686f, -0.043345f, 0.045021f, -0.082258f, -0.025758f, 0.062264f, -0.059144f, 0.019190f, -0.045274f, -0.079412f, -0.027075f, 0.078440f, 0.011282f, 0.117694f, 0.114967f, 0.000222f, -0.009842f, 0.020754f, -0.000457f, -0.009519f, -0.043422f, 0.020008f, 0.065382f, -0.094067f, -0.042543f, 0.016795f, 0.072150f, -0.060499f, 0.083602f, -0.063814f, 0.083257f, -0.001849f, -0.003915f, -0.017063f, 0.063161f, 0.092534f, 0.023944f, 0.054287f, 0.043812f, 0.052641f, -0.160451f, -0.035880f, 0.030370f, -0.065232f, 0.046102f, -0.018813f, -0.016004f, 0.025258f, 0.050130f, 0.035881f, -0.136624f, 0.015264f, 0.094363f, -0.098065f, -0.079577f, -0.029356f, 0.102312f, 0.049252f, 0.020386f, -0.009724f, 0.114236f, -0.008603f, -0.163969f, 0.137480f, -0.031978f, 0.011765f, -0.061098f, 0.029108f, 0.043727f, 0.098744f, 0.031510f, -0.085334f, 0.030294f, -0.086925f, -0.000151f, -0.031387f, -0.095324f, 0.016434f, 0.086365f, 0.014077f, 0.103496f, -0.087166f, -0.041500f, -0.015130f, 0.099171f, -0.045088f, -0.025014f, -0.065724f, 0.048279f, -0.076546f, 0.133465f, -0.015041f, 0.055436f, 0.017972f, -0.064500f, -0.007051f, 0.018003f, 0.041994f, -0.054495f, 0.088482f, 0.062524f, 0.124895f, 0.068348f, 0.135317f, -0.091371f, 0.075826f, -0.069872f, -0.033158f, 0.080757f, -0.013519f, -0.035390f, -0.060281f, 0.099494f, 0.048803f, -0.000172f, -0.034509f, 0.016617f, 0.173893f, -0.010451f, 0.028058f, -0.000992f, 0.072906f, 0.033662f, 0.030505f, -0.010129f, 0.055557f, 0.022354f, 0.008200f, 0.070202f, -0.019700f, -0.000194f, -0.044668f, 0.027857f, -0.020211f, -0.060408f, -0.021724f, -0.064957f, -0.033327f, 0.044522f, 0.074507f, -0.079818f, 0.060211f, 0.001933f, 0.028547f, 0.051038f, 0.064207f, -0.015593f, 0.054216f, 0.043674f, 0.073800f, 0.027179f, 0.035404f, -0.061203f, -0.021407f, -0.007152f, 0.000334f, -0.008572f, -0.036069f, 0.076099f, -0.027606f, 0.064442f, -0.023573f, 0.078766f, 0.147103f, 0.014110f, -0.032310f, 0.040815f, 0.108447f, -0.070074f, 0.006760f, 0.011109f, -0.074245f, 0.045349f, -0.031589f, 0.028802f, 0.069656f, 0.120959f, -0.039921f, 0.019837f, -0.012343f, 0.045076f, 0.006246f, -0.042783f, 0.086266f, 0.068166f, 0.095681f, -0.024299f, 0.028213f, 0.081623f, 0.082455f, -0.113207f, 0.147217f, -0.079758f, -0.084595f, -0.068885f, -0.020161f, 0.101055f, 0.060552f, -0.078028f, -0.014661f, 0.090427f, -0.086498f, 0.085630f, 0.028633f, -0.034422f, 0.008708f, 0.087673f, 0.046745f, 0.106573f, -0.056308f, 0.061187f, 0.049745f, 0.104730f, -0.011398f, 0.045787f, -0.025320f, -0.074697f, -0.024179f, 0.175263f, -0.078569f, 0.089361f, -0.034024f, -0.008668f, 0.007879f, -0.082988f, 0.079604f, -0.088518f, 0.107003f, 0.039613f, 0.020118f, -0.057177f, 0.113555f, 0.021955f, 0.001683f, -0.022898f, 0.007232f, 0.014209f, 0.018297f, 0.073151f, -0.000906f, 0.040847f, -0.031479f, 0.034252f, -0.050534f, -0.062951f, 0.156631f, 0.004640f, 0.018396f, 0.019401f, 0.054563f, -0.032638f, -0.004219f, 0.061171f, -0.029454f, -0.005887f, -0.040702f, 0.084587f, -0.016235f, 0.033204f, -0.043288f, 0.059373f, -0.032826f, 0.045353f, -0.065050f, -0.119681f, -0.044786f, 0.019862f, -0.006411f, -0.090826f, 0.133080f, 0.090033f, 0.100371f, -0.054846f, -0.056516f, -0.053213f, 0.025941f, 0.079267f, 0.030384f, 0.042254f, -0.021674f, -0.076419f, 0.008657f, 0.062693f, 0.040358f, 0.010235f, -0.046505f, 0.178776f, -0.113882f, -0.046691f, -0.036325f, -0.042162f, 0.078302f, 0.013111f, 0.000515f, -0.015599f, 0.052846f, -0.082850f, 0.106745f, 0.032662f, -0.126951f, 0.090182f, -0.005882f, 0.108631f, 0.002407f, 0.101182f, 0.083922f, -0.054769f, 0.003786f, 0.105354f, 0.025576f, -0.113457f, 0.055217f, 0.062885f, -0.042568f, 0.043096f, -0.065479f, 0.069179f, 0.022957f, 0.009546f, 0.019106f, -0.039224f, -0.062023f, -0.105248f, -0.070260f, 0.009916f, 0.109033f, -0.054581f, -0.084530f, 0.041564f, 0.029742f, 0.112955f, 0.024662f, -0.098162f, -0.016817f, 0.104729f, -0.072262f, 0.009742f, -0.014823f, -0.036407f, -0.034737f, 0.098657f, -0.034141f, 0.032045f, -0.116710f, -0.082570f, 0.048563f, 0.043859f, 0.074405f, 0.019720f, -0.134136f, 0.040929f, 0.009133f, 0.002523f, -0.045698f, 0.019069f, 0.002705f, 0.070663f, 0.090283f, 0.069608f, 0.172779f, 0.000955f, 0.088003f, -0.034649f, -0.011129f, -0.012586f, 0.000187f, 0.009175f, -0.011391f, -0.016266f, 0.051493f, -0.094541f, -0.043418f, -0.009187f, 0.162979f, 0.018198f, 0.064649f, -0.033993f, 0.018915f, -0.055981f, -0.076280f, 0.013026f, -0.084252f, -0.036766f, 0.061240f, 0.120351f, -0.032679f, -0.010792f, -0.079031f, -0.025491f, 0.023038f, -0.066066f, -0.012398f, -0.113239f, 0.113928f, 0.041706f, 0.049762f, -0.057904f, 0.079723f, 0.013517f, 0.019628f, 0.046264f, 0.058941f, 0.081814f, 0.021530f, 0.066042f, -0.006082f, 0.045584f, -0.038341f, -0.048552f, 0.017257f, -0.004157f, 0.020327f, 0.115750f, 0.003542f, 0.058783f, -0.140984f, -0.015452f, -0.009859f, 0.026175f, 0.095347f, -0.002014f, -0.013937f, 0.030174f, -0.052705f, -0.080345f, 0.120676f, -0.092303f, -0.109381f, 0.108543f, -0.024028f, 0.047133f, -0.087477f, 0.026862f, 0.019799f, -0.089462f, 0.012978f, -0.022804f, -0.031375f, -0.083205f, -0.038091f, 0.072259f, -0.037530f, 0.128686f, -0.105765f, 0.012505f, -0.015215f, -0.067088f, 0.137581f, -0.065228f, 0.034796f, -0.099452f, 0.039821f, 0.036721f, 0.150749f, -0.013875f, -0.074338f, 0.006686f, -0.054753f, 0.103435f, -0.010563f, -0.104782f, 0.072736f, 0.004517f, 0.028963f, 0.053269f, 0.042754f, 0.038192f, -0.077265f, 0.016634f, 0.008026f, -0.024171f, -0.006622f, 0.054605f, -0.020985f, 0.055827f, 0.103781f, 0.010048f, -0.079605f, -0.049081f, 0.104426f, -0.042281f, 0.035828f, 0.003832f, 0.044224f, 0.065423f, 0.094308f, -0.008660f, 0.142109f, 0.024968f, 0.032005f, 0.026904f, 0.074906f, 0.065086f, -0.028543f, -0.028509f, -0.030149f, 0.059246f, 0.003933f, -0.012814f, -0.056196f, -0.001442f, 0.061298f, 0.006368f, 0.051801f, -0.057585f, -0.033073f, 0.023172f, -0.055632f, -0.003048f, 0.033387f, 0.023009f, 0.066799f, 0.053107f, -0.007261f, 0.121970f, -0.012229f, 0.039760f, -0.093452f, -0.002037f, -0.095491f, -0.086501f, -0.018259f, -0.020732f, 0.094313f, -0.060144f, 0.079299f, 0.103047f, 0.058925f, -0.073743f, 0.035587f, 0.036952f, 0.031646f, 0.056378f, 0.135204f, 0.068676f, -0.033468f, -0.019286f, -0.035619f, 0.106419f, -0.047860f, 0.045507f, 0.080736f, 0.108537f, -0.100892f, 0.018452f, 0.076488f, -0.020605f, 0.111753f, -0.093214f, 0.042564f, -0.000309f, -0.046522f, -0.113333f, 0.063793f, -0.006658f, -0.057279f, 0.052842f, -0.059458f, -0.039849f, -0.074091f, 0.010598f, 0.050459f, 0.007044f, 0.019153f, -0.020344f, 0.055311f, 0.028185f, 0.099465f, 0.113927f, -0.023168f, -0.003255f, -0.020400f, -0.041053f, 0.030779f, -0.036145f, 0.062575f, -0.012987f, -0.099913f, -0.085019f, 0.040206f, 0.090891f, 0.106194f, 0.043186f, -0.043144f, 0.046346f, -0.042552f, 0.096318f, 0.039313f, -0.075540f, 0.005427f, 0.031439f, -0.047515f, 0.053377f, -0.002244f, 0.018945f, -0.047521f, 0.011024f, -0.000247f, 0.028435f, -0.052024f, -0.053907f, 0.035122f, 0.062841f, 0.104238f, 0.101614f, -0.064758f, -0.068601f, 0.069546f, -0.099902f, -0.030190f, -0.062841f, 0.148260f, -0.038039f, 0.070454f, 0.036844f, 0.083132f, -0.102586f, 0.091539f, 0.028871f, 0.067852f, -0.027644f, 0.004066f, 0.025973f, -0.075151f, -0.029403f, 0.069682f, -0.073879f, -0.096227f, -0.011212f, 0.157225f, -0.079712f, 0.034629f, -0.070991f, -0.075630f, -0.060558f, -0.017091f, -0.021805f, -0.109270f, -0.020005f, 0.058775f, 0.020077f, -0.004224f, 0.001133f, 0.022770f, 0.029335f, -0.058729f, -0.045785f, -0.066857f, -0.104971f, 0.038865f, -0.032843f, 0.089199f, 0.072210f, 0.132762f, 0.103446f, 0.055949f, 0.012155f, -0.022687f, 0.038038f, -0.010254f, 0.001272f, 0.096223f, 0.033095f, -0.020976f, 0.031006f, -0.043089f, 0.045880f, 0.060328f, 0.076170f, 0.023507f, 0.043527f, -0.107637f, 0.064587f, 0.044114f, -0.008813f, -0.015395f, -0.104789f, 0.053243f, -0.091529f, 0.002542f, -0.157197f, 0.148643f, 0.028387f, -0.048090f, -0.031312f, -0.029410f, 0.020329f, -0.025109f, 0.091090f, 0.069244f, -0.005226f, 0.015186f, -0.036999f, -0.023585f, -0.038305f, 0.109858f, 0.158564f, 0.024357f, 0.032240f, -0.119265f, 0.030843f, 0.054266f, -0.067898f, 0.067869f, -0.108058f, -0.083369f, -0.073464f, -0.031039f, 0.086155f, 0.018523f, -0.083826f, -0.132273f, 0.062403f, 0.007434f, 0.074114f, -0.038994f, -0.150682f, -0.019406f, 0.042092f, 0.055604f, -0.018994f, 0.039975f, 0.016431f, 0.011312f, 0.116112f, -0.044300f, 0.077615f, 0.001891f, 0.048556f, 0.058452f, 0.049471f, 0.111345f, -0.001889f, -0.060380f, -0.005128f, 0.068996f, 0.031748f, -0.082485f, -0.001715f, 0.091592f, -0.042416f, 0.050737f, -0.044548f, 0.039432f, 0.038936f, 0.064955f, 0.069123f, 0.111321f, -0.017448f, 0.061051f, 0.024596f, 0.025692f, -0.028103f, 0.092471f, -0.079390f, -0.060285f, 0.029099f, 0.082655f, -0.002797f, 0.006335f, 0.020616f, -0.044527f, -0.066198f, -0.091866f, 0.023067f, -0.100722f, -0.020772f, -0.015486f, -0.033527f, 0.027488f, 0.118037f, 0.022695f, 0.044211f, -0.041185f, -0.049968f, -0.009850f, -0.056216f, 0.053477f, -0.029985f, 0.078529f, 0.043800f, 0.002385f, 0.027941f, 0.113105f, 0.006838f, -0.005275f, 0.098956f, 0.029273f, -0.011660f, 0.076027f, 0.109324f, -0.014069f, -0.027763f, 0.003435f, 0.112140f, 0.044301f, 0.013881f, 0.056095f, 0.047946f, -0.134055f, 0.041942f, 0.023029f, 0.031958f, -0.041468f, -0.019562f, -0.004867f, -0.150103f, 0.051044f, -0.075722f, 0.091888f, -0.039711f, -0.004591f, -0.019903f, -0.091476f, -0.095355f, -0.053379f, 0.059238f, 0.062554f, -0.073729f, -0.064394f, -0.024542f, 0.092965f, -0.015631f, 0.106147f, 0.115727f, -0.039345f, 0.124357f, -0.083666f, 0.043189f, 0.121622f, -0.069199f, -0.022452f, 0.006922f, -0.091883f, -0.104692f, -0.046530f, -0.078915f, 0.107830f, -0.070438f, -0.086929f, 0.027258f, 0.032282f, -0.026274f, 0.088580f, -0.140808f, 0.045972f, 0.054873f, -0.007159f, 0.041719f, 0.030800f, -0.060651f, 0.082069f, 0.106078f, -0.027688f, 0.053668f, 0.019309f, 0.052660f, 0.034864f, 0.035828f, 0.016485f, 0.089555f, -0.063632f, -0.037667f, -0.016379f, -0.063286f, -0.051308f, 0.034495f, -0.044364f, 0.042473f, -0.001505f, -0.096768f, 0.041407f, -0.000581f, 0.011458f, -0.001134f, -0.043711f, -0.021578f, 0.057488f, 0.106973f, -0.047573f, 0.015914f, 0.075104f, -0.097961f, 0.009711f, 0.061851f, 0.005806f, -0.053396f, 0.069324f, -0.017906f, -0.060404f, -0.047040f, -0.065941f, 0.044947f, -0.004489f, 0.086969f, -0.031442f, 0.030380f, 0.007698f, 0.042033f, 0.013981f, 0.100400f, -0.004537f, -0.042581f, -0.023633f, -0.070237f, 0.054394f, 0.060124f, 0.043411f, 0.114686f, 0.077657f, 0.021061f, 0.083568f, 0.001335f, -0.004911f, 0.037172f, -0.029143f, 0.034980f, 0.041799f, 0.076245f, 0.000388f, -0.035424f, 0.049990f, 0.019126f, -0.016943f, 0.080608f, -0.024739f, -0.040793f, -0.050478f, 0.028726f, 0.014807f, 0.059441f, -0.001042f, -0.033882f, -0.045683f, -0.068309f, 0.019901f, -0.059652f, 0.148956f, -0.084307f, -0.096116f, 0.002162f, -0.040300f, 0.006470f, -0.081135f, 0.057767f, 0.138038f, -0.056325f, -0.028597f, 0.038676f, 0.116922f, -0.011064f, -0.018788f, 0.115976f, 0.062523f, 0.002686f, -0.022115f, -0.058258f, -0.023260f, -0.002557f, 0.016215f, -0.035464f, -0.041973f, -0.073745f, -0.031460f, -0.074493f, 0.120103f, -0.015535f, -0.071710f, 0.021074f, 0.128421f, -0.029084f, 0.079390f, -0.012060f, 0.033389f, -0.064535f, 0.006770f, -0.030763f, 0.038153f, 0.005705f, -0.013200f, 0.077869f, -0.067236f, 0.057990f, -0.065706f, -0.072546f, -0.017732f, 0.114348f, -0.019710f, -0.012021f, -0.002956f, -0.042081f, 0.001426f, -0.066208f, -0.085434f, -0.076185f, -0.012638f, 0.024653f, 0.078024f, -0.087557f, 0.027163f, -0.017938f, 0.097070f, 0.085039f, 0.078260f, -0.027642f, -0.105140f, 0.027223f, -0.039535f, -0.005859f, 0.011514f, 0.034580f, 0.015502f, -0.002805f, 0.071981f, -0.021857f, -0.052509f, -0.000379f, -0.074911f, -0.028964f, -0.092024f, 0.052529f, 0.006382f, 0.000599f, 0.056480f, 0.025330f, -0.008845f, 0.084980f, 0.060403f, 0.087351f, -0.100486f, -0.021557f, -0.019731f, 0.033941f, 0.008389f, 0.067296f, 0.041590f, 0.011972f, 0.060463f, 0.010534f, 0.054586f, 0.128761f, 0.026296f, 0.093474f, -0.006128f, -0.064123f, 0.001145f, 0.015489f, -0.023408f, -0.046852f, -0.003484f, 0.040671f, -0.006959f, 0.052026f, -0.053424f, 0.082595f, 0.002232f, 0.071240f, -0.045365f, 0.033491f, 0.017321f, -0.052777f, -0.046667f, -0.066003f, 0.015773f, -0.042578f, 0.143996f, -0.064364f, -0.020624f, -0.071395f, -0.011873f, -0.092179f, -0.058372f, -0.041543f, 0.070654f, -0.080362f, 0.024222f, 0.024306f, 0.007321f, -0.071418f, -0.055932f, 0.126212f, 0.050044f, 0.008084f, -0.119143f, 0.034651f, 0.103445f, 0.058913f, 0.070275f, -0.075869f, -0.099938f, -0.104497f, -0.032977f, -0.106705f, 0.017616f, -0.017413f, 0.018556f, 0.048290f, 0.112577f, 0.042815f, -0.020585f, -0.003016f, -0.022077f, 0.004576f, -0.043416f, 0.101087f, -0.006911f, -0.048444f, 0.103957f, -0.051079f, 0.013370f, 0.061878f, -0.002127f, 0.035406f, 0.105279f, -0.027412f, 0.070642f, 0.043893f, 0.052851f, -0.111117f, 0.024086f, 0.075844f, -0.000548f, -0.013218f, -0.046862f, 0.014351f, 0.102364f, -0.002421f, 0.042003f, -0.051252f, 0.002698f, 0.004728f, 0.102997f, 0.020431f, -0.052687f, 0.055895f, -0.071249f, 0.044676f, -0.052655f, -0.034242f, -0.046107f, 0.051127f, 0.065499f, 0.043079f, -0.036568f, -0.062431f, -0.038601f, 0.005569f, -0.116505f, 0.036971f, 0.016382f, 0.069355f, 0.013269f, 0.036188f, -0.066047f, 0.074533f, 0.093489f, -0.023940f, -0.069565f, 0.001547f, 0.012806f, -0.068413f, 0.075739f, -0.024225f, -0.025401f, 0.123038f, 0.096482f, 0.067291f, -0.040800f, 0.121118f, -0.005632f, 0.049653f, -0.004979f, -0.068306f, 0.067953f, 0.040972f, -0.043264f, -0.052484f, -0.027516f, -0.004527f, 0.025814f, 0.110286f, -0.071245f, -0.037050f, -0.040129f, 0.099960f, -0.015707f, -0.031739f, -0.029115f, -0.122460f, -0.067543f, -0.046928f, -0.023784f, -0.037096f, 0.144264f, -0.026504f, -0.074314f, -0.031452f, -0.101409f, -0.082467f, -0.035995f, 0.031414f, 0.132458f, 0.001596f, -0.039153f, -0.052808f, 0.105978f, 0.003596f, 0.011319f, 0.103850f, 0.063314f, 0.066391f, -0.124032f, 0.018304f, 0.100294f, -0.007003f, 0.075825f, -0.036103f, 0.024948f, -0.115107f, 0.006135f, -0.118438f, 0.074340f, -0.049801f, -0.088849f, 0.038850f, 0.131032f, -0.035360f, -0.020627f, 0.020741f, 0.004165f, 0.024827f, -0.099466f, 0.023541f, -0.026758f, -0.052729f, 0.072926f, 0.019507f, 0.014063f, -0.008944f, -0.048785f, -0.057234f, 0.092882f, -0.010125f, -0.018148f, 0.003824f, 0.072612f, -0.096930f, 0.074134f, -0.011178f, 0.014911f, -0.063713f, 0.022718f, 0.101830f, -0.000574f, 0.025614f, 0.014932f, 0.087749f, 0.029677f, -0.028929f, -0.006927f, -0.006101f, -0.090020f, -0.018280f, -0.066843f, -0.070479f, 0.023451f, -0.072058f, -0.053815f, 0.066731f, -0.001709f, -0.048081f, -0.078037f, 0.000418f, 0.076058f, -0.056174f, -0.021706f, 0.027422f, -0.013433f, 0.036603f, 0.025736f, -0.007521f, -0.061652f, 0.032216f, 0.112093f, 0.037824f, -0.003193f, 0.040859f, -0.087378f, -0.007464f, 0.088719f, 0.076788f, 0.104666f, 0.078107f, 0.025499f, 0.060188f, -0.029270f, 0.119107f, 0.070360f, 0.041347f, 0.015280f, -0.020485f, 0.039826f, -0.018691f, 0.059987f, 0.052294f, 0.074428f, 0.013499f, 0.065830f, 0.105418f, -0.042712f, -0.038207f, -0.070582f, 0.106776f, 0.045391f, 0.014279f, -0.095442f, -0.052540f, -0.077102f, -0.097669f, -0.027234f, -0.082276f, 0.168646f, -0.088927f, 0.003581f, -0.027944f, -0.031679f, -0.087490f, -0.131338f, 0.047933f, 0.027353f, 0.033016f, 0.083268f, -0.041929f, 0.033086f, 0.012148f, 0.044485f, 0.115662f, 0.041373f, 0.076629f, -0.105481f, 0.052750f, 0.106473f, -0.023965f, 0.021764f, -0.060707f, -0.074344f, 0.010829f, -0.023184f, -0.135170f, 0.018823f, 0.053709f, -0.020105f, 0.018722f, 0.011863f, 0.072171f, 0.062994f, -0.035945f, -0.066405f, -0.098428f, -0.107959f, -0.007645f, 0.078417f, -0.006518f, 0.088272f, -0.021855f, -0.004675f, 0.033466f, -0.083048f, -0.086309f, 0.040300f, -0.058572f, 0.001125f, 0.032443f, 0.132650f, -0.053906f, 0.053132f, 0.020068f, -0.010867f, -0.012721f, 0.038779f, 0.045396f, 0.054416f, -0.021479f, -0.018275f, -0.022818f, -0.054639f, -0.078517f, 0.085965f, -0.010745f, -0.076323f, 0.088268f, -0.035226f, -0.055022f, -0.091474f, 0.055819f, 0.059075f, 0.095922f, 0.017360f, 0.047368f, -0.088454f, -0.134513f, -0.042562f, -0.030551f, -0.046814f, 0.013252f, -0.110331f, -0.005206f, 0.045991f, 0.010989f, 0.039033f, 0.002662f, 0.099075f, 0.054953f, -0.087709f, -0.074473f, -0.026167f, 0.010561f, 0.064910f, -0.048163f, 0.117080f, 0.079716f, 0.054317f, 0.009378f, -0.027132f, 0.078942f, -0.012404f, 0.103651f, -0.004244f, -0.008173f, 0.060914f, 0.087383f, 0.087746f, -0.037781f, 0.050606f, 0.063811f, 0.016882f, 0.019922f, -0.024889f, -0.021333f, 0.022208f, 0.054046f, 0.093635f, -0.015359f, -0.056926f, -0.060679f, -0.068374f, -0.086364f, -0.106175f, 0.006575f, 0.092706f, -0.013663f, -0.049202f, -0.049666f, -0.070892f, 0.041667f, -0.023183f, -0.024189f, 0.082299f, -0.050371f, 0.078003f, 0.039693f, 0.034318f, 0.015197f, -0.089342f, 0.091527f, 0.011658f, 0.051869f, -0.079026f, 0.014833f, 0.073594f, 0.055603f, 0.071181f, 0.052590f, -0.087316f, -0.038878f, -0.046367f, -0.012405f, 0.022101f, 0.019167f, 0.015370f, 0.001391f, 0.008930f, -0.026245f, -0.002623f, -0.044896f, -0.072324f, 0.003032f, 0.030655f, -0.036046f, -0.013147f, -0.078305f, 0.051985f, 0.025582f, -0.076648f, -0.045496f, 0.037185f, -0.051608f, -0.055157f, 0.009054f, 0.007094f, -0.015447f, 0.081903f, 0.005257f, -0.011588f, 0.063280f, -0.063075f, 0.007903f, -0.031695f, 0.098201f, 0.082733f, -0.097714f, 0.035920f, 0.094188f, 0.036089f, -0.051022f, 0.081636f, 0.082051f, -0.057360f, 0.127112f, -0.058449f, -0.110702f, -0.029291f, -0.005079f, 0.021232f, -0.046179f, 0.095180f, -0.045993f, -0.076749f, -0.134089f, 0.044470f, 0.024930f, -0.002278f, 0.059719f, -0.119839f, -0.000828f, 0.025427f, 0.028365f, -0.055276f, 0.060639f, 0.056118f, 0.070370f, -0.034539f, -0.081985f, -0.017150f, -0.070813f, 0.134705f, 0.002142f, 0.012585f, 0.141036f, 0.047886f, -0.054521f, 0.035393f, 0.013321f, 0.039847f, 0.065617f, 0.067533f, 0.000377f, 0.068504f, 0.042653f, 0.000083f, -0.014994f, 0.004095f, 0.012388f, 0.013910f, 0.088970f, 0.033992f, -0.039176f, -0.096187f, 0.042529f, 0.097257f, -0.059756f, -0.050409f, -0.126602f, -0.005722f, -0.098217f, 0.019016f, -0.050523f, 0.099568f, -0.077130f, 0.021765f, 0.060803f, -0.102538f, 0.028442f, -0.019937f, -0.054314f, 0.060847f, -0.008499f, 0.033969f, 0.051481f, 0.010736f, 0.008386f, -0.000292f, 0.094656f, 0.069238f, 0.087237f, -0.030715f, -0.022558f, 0.079593f, 0.028003f, 0.043232f, -0.003062f, 0.032479f, 0.037306f, -0.019430f, -0.120073f, 0.026523f, -0.002185f, -0.040858f, 0.062312f, 0.040976f, -0.015376f, -0.052940f, -0.039267f, 0.044893f, -0.085178f, -0.086533f, -0.006989f, -0.015856f, -0.057653f, 0.000465f, -0.014624f, -0.011512f, -0.026058f, 0.009100f, 0.014064f, -0.008366f, -0.048505f, -0.006857f, -0.011794f, 0.101124f, -0.077014f, 0.004463f, -0.083032f, -0.057890f, 0.027106f, -0.062247f, 0.026957f, -0.015313f, -0.004047f, -0.095465f, 0.110878f, -0.048584f, 0.046331f, 0.009955f, 0.090127f, -0.057538f, 0.113030f, -0.031273f, -0.095050f, -0.025188f, -0.089261f, -0.035977f, 0.085157f, 0.069823f, -0.010253f, 0.039306f, -0.063064f, 0.003233f, -0.001512f, -0.011092f, 0.063719f, -0.077337f, 0.010751f, -0.045985f, -0.041073f, -0.069356f, 0.098374f, 0.104349f, 0.065235f, -0.009548f, -0.054281f, -0.087696f, -0.060735f, 0.058134f, 0.017195f, 0.076948f, 0.018411f, -0.038903f, -0.054438f, 0.002521f, 0.110786f, 0.022698f, 0.051965f, -0.008107f, -0.018436f, 0.032138f, 0.056024f, 0.081421f, -0.072289f, 0.017513f, 0.074221f, 0.026278f, 0.134479f, 0.015403f, 0.026618f, -0.095064f, -0.003320f, -0.037984f, -0.053272f, -0.032318f, -0.009971f, -0.068425f, -0.016069f, -0.069158f, -0.040155f, 0.039003f, -0.068484f, -0.067713f, 0.013675f, -0.065456f, 0.033641f, -0.110554f, -0.082175f, 0.016039f, 0.042236f, -0.053484f, 0.044647f, 0.064427f, 0.009276f, -0.016713f, -0.028477f, 0.000033f, 0.010284f, -0.036480f, -0.069525f, -0.051709f, 0.096777f, -0.040872f, 0.060669f, 0.025593f, -0.029071f, -0.052645f, -0.120674f, 0.059209f, 0.005338f, 0.011636f, 0.064460f, 0.050067f, -0.044831f, -0.047518f, 0.035735f, -0.046305f, -0.105119f, -0.032970f, -0.039875f, 0.062680f, 0.012878f, -0.066435f, 0.031085f, -0.068686f, -0.030517f, 0.020071f, -0.132165f, 0.025621f, -0.087702f, -0.011634f, -0.021934f, 0.097259f, 0.007374f, -0.079014f, -0.061039f, -0.063775f, -0.085910f, 0.004487f, 0.066922f, -0.043002f, -0.074815f, -0.110470f, 0.078156f, -0.049842f, 0.073235f, 0.040266f, 0.065843f, -0.018307f, 0.105538f, 0.018166f, -0.113619f, -0.032892f, 0.022402f, 0.040492f, 0.024398f, 0.042523f, 0.056263f, 0.032454f, -0.128782f, 0.041822f, 0.003088f, 0.001319f, -0.019120f, -0.090382f, 0.025100f, 0.050173f, -0.067172f, 0.016935f, -0.000439f, 0.019316f, -0.043995f, -0.032193f, -0.009299f, -0.005014f, -0.002273f, 0.115946f, -0.079886f, 0.013747f, 0.124994f, -0.014921f, 0.060212f, 0.082746f, 0.025591f, 0.039856f, -0.078765f, -0.042583f, 0.019969f, 0.057400f, 0.077534f, -0.026034f, -0.008040f, 0.013797f, 0.092969f, -0.013317f, 0.029197f, 0.052631f, -0.012551f, 0.018854f, 0.066356f, 0.049680f, 0.046314f, -0.118232f, -0.020393f, 0.034052f, -0.060488f, 0.062548f, -0.007678f, 0.017684f, -0.057720f, 0.039770f, -0.021340f, -0.012788f, 0.024259f, -0.068897f, -0.084475f, 0.096574f, -0.002051f, 0.053961f, -0.033390f, 0.068670f, 0.048369f, -0.043217f, -0.005358f, 0.017531f, -0.002916f, -0.023889f, 0.032462f, -0.023252f, 0.026050f, 0.061865f, -0.017125f, -0.052218f, 0.077964f, 0.035056f, -0.049098f, 0.035917f, -0.083830f, 0.002224f, -0.000320f, 0.026835f, -0.010435f, -0.075627f, -0.046273f, 0.052163f, -0.057901f, -0.054339f, -0.091212f, -0.068665f, 0.014443f, -0.016778f, -0.017303f, -0.070846f, 0.043355f, 0.004335f, -0.115478f, 0.036702f, -0.064277f, -0.041988f, 0.017249f, 0.074100f, 0.010444f, -0.046454f, -0.108660f, -0.075407f, 0.032251f, -0.026857f, 0.056651f, -0.056105f, -0.054591f, -0.124544f, 0.072108f, 0.061264f, 0.067747f, 0.005035f, 0.071034f, 0.044352f, 0.071512f, -0.046578f, -0.084005f, -0.051695f, -0.019028f, 0.013899f, 0.010506f, -0.040130f, -0.060539f, -0.017787f, -0.018234f, 0.050878f, -0.054350f, 0.030361f, 0.015085f, -0.085382f, -0.081133f, 0.053035f, 0.018961f, 0.088850f, 0.104734f, 0.070812f, 0.031137f, -0.102433f, -0.058005f, -0.016050f, -0.016431f, 0.067532f, -0.015952f, 0.033422f, 0.080615f, -0.041229f, -0.031500f, 0.056892f, 0.040914f, 0.035129f, -0.077079f, 0.003874f, -0.031174f, 0.059484f, 0.068343f, 0.071484f, 0.055505f, -0.044002f, 0.116196f, -0.041907f, 0.112979f, -0.033886f, -0.015776f, -0.012856f, 0.120431f, -0.053209f, -0.012748f, -0.019206f, -0.045318f, -0.052222f, -0.079125f, -0.017482f, 0.070337f, 0.098102f, -0.037986f, 0.078358f, 0.003858f, -0.143949f, -0.056674f, -0.055086f, -0.069414f, 0.131023f, 0.063549f, -0.046049f, -0.022650f, 0.109211f, 0.065231f, 0.023420f, 0.001586f, 0.085279f, 0.024806f, 0.000289f, -0.076386f, -0.052384f, 0.023488f, -0.000397f, -0.051685f, 0.018893f, -0.032378f, 0.013390f, -0.036169f, 0.075273f, -0.003310f, -0.063195f, -0.011687f, 0.066008f, 0.060349f, -0.028762f, -0.028493f, 0.052809f, -0.086055f, -0.023195f, -0.036593f, -0.057591f, -0.032779f, -0.069827f, 0.007963f, 0.055261f, -0.017483f, 0.109400f, -0.123956f, 0.028463f, -0.091599f, 0.046857f, 0.026378f, 0.060290f, 0.008481f, -0.017384f, 0.032033f, -0.005180f, 0.034483f, -0.019681f, -0.031003f, 0.018190f, -0.107328f, -0.037451f, 0.054292f, 0.000448f, -0.079259f, -0.044730f, 0.060114f, 0.039641f, 0.020774f, 0.005679f, -0.045245f, 0.002282f, -0.045140f, -0.008782f, -0.050802f, 0.042756f, -0.054643f, -0.029888f, -0.132098f, -0.018645f, 0.018769f, -0.082120f, -0.105790f, -0.045418f, -0.088389f, -0.038553f, 0.030957f, 0.043366f, 0.099673f, 0.108756f, 0.057929f, -0.090817f, 0.031897f, 0.042971f, 0.014906f, 0.058439f, -0.081858f, 0.112913f, 0.109588f, 0.079046f, -0.062791f, -0.031048f, -0.043879f, -0.010767f, -0.094151f, -0.077203f, 0.074987f, -0.006683f, 0.052270f, 0.027506f, 0.053224f, 0.013374f, 0.091014f, 0.076825f, -0.003687f, -0.075277f, -0.048827f, 0.013824f, 0.103307f, 0.008931f, 0.024205f, -0.100700f, 0.018225f, 0.082994f, -0.097091f, 0.013366f, -0.057884f, 0.064342f, -0.032829f, -0.023714f, -0.020502f, -0.117167f, -0.003540f, -0.028351f, -0.130714f, 0.109189f, 0.049085f, -0.043775f, -0.098929f, 0.109752f, 0.063157f, -0.067761f, -0.039163f, 0.008592f, 0.030105f, -0.049918f, -0.051149f, 0.035229f, 0.041363f, -0.010051f, 0.017497f, 0.004748f, -0.049929f, -0.068316f, 0.040063f, -0.061196f, 0.040762f, 0.068635f, -0.071197f, -0.010726f, -0.010920f, 0.035553f, 0.071365f, 0.039040f, -0.104551f, -0.013655f, -0.054577f, -0.008313f, -0.085402f, -0.052600f, 0.019395f, -0.008521f, -0.009932f, 0.046906f, 0.011093f, 0.042932f, -0.080242f, -0.068523f, -0.056742f, 0.118386f, -0.028381f, -0.033077f, -0.011785f, -0.052327f, 0.028373f, 0.009072f, -0.032928f, -0.055749f, -0.034609f, 0.016070f, 0.033321f, 0.034171f, 0.056606f, -0.036334f, -0.010387f, -0.086161f, 0.051416f, -0.025472f, -0.092163f, -0.002203f, 0.014496f, -0.040881f, -0.012280f, -0.035333f, 0.007430f, 0.041114f, -0.106328f, 0.068289f, 0.018424f, -0.047398f, -0.015815f, -0.050261f, -0.053232f, 0.054724f, -0.010077f, 0.024054f, 0.020086f, 0.117641f, 0.036510f, -0.073972f, -0.007017f, 0.038328f, 0.001088f, 0.059070f, 0.024857f, -0.002022f, 0.051033f, 0.058155f, 0.045771f, 0.042512f, 0.052898f, -0.120906f, 0.007373f, -0.045930f, -0.039286f, 0.012898f, -0.023314f, 0.019423f, -0.013302f, -0.054690f, -0.006366f, 0.022471f, 0.046695f, -0.049554f, 0.009293f, 0.060235f, 0.075902f, -0.014301f, 0.022805f, -0.114107f, -0.081148f, -0.010006f, -0.027793f, -0.007317f, -0.033232f, -0.009619f, 0.016697f, 0.065582f, -0.040170f, -0.100268f, -0.012126f, -0.005583f, -0.125621f, 0.136446f, -0.000575f, -0.000520f, -0.111259f, 0.063102f, -0.029289f, -0.034437f, -0.081563f, 0.102815f, -0.025830f, 0.025249f, 0.021471f, 0.008636f, 0.061961f, 0.022765f, 0.006276f, 0.041773f, -0.016027f, -0.005264f, 0.023555f, -0.012350f, -0.007830f, 0.009835f, 0.007643f, 0.071987f, -0.019086f, -0.002827f, 0.079201f, -0.052700f, -0.105213f, -0.000936f, -0.002826f, 0.029263f, -0.035415f, -0.064301f, -0.040727f, -0.038886f, 0.003578f, 0.115536f, -0.110666f, 0.029051f, -0.082311f, -0.002197f, -0.098276f, 0.033691f, -0.100099f, 0.031840f, 0.012611f, -0.037840f, -0.046226f, 0.057659f, -0.008046f, -0.054242f, -0.023650f, 0.008355f, -0.004854f, -0.056018f, 0.082463f, -0.038432f, -0.001288f, -0.026808f, 0.060357f, 0.027332f, 0.019014f, 0.020679f, -0.086706f, 0.093117f, -0.009851f, -0.073116f, -0.001884f, -0.035279f, -0.118058f, -0.059763f, -0.000947f, -0.003117f, -0.023809f, 0.019653f, -0.026635f, 0.017952f, -0.062263f, -0.059537f, 0.020133f, 0.120469f, 0.076057f, 0.071456f, -0.033837f, 0.056137f, -0.084251f, 0.015972f, 0.031163f, 0.060977f, 0.030440f, -0.020847f, -0.038300f, 0.045966f, 0.001450f, -0.004664f, -0.094468f, -0.046380f, 0.004573f, 0.032483f, -0.029948f, 0.073010f, 0.066746f, 0.048652f, 0.057378f, 0.081716f, 0.067319f, 0.033345f, -0.037540f, -0.027035f, -0.010638f, 0.002488f, -0.029282f, 0.006967f, -0.054381f, -0.073719f, -0.054668f, -0.042482f, -0.024484f, -0.004507f, -0.024438f, 0.039713f, 0.052899f, -0.059053f, -0.049687f, -0.056490f, -0.109382f, 0.115041f, -0.058551f, -0.091491f, -0.019226f, 0.066937f, -0.055074f, -0.083902f, 0.043374f, 0.100960f, 0.061927f, -0.012338f, -0.017495f, 0.050028f, 0.084568f, -0.045947f, 0.103498f, -0.062157f, -0.019952f, 0.010191f, -0.039401f, 0.071323f, -0.049644f, -0.009317f, 0.015243f, 0.044475f, -0.071398f, -0.028314f, 0.043742f, -0.067481f, -0.005110f, 0.007117f, -0.107291f, -0.067016f, -0.082673f, 0.041489f, -0.080270f, -0.047632f, 0.020945f, 0.093003f, -0.127448f, -0.040156f, -0.020986f, 0.026444f, 0.024669f, -0.019544f, -0.076495f, -0.016624f, -0.069825f, 0.029484f, -0.000787f, -0.093663f, 0.096795f, 0.068063f, -0.100908f, -0.052187f, 0.047075f, -0.035324f, -0.016374f, 0.010729f, 0.143031f, -0.027622f, -0.044524f, 0.045079f, -0.090931f, 0.029479f, -0.015335f, -0.010420f, -0.031616f, -0.002579f, -0.035198f, 0.019510f, -0.104597f, -0.004445f, 0.005093f, 0.015688f, 0.018533f, -0.102540f, -0.026579f, -0.013565f, -0.032852f, 0.008483f, 0.119725f, 0.122938f, 0.015021f, 0.013347f, 0.068080f, 0.054965f, -0.124113f, 0.041035f, -0.050824f, 0.022791f, 0.032364f, -0.068453f, 0.002828f, -0.012906f, -0.069715f, -0.139358f, -0.019134f, 0.042200f, -0.023651f, 0.029781f, 0.075552f, -0.025009f, -0.030071f, -0.038090f, -0.042925f, 0.022385f, 0.123460f, 0.017845f, -0.028814f, 0.050361f, -0.051357f, -0.044160f, 0.003217f, -0.045560f, -0.077706f, -0.024189f, -0.017514f, 0.051186f, 0.063760f, 0.003394f, -0.071586f, 0.028746f, -0.038231f, -0.039223f, -0.023106f, -0.052002f, -0.041080f, 0.068308f, -0.006067f, 0.018149f, -0.004364f, 0.090475f, -0.080664f, -0.044376f, 0.016737f, -0.000804f, -0.013939f, 0.051181f, -0.092254f, 0.013727f, 0.024488f, -0.020585f, -0.017910f, 0.025477f, 0.007856f, -0.007650f, 0.005159f, 0.053622f, 0.067484f, -0.007157f, -0.067669f, 0.041631f, 0.008313f, -0.048617f, -0.028248f, 0.041383f, -0.090807f, -0.022233f, -0.061071f, -0.068605f, -0.029254f, -0.089402f, -0.042387f, -0.027371f, 0.008907f, 0.117970f, -0.015481f, 0.039584f, -0.139564f, -0.082049f, -0.011330f, 0.110695f, 0.007134f, 0.031232f, -0.067962f, -0.027919f, -0.030008f, -0.073054f, -0.016008f, 0.050069f, -0.070008f, -0.094700f, 0.012575f, 0.062227f, 0.049599f, 0.016352f, 0.138625f, -0.051359f, 0.049831f, -0.048022f, -0.097808f, 0.023839f, 0.049771f, 0.019109f, -0.007032f, -0.028030f, -0.079352f, -0.060365f, -0.090280f, -0.027927f, 0.050490f, -0.076519f, -0.093081f, -0.052522f, 0.031833f, -0.011798f, -0.081464f, -0.010098f, 0.075075f, 0.045260f, 0.102710f, 0.076805f, 0.052066f, 0.036370f, -0.049091f, -0.009005f, 0.030510f, 0.041184f, 0.008902f, 0.031984f, -0.048110f, 0.053216f, 0.000822f, -0.109530f, -0.028263f, -0.039880f, -0.038769f, 0.050047f, 0.030651f, 0.058962f, -0.015646f, 0.024750f, -0.062358f, 0.110176f, 0.044628f, 0.057506f, -0.086994f, -0.061971f, 0.027782f, 0.041496f, -0.010146f, 0.003674f, -0.013086f, -0.018830f, -0.064941f, 0.055261f, 0.021392f, 0.082667f, 0.057766f, 0.086183f, 0.027781f, -0.081033f, 0.027298f, -0.087089f, -0.075752f, 0.002997f, 0.028498f, -0.061333f, -0.090656f, 0.038165f, -0.023028f, -0.031407f, -0.077695f, 0.063194f, -0.017165f, -0.014213f, -0.015618f, -0.021640f, 0.054228f, -0.055557f, 0.078577f, -0.023014f, 0.029856f, 0.001986f, -0.085847f, 0.047772f, 0.019377f, -0.033139f, -0.123229f, -0.095844f, 0.057826f, 0.003758f, -0.022552f, -0.013222f, -0.064161f, 0.000739f, -0.117413f, -0.073162f, 0.002323f, -0.084815f, -0.069721f, 0.034231f, 0.021058f, 0.042895f, -0.134265f, -0.068788f, -0.089609f, 0.015164f, -0.030455f, 0.047470f, 0.009335f, -0.012681f, -0.092079f, 0.002081f, 0.017577f, 0.005210f, 0.005107f, 0.005447f, -0.003986f, -0.000254f, 0.022121f, 0.023610f, 0.091508f, -0.039753f, 0.079313f, -0.088235f, 0.017898f, -0.010705f, 0.008136f, -0.060212f, 0.005365f, 0.057736f, -0.043797f, -0.019603f, 0.007310f, 0.016627f, -0.014072f, 0.027097f, -0.059870f, 0.047996f, -0.100345f, -0.011155f, -0.070071f, 0.079737f, 0.029045f, 0.051033f, -0.022890f, -0.009994f, 0.069747f, 0.062834f, -0.055223f, 0.091388f, 0.010701f, 0.020152f, 0.020507f, 0.044006f, 0.029410f, -0.035140f, 0.002105f, 0.097974f, -0.028087f, -0.074088f, -0.037985f, 0.029874f, -0.101911f, 0.115742f, -0.030083f, -0.006933f, -0.032445f, -0.009476f, 0.048237f, 0.016834f, 0.087370f, -0.047043f, -0.029761f, 0.078240f, 0.058545f, -0.043465f, -0.021614f, -0.075495f, -0.046748f, 0.025176f, 0.015341f, -0.013597f, 0.132996f, 0.030376f, -0.015732f, 0.030040f, 0.031607f, -0.089892f, -0.001317f, -0.024623f, -0.130438f, 0.112810f, 0.040960f, -0.079920f, 0.006990f, 0.123737f, 0.040493f, -0.073007f, -0.052559f, 0.070092f, -0.028740f, 0.050284f, -0.081287f, -0.069172f, 0.004818f, -0.059646f, 0.075683f, -0.013030f, -0.013418f, -0.046932f, -0.008917f, -0.041505f, 0.032277f, 0.000164f, -0.029196f, 0.030351f, 0.041338f, 0.024857f, -0.001320f, -0.050578f, -0.090793f, 0.019044f, 0.033041f, 0.022149f, -0.091579f, 0.071652f, -0.028465f, -0.092576f, -0.008744f, 0.018835f, -0.065552f, -0.042292f, -0.045539f, -0.030452f, 0.030619f, 0.039021f, -0.047717f, 0.036412f, 0.031746f, -0.046644f, -0.016180f, -0.060418f, -0.001939f, 0.000148f, 0.039383f, -0.099723f, 0.114301f, 0.072914f, 0.083271f, -0.035672f, 0.137674f, -0.060677f, 0.056939f, -0.043298f, -0.092730f, 0.014085f, 0.010167f, -0.005361f, -0.045936f, 0.003696f, -0.092808f, 0.022300f, -0.094179f, -0.051230f, -0.010914f, -0.007556f, -0.074342f, -0.080392f, 0.046665f, 0.028553f, -0.071782f, -0.014956f, 0.067891f, -0.038611f, -0.011982f, 0.063643f, 0.024730f, 0.043771f, -0.112889f, -0.008707f, -0.016346f, -0.008061f, 0.051193f, -0.014073f, -0.039878f, 0.118630f, 0.051201f, -0.056369f, -0.106437f, -0.056175f, -0.035524f, -0.019134f, 0.025730f, -0.005577f, -0.034624f, -0.031924f, -0.039623f, -0.011468f, 0.031136f, -0.020124f, 0.039112f, -0.066500f, 0.074043f, 0.069791f, -0.032170f, 0.000434f, -0.084128f, 0.051474f, -0.015461f, -0.018810f, 0.060135f, -0.032373f, 0.087892f, -0.038958f, 0.072815f, -0.089683f, 0.053284f, -0.045037f, -0.065513f, 0.054644f, 0.052673f, -0.092171f, -0.046846f, 0.007803f, 0.019733f, -0.095861f, 0.023381f, 0.036726f, 0.117237f, 0.076571f, -0.044582f, -0.080925f, -0.035560f, -0.133515f, -0.027821f, 0.035483f, 0.033917f, 0.053823f, -0.036264f, 0.012699f, 0.024469f, -0.028533f, -0.108501f, -0.040168f, -0.026487f, -0.008624f, 0.124807f, -0.036687f, -0.127171f, -0.039830f, -0.038881f, -0.074150f, 0.001615f, 0.075081f, 0.066464f, -0.067980f, 0.028683f, 0.112114f, -0.044804f, -0.009490f, 0.014117f, -0.031162f, -0.039549f, -0.001924f, -0.073874f, -0.054881f, 0.029452f, 0.034093f, -0.001084f, -0.082921f, 0.124750f, -0.078650f, -0.071734f, -0.025420f, 0.049376f, 0.008058f, -0.069179f, 0.011149f, 0.030114f, 0.014699f, 0.056339f, 0.060203f, -0.018841f, -0.090552f, 0.086923f, -0.023913f, -0.004069f, -0.010324f, -0.054615f, 0.028730f, -0.024597f, -0.069706f, -0.117158f, -0.081008f, -0.000863f, -0.030420f, -0.033326f, -0.075944f, 0.038584f, 0.006656f, -0.011363f, -0.063057f, 0.003194f, 0.055538f, 0.098128f, 0.022262f, -0.010233f, 0.032838f, -0.036750f, -0.031896f, 0.081725f, -0.060151f, 0.016903f, -0.005404f, -0.043550f, -0.115172f, -0.015387f, -0.039742f, 0.021565f, 0.004325f, -0.057877f, 0.038609f, -0.050321f, -0.065372f, -0.072058f, 0.074633f, 0.060439f, -0.006335f, -0.019990f, -0.019330f, -0.054250f, -0.074180f, 0.054648f, -0.083122f, -0.058474f, -0.060098f, -0.083406f, 0.043940f, 0.003951f, -0.028953f, 0.046984f, 0.016659f, 0.086935f, -0.079007f, -0.041118f, 0.017046f, -0.121635f, 0.055198f, 0.016120f, -0.052006f, 0.005800f, 0.082310f, 0.026491f, -0.027724f, 0.019563f, 0.018834f, 0.024228f, 0.023317f, -0.064440f, 0.029955f, -0.025784f, -0.076493f, -0.013587f, 0.053108f, 0.025299f, 0.030227f, -0.033929f, 0.033466f, -0.045927f, 0.028207f, -0.068417f, -0.062010f, -0.025783f, -0.027622f, 0.000721f, 0.037501f, -0.075886f, -0.050879f, -0.095349f, -0.026197f, -0.039684f, -0.000759f, 0.022373f, -0.021698f, 0.046907f, 0.085722f, 0.007128f, -0.083755f, -0.048561f, -0.045146f, -0.021457f, 0.079247f, -0.138559f, -0.096292f, 0.029293f, -0.045573f, 0.028796f, -0.003554f, 0.149434f, -0.085776f, -0.043780f, -0.019232f, 0.100385f, -0.007067f, -0.042282f, 0.049564f, 0.142021f, -0.001521f, 0.115541f, -0.024705f, -0.022062f, -0.021013f, 0.059810f, -0.036472f, -0.031849f, 0.016621f, -0.063709f, -0.030361f, -0.016512f, -0.025096f, -0.005136f, -0.066060f, -0.032896f, -0.043419f, 0.016847f, 0.010381f, -0.043803f, -0.086881f, -0.072176f, -0.061528f, 0.028766f, 0.087394f, 0.054083f, 0.109901f, -0.047339f, 0.030311f, -0.056834f, -0.023269f, -0.031246f, -0.027208f, 0.082016f, -0.017796f, -0.065511f, -0.024043f, -0.081104f, 0.068012f, 0.000343f, 0.054413f, -0.058213f, 0.052958f, -0.050145f, 0.054333f, -0.053800f, -0.006256f, 0.055089f, 0.041621f, 0.025497f, 0.070381f, 0.039609f, -0.079726f, 0.016556f, -0.030148f, 0.056019f, 0.077672f, -0.095329f, 0.067879f, -0.000528f, -0.000766f, 0.001366f, -0.020116f, 0.099056f, -0.168683f, -0.053142f, -0.023689f, -0.064763f, 0.135575f, 0.062848f, -0.000239f, -0.038219f, -0.040335f, -0.087155f, -0.006825f, 0.039853f, 0.047141f, 0.103318f, 0.024406f, -0.126427f, -0.080141f, 0.048465f, -0.038157f, 0.095696f, -0.043283f, 0.082870f, -0.045908f, -0.064901f, 0.080833f, 0.017067f, 0.001904f, -0.139233f, -0.025597f, 0.037134f, -0.060042f, 0.086103f, -0.013455f, -0.054149f, -0.055441f, -0.089683f, -0.033774f, -0.068906f, 0.046355f, -0.034588f, -0.034783f, -0.009721f, 0.025219f, 0.001919f, 0.056259f, -0.044018f, 0.022464f, -0.039004f, -0.057523f, -0.059034f, -0.021904f, 0.010819f, 0.051825f, -0.009613f, 0.059790f, 0.140720f, -0.038449f, 0.012091f, -0.062033f, 0.104038f, 0.026416f, -0.101982f, -0.021950f, 0.075163f, -0.132121f, -0.026776f, 0.035669f, -0.021423f, -0.059453f, -0.048712f, -0.064647f, 0.044156f, -0.002440f, -0.058546f, -0.043251f, -0.021173f, -0.099591f, -0.082084f, -0.093943f, 0.017309f, 0.010387f, 0.048118f, 0.049548f, 0.049344f, -0.026034f, 0.025417f, -0.092131f, 0.063788f, 0.056033f, 0.039147f, 0.048553f, -0.056903f, 0.065790f, 0.001758f, 0.056740f, -0.015454f, -0.011548f, 0.022298f, 0.081069f, 0.008899f, -0.076247f, -0.029811f, 0.028853f, 0.053225f, -0.033428f, -0.126101f, 0.085484f, -0.027028f, 0.031761f, -0.028067f, -0.000200f, 0.087029f, 0.081134f, -0.049831f, 0.008263f, 0.079253f, -0.066448f, 0.046610f, -0.047257f, 0.018711f, 0.078659f, -0.027023f, 0.007124f, 0.091438f, -0.023442f, -0.026057f, 0.100581f, 0.100251f, -0.057686f, -0.028274f, -0.062998f, -0.146234f, 0.066037f, 0.055620f, -0.022176f, 0.028308f, -0.032199f, -0.071641f, -0.055270f, -0.004065f, -0.015360f, 0.119298f, -0.012325f, 0.006547f, -0.027668f, 0.072661f, -0.059442f, 0.093513f, -0.055179f, 0.043273f, 0.050086f, -0.049596f, -0.059204f, 0.028551f, 0.036329f, -0.083947f, 0.003686f, -0.066371f, -0.123850f, 0.114600f, -0.053266f, -0.061444f, 0.029829f, -0.072418f, 0.014210f, -0.108849f, 0.002670f, -0.080466f, 0.052478f, -0.041170f, 0.049048f, -0.023388f, -0.074101f, 0.022953f, -0.075590f, -0.008357f, -0.057126f, -0.052990f, -0.082388f, -0.000653f, -0.044258f, 0.044714f, -0.034994f, 0.160816f, 0.025885f, -0.058390f, -0.004673f, -0.036204f, -0.013538f, -0.002824f, 0.031470f, 0.080778f, -0.094062f, 0.030942f, 0.000309f, 0.013981f, -0.065953f, 0.021050f, -0.056137f, 0.003862f, -0.037635f, -0.081953f, -0.037150f, 0.020563f, 0.027222f, -0.015603f, -0.050579f, -0.093258f, 0.042130f, -0.081225f, 0.076927f, 0.021286f, -0.034625f, 0.060308f, -0.095991f, 0.054418f, 0.034185f, 0.001264f, 0.056462f, -0.006575f, 0.080614f, -0.099788f, 0.057181f, -0.032441f, -0.078879f, -0.019792f, -0.046329f, -0.054321f, -0.005541f, -0.067165f, -0.065115f, -0.059098f, 0.059172f, 0.006108f, -0.020386f, -0.088575f, -0.016524f, -0.100196f, -0.012683f, 0.043056f, 0.001527f, -0.006009f, -0.016585f, 0.089611f, 0.046575f, -0.004504f, -0.015423f, -0.034479f, 0.004756f, 0.017889f, -0.001134f, 0.125642f, 0.081896f, -0.035040f, 0.017326f, 0.008420f, -0.117003f, 0.007834f, -0.065485f, 0.001793f, 0.000425f, 0.027488f, -0.007620f, 0.018957f, 0.015230f, 0.018612f, 0.004743f, -0.016578f, 0.001898f, 0.050226f, 0.082982f, -0.042780f, 0.023720f, 0.016160f, -0.115363f, -0.057415f, -0.003703f, 0.031390f, 0.044854f, -0.018051f, -0.007428f, 0.025114f, -0.047305f, -0.123515f, -0.067948f, -0.052421f, -0.098944f, 0.001107f, -0.061412f, -0.051418f, -0.034091f, 0.042883f, -0.052807f, -0.053714f, -0.037484f, -0.086340f, 0.069602f, -0.074197f, 0.113404f, 0.009913f, -0.034856f, 0.009556f, -0.018519f, -0.053377f, 0.009252f, -0.141144f, -0.073583f, -0.001554f, 0.027081f, 0.077649f, -0.059924f, 0.155370f, -0.075584f, -0.015000f, -0.031706f, 0.024520f, -0.037323f, -0.044747f, 0.057829f, 0.054182f, -0.068511f, 0.103667f, 0.083877f, 0.007231f, -0.084964f, 0.054164f, -0.016766f, -0.025583f, -0.042836f, 0.023483f, -0.069028f, 0.053936f, -0.106010f, -0.007773f, -0.021569f, -0.031991f, 0.035654f, -0.029456f, 0.001248f, -0.047855f, -0.086758f, -0.043978f, -0.022544f, -0.044872f, -0.044605f, 0.021114f, 0.091404f, 0.009237f, -0.004914f, -0.081896f, 0.038532f, -0.021457f, -0.000439f, 0.046223f, 0.067293f, -0.054485f, -0.005318f, -0.004594f, -0.000853f, -0.023054f, 0.001564f, -0.100733f, 0.004722f, 0.015253f, 0.008794f, -0.020771f, -0.030674f, 0.037967f, 0.035435f, -0.066741f, 0.003287f, -0.048355f, 0.044294f, -0.019906f, 0.064090f, -0.023748f, 0.085962f, -0.156077f, 0.016886f, -0.016429f, 0.106882f, 0.021616f, 0.068397f, 0.115500f, -0.165547f, -0.044373f, 0.041841f, -0.073870f, -0.021448f, -0.040637f, -0.000107f, -0.089027f, -0.018448f, -0.091811f, 0.006999f, 0.065113f, 0.049362f, 0.067627f, -0.036631f, 0.013315f, 0.002856f, -0.050869f, 0.049663f, 0.050039f, -0.010171f, 0.023847f, -0.041259f, -0.011066f, 0.016324f, -0.046982f, -0.057323f, -0.036423f, 0.055442f, -0.042918f, -0.011947f, 0.089702f, -0.019190f, -0.140973f, 0.021546f, -0.023184f, -0.056050f, -0.053324f, -0.061499f, -0.025020f, 0.074520f, -0.049479f, 0.123824f, -0.018658f, -0.025873f, 0.058911f, -0.068022f, -0.030495f, 0.030744f, -0.089030f, 0.035128f, -0.043372f, 0.032250f, 0.012432f, 0.009293f, 0.060147f, -0.001310f, 0.004015f, -0.035191f, 0.025045f, 0.035575f, 0.047608f, 0.006480f, 0.085724f, 0.078258f, 0.054783f, 0.016685f, -0.053573f, 0.030107f, -0.037611f, -0.018586f, 0.040780f, -0.053868f, 0.019329f, -0.039331f, -0.089788f, 0.007785f, -0.090856f, -0.009053f, 0.007854f, -0.014784f, 0.045183f, 0.101346f, -0.072161f, -0.031561f, 0.037375f, 0.024800f, -0.034612f, 0.020821f, -0.052627f, 0.092987f, -0.062368f, -0.022758f, -0.096842f, 0.094224f, 0.046862f, -0.010789f, -0.052441f, 0.002177f, -0.091932f, -0.068672f, -0.086577f, 0.017837f, -0.133389f, 0.086526f, -0.097103f, 0.095278f, -0.079990f, 0.002911f, -0.079422f, -0.007056f, -0.022398f, -0.079019f, -0.014857f, 0.064137f, 0.107671f, 0.011626f, -0.038207f, -0.025062f, 0.077497f, -0.038732f, -0.008443f, -0.020681f, -0.022008f, -0.056935f, -0.091956f, 0.066329f, 0.107191f, 0.000850f, 0.039327f, -0.034601f, 0.062659f, 0.052933f, 0.008541f, 0.039142f, 0.065966f, 0.003152f, 0.090255f, -0.088609f, -0.065127f, 0.030917f, 0.009868f, 0.098752f, 0.075656f, -0.020724f, -0.132819f, 0.081013f, -0.036938f, -0.071519f, 0.061166f, 0.070100f, 0.059136f, -0.089736f, -0.068075f, 0.075307f, 0.049610f, -0.042687f, -0.026094f, 0.029882f, -0.037802f, -0.034564f, 0.026505f, -0.067737f, -0.045094f, -0.086825f, 0.086070f, -0.080036f, -0.088941f, -0.085484f, 0.082728f, 0.194603f, -0.106988f, 0.033776f, -0.028418f, 0.061446f, -0.000967f, 0.022338f, -0.073236f, 0.032086f, 0.071515f, -0.049987f, -0.032038f, -0.091656f, 0.093701f, -0.046993f, 0.013861f, 0.019780f, -0.090758f, -0.085242f, 0.062119f, 0.013384f, -0.032907f, -0.032466f, 0.037718f, -0.058386f, 0.138266f, 0.023424f, -0.050054f, -0.084548f, 0.041402f, -0.047080f, 0.013286f, 0.004243f, -0.052406f, -0.009564f, 0.021342f, 0.054287f, -0.043207f, -0.121013f, -0.001553f, 0.055818f, -0.009851f, 0.041394f, 0.034128f, 0.010381f, -0.021796f, -0.013236f, -0.054580f, -0.020023f, 0.063564f, -0.119810f, -0.094920f, -0.125639f, -0.047526f, -0.071303f, 0.001523f, -0.034137f, -0.024073f, 0.029030f, 0.047002f, 0.010517f, -0.018253f, 0.061935f, -0.063972f, 0.002686f, -0.040300f, -0.052172f, -0.078783f, 0.083997f, -0.033835f, 0.018954f, -0.060833f, -0.020069f, 0.009972f, 0.077076f, 0.003595f, -0.058416f, 0.017036f, -0.100877f, -0.037317f, -0.020502f, -0.056859f, -0.074326f, 0.051211f, -0.031553f, 0.072660f, -0.058718f, -0.053540f, 0.047305f, 0.020525f, -0.028050f, 0.009333f, 0.044126f, -0.047513f, -0.078903f, 0.082935f, -0.044840f, 0.023827f, -0.018869f, -0.060303f, 0.026521f, -0.004256f, -0.065436f, -0.062119f, 0.061616f, 0.006242f, -0.087249f, -0.002311f, 0.066010f, 0.059442f, -0.047782f, -0.047565f, 0.024507f, 0.004993f, -0.081617f, 0.021327f, -0.009959f, 0.036935f, -0.041647f, 0.068663f, 0.000870f, -0.001323f, 0.023125f, 0.111563f, -0.085307f, -0.014111f, -0.074745f, 0.061111f, 0.030997f, 0.045473f, 0.034212f, -0.000499f, -0.034958f, -0.034953f, 0.056404f, -0.155736f, 0.063597f, -0.035003f, -0.016136f, -0.032845f, -0.022136f, 0.085785f, -0.052183f, -0.047170f, -0.108070f, 0.014458f, -0.082138f, 0.075920f, 0.018198f, 0.060998f, -0.057981f, -0.079522f, -0.022774f, 0.193498f, 0.045426f, -0.037469f, -0.108659f, 0.093172f, -0.053649f, -0.084891f, -0.101991f, 0.003175f, 0.169615f, 0.022802f, -0.041171f, -0.049141f, 0.040120f, 0.027621f, -0.019836f, 0.001123f, -0.023797f, 0.031004f, 0.014370f, -0.006418f, 0.016024f, -0.031276f, -0.086692f, 0.007401f, -0.062713f, -0.062271f, -0.083371f, -0.031926f, -0.004658f, -0.075942f, -0.051410f, 0.090411f, 0.038951f, -0.042076f, 0.123364f, 0.035867f, 0.095197f, -0.035294f, -0.062987f, 0.019560f, -0.058885f, -0.009311f, -0.020103f, 0.036217f, -0.076246f, 0.070764f, 0.081239f, 0.016861f, 0.018963f, 0.061004f, -0.054529f, 0.060061f, -0.019365f, 0.024851f, 0.064672f, -0.037830f, -0.001982f, 0.056120f, 0.058908f, 0.059201f, -0.078297f, -0.040922f, 0.086077f, 0.126050f, 0.019795f, -0.097445f, -0.023430f, -0.013019f, 0.015823f, -0.062718f, 0.033161f, 0.041549f, -0.085016f, -0.052915f, -0.026953f, 0.011220f, -0.072060f, -0.061369f, 0.044611f, -0.063192f, -0.052643f, -0.027051f, 0.052040f, 0.068611f, -0.061764f, 0.049964f, 0.005756f, -0.082370f, -0.070190f, 0.010617f, -0.014598f, 0.026776f, 0.030542f, 0.007975f, -0.104397f, -0.064167f, -0.031868f, 0.020907f, -0.011864f, -0.065782f, -0.021414f, 0.062346f, 0.008263f, -0.005125f, 0.076306f, -0.077128f, 0.008549f, -0.034664f, -0.004059f, -0.122395f, 0.081284f, 0.034305f, 0.016668f, -0.001664f, 0.014685f, 0.066835f, -0.009426f, 0.066483f, -0.022028f, 0.048046f, -0.059634f, 0.017083f, -0.033780f, -0.015368f, -0.097269f, -0.018041f, -0.021450f, 0.086903f, 0.001301f, 0.040203f, -0.137975f, 0.022333f, -0.062407f, -0.108256f, 0.020768f, 0.029076f, 0.149142f, -0.044624f, 0.059404f, -0.023284f, -0.031737f, -0.099617f, -0.070447f, -0.051449f, -0.008552f, 0.059919f, -0.068518f, -0.003066f, -0.073336f, 0.033465f, -0.101562f, 0.088157f, 0.028725f, -0.102609f, -0.047020f, -0.114065f, 0.039511f, -0.036370f, 0.010484f, -0.000243f, -0.000012f, -0.047044f, 0.019859f, 0.007767f, 0.003751f, 0.038702f, -0.074500f, 0.037165f, -0.007880f, -0.045556f, 0.075677f, -0.010682f, 0.046184f, -0.027851f, 0.026499f, -0.005940f, 0.069156f, 0.001715f, -0.030922f, 0.110498f, -0.086942f, 0.071907f, 0.062892f, -0.087963f, -0.005237f, 0.002345f, -0.027585f, -0.027961f, -0.046767f, -0.051975f, -0.001544f, -0.001360f, 0.024842f, -0.029099f, -0.055230f, -0.033433f, -0.028774f, 0.075553f, -0.093166f, 0.011215f, 0.033335f, 0.009354f, 0.053258f, 0.058387f, -0.040703f, -0.026671f, -0.032920f, -0.054266f, 0.041085f, -0.069730f, 0.042735f, 0.079360f, -0.093150f, 0.041352f, 0.067152f, -0.006045f, -0.067457f, -0.000975f, -0.003779f, -0.060747f, -0.009524f, 0.140802f, -0.127252f, 0.050135f, -0.094775f, 0.052694f, 0.034007f, -0.027317f, -0.101450f, 0.052676f, 0.070793f, 0.030656f, -0.039689f, -0.079636f, 0.070581f, 0.091720f, -0.020951f, 0.005192f, 0.019616f, -0.035093f, -0.071628f, -0.062629f, -0.023518f, 0.009603f, -0.076602f, 0.053973f, 0.022276f, -0.001274f, -0.029448f, -0.062954f, -0.002980f, 0.074340f, -0.009930f, 0.000721f, -0.079185f, 0.162607f, 0.007862f, 0.027165f, -0.088290f, 0.050470f, 0.033374f, -0.005637f, -0.030527f, -0.008591f, 0.132541f, -0.020013f, 0.015543f, -0.040288f, 0.045704f, -0.094344f, 0.010434f, -0.035492f, 